<?xml version="1.0"?>
<opencv_storage>
<opencv_ml_svm>
  <format>3</format>
  <svmType>C_SVC</svmType>
  <kernel>
    <type>LINEAR</type></kernel>
  <C>1.0000000000000001e-01</C>
  <term_criteria><epsilon>1.1920928955078125e-07</epsilon>
    <iterations>1000</iterations></term_criteria>
  <var_count>576</var_count>
  <class_count>2</class_count>
  <class_labels type_id="opencv-matrix">
    <rows>2</rows>
    <cols>1</cols>
    <dt>i</dt>
    <data>
      0 1</data></class_labels>
  <sv_total>1</sv_total>
  <support_vectors>
    <_>
      -2.93411966e-02 2.71089301e-02 4.70797941e-02 0. 3.34781259e-02 0.
      1.08993031e-01 6.94451407e-02 -2.93411966e-02 -8.66765678e-02
      7.77331218e-02 1.44095376e-01 0. 1.77976012e-01 0. 8.35608393e-02
      5.44986017e-02 -8.66765678e-02 -1.00606598e-01 -1.48268208e-01
      -3.02043766e-01 0. -2.85416812e-01 0. 9.98476073e-02
      3.56459320e-02 -1.00606598e-01 -1.85735181e-01 -1.38829663e-01
      -9.91411582e-02 0. 8.45571980e-03 0. 8.41367319e-02 6.28576428e-02
      -1.85735181e-01 -1.03376493e-01 1.27089277e-01 1.98116452e-01 0.
      1.48634925e-01 0. -1.99045264e-03 9.13149025e-03 -1.03376493e-01
      1.25818536e-01 7.32514411e-02 9.78185162e-02 0. 3.23606074e-01 0.
      1.90775767e-01 1.15892231e-01 1.25818536e-01 -9.88181531e-02
      -1.79944392e-02 -2.57493824e-01 0. -1.15436830e-01 0.
      -1.12124488e-01 -9.92851630e-02 -9.88181531e-02 8.10373574e-02
      -2.60506094e-01 -2.08772466e-01 0. -2.09749222e-01 0.
      6.72996193e-02 5.01493551e-02 8.10373574e-02 8.21800083e-02
      6.83487728e-02 1.09486096e-01 0. 2.64455825e-01 0. 1.71390906e-01
      8.33928362e-02 8.21800083e-02 -1.76535118e-02 3.33674066e-02
      -7.78685883e-02 0. 2.37035930e-01 0. 1.86249346e-01 1.42147481e-01
      -1.76535118e-02 1.53206423e-01 -1.32752433e-01 1.67760681e-02 0.
      -6.40260875e-02 0. 5.25616109e-02 1.61312111e-02 1.53206423e-01
      5.35861626e-02 -1.15902528e-01 -1.53598309e-01 0. -1.00790568e-01
      0. 1.00592144e-01 5.48106544e-02 5.35861626e-02 -8.30664337e-02
      7.41945207e-02 1.25780776e-01 0. 1.13645621e-01 0. 1.72089227e-02
      4.80686538e-02 -8.30664337e-02 8.38934630e-02 1.40807882e-01
      3.24266583e-01 0. 2.80564427e-01 0. 3.63547052e-03 4.36208509e-02
      8.38934630e-02 -1.51445493e-02 6.52771443e-03 -4.38037030e-02 0.
      -1.31206334e-01 0. -1.04174495e-01 -2.01518163e-02 -1.51445493e-02
      3.54807153e-02 1.56335354e-01 2.19170585e-01 0. -1.60410464e-01 0.
      -7.27410614e-02 -7.19905943e-02 3.54807153e-02 1.03688978e-01
      -5.33664599e-02 -2.03228191e-01 0. -2.15024859e-01 0.
      1.41326472e-01 5.83848841e-02 1.03688978e-01 1.99642796e-02
      6.03757240e-03 -1.16272733e-01 0. 1.10833785e-02 0. 1.38699636e-01
      6.43190369e-02 1.99642796e-02 1.25871897e-01 -1.05159417e-01
      -2.70318329e-01 0. -2.45524406e-01 0. 8.98820385e-02
      3.89554501e-02 1.25871897e-01 1.06024742e-02 -2.14753076e-01
      -1.82037473e-01 0. -8.65805522e-02 0. 4.04244959e-02
      4.11182605e-02 1.06024742e-02 -1.45827746e-02 3.10208704e-02
      -6.83933571e-02 0. -3.03884931e-02 0. 3.43153104e-02
      3.01049091e-02 -1.45827746e-02 1.92695633e-02 -1.54743746e-01
      -7.05411732e-02 0. -1.25332281e-01 0. 1.36211380e-01
      9.97814760e-02 1.92695633e-02 -4.24720161e-02 -1.11676805e-01
      -5.63455336e-02 0. -2.16443539e-01 0. -1.66142508e-01
      -4.75193486e-02 -4.24720161e-02 7.22329393e-02 -1.69274747e-01
      -3.91019043e-03 0. -1.54645711e-01 0. -1.58945993e-02
      6.97721541e-02 7.22329393e-02 6.03510439e-02 -7.11655319e-02
      -7.59161189e-02 0. -9.11436379e-02 0. 1.58616021e-01
      8.68053809e-02 6.03510439e-02 7.00972304e-02 3.36290784e-02
      5.63401021e-02 0. -6.29668310e-02 0. 1.93320364e-01 1.00594327e-01
      7.00972304e-02 2.52905069e-03 -1.51072279e-01 -4.40532491e-02 0.
      -2.41139323e-01 0. -3.48808654e-02 8.30348805e-02 2.52905069e-03
      3.97580154e-02 -8.06848332e-03 -1.36917591e-01 0. -1.24462247e-01
      0. 1.48148732e-02 8.83313417e-02 3.97580154e-02 7.54764751e-02
      1.25359818e-01 1.76524267e-01 0. -1.74638495e-01 0. 9.01104212e-02
      4.88623343e-02 7.54764751e-02 1.59033448e-01 1.12606920e-01
      1.72674239e-01 0. -2.65477389e-01 0. -5.97523861e-02
      2.41826233e-02 1.59033448e-01 -1.30121466e-02 9.36282426e-02
      6.74187765e-02 0. -1.94429964e-01 0. -9.88798141e-02
      2.34104171e-02 -1.30121466e-02 1.26962771e-03 1.22994311e-01
      1.13070592e-01 0. -3.77526850e-01 0. -3.21679004e-02
      -1.53774712e-02 1.26962771e-03 3.92609425e-02 2.97278985e-02
      -7.64718205e-02 0. -3.17400277e-01 0. -1.19295776e-01
      -1.80867948e-02 3.92609425e-02 -1.35147005e-01 -8.26468021e-02
      -1.03712250e-02 0. -3.04161031e-02 0. -1.76995303e-02
      3.13267261e-02 -1.35147005e-01 2.82792840e-02 7.88916275e-02
      1.24292292e-01 0. -2.82132834e-01 0. -2.12705895e-01
      -4.19262983e-02 2.82792840e-02 -9.37113836e-02 9.00488272e-02
      6.21098373e-03 0. 1.67237539e-02 0. 9.35208648e-02 9.30580869e-02
      -9.37113836e-02 -1.38146495e-02 6.97168522e-03 4.51483903e-03 0.
      -8.70780554e-03 0. -7.56455138e-02 -6.35176012e-03 -1.38146495e-02
      -7.23389238e-02 -8.00389424e-02 -2.97848806e-02 0. -1.10457644e-01
      0. -3.85814458e-02 -4.72804204e-05 -7.23389238e-02 -6.83528334e-02
      8.80492106e-02 9.87201855e-02 0. 8.67689177e-02 0. 4.37226370e-02
      7.49235675e-02 -6.83528334e-02 5.10298721e-02 -2.93241460e-02
      5.87684922e-02 0. -6.51582703e-02 0. -3.58395018e-02
      -3.59034985e-02 5.10298721e-02 -8.31843689e-02 -5.67391030e-02
      -5.55330217e-02 0. -9.52599719e-02 0. 2.10175430e-03
      -1.02294413e-02 -8.31843689e-02 -8.05676579e-02 -7.47859254e-02
      -2.39643484e-01 0. -4.33992520e-02 0. 2.66171377e-02
      8.37687999e-02 -8.05676579e-02 -1.06149346e-01 -1.47174420e-02
      2.70985300e-04 0. 8.73416439e-02 0. 8.07064492e-03 -4.90323044e-02
      -1.06149346e-01 -8.41998011e-02 4.35104705e-02 2.45256461e-02 0.
      7.62855187e-02 0. 1.03746146e-01 6.84093088e-02 -8.41998011e-02
      -2.86060628e-02 7.68658146e-02 5.73803037e-02 0. -1.21937335e-01
      0. 1.14914939e-01 9.17392075e-02 -2.86060628e-02 6.29362836e-02
      8.02287459e-03 -6.54555932e-02 0. -3.07068467e-01 0.
      4.83280793e-02 1.13248952e-01 6.29362836e-02 2.26715463e-03
      5.37314918e-03 1.31280988e-01 0. -4.65020835e-02 0. 1.52959004e-01
      6.22050464e-02 2.26715463e-03 7.77641237e-02 -8.07667077e-02
      -1.67776793e-01 0. -4.15078759e-01 0. 2.03472868e-01
      8.21033418e-02 7.77641237e-02 -1.33937657e-01 8.18830803e-02
      5.87014332e-02 0. -1.00533769e-01 0. -3.52346510e-01
      -2.10142195e-01 -1.33937657e-01 -1.50258049e-01 -1.13970861e-02
      -8.12932700e-02 0. 9.50120464e-02 0. -1.15064522e-02
      5.29395044e-02 -1.50258049e-01 1.08121010e-02 2.24089567e-02
      4.79308292e-02 0. 1.76486418e-01 0. -6.44454435e-02 2.47695222e-02
      1.08121010e-02 -5.43243177e-02 2.22824737e-02 1.40485941e-02 0.
      1.78854197e-01 0. 1.05245061e-01 4.49802354e-02 -5.43243177e-02
      -1.20509699e-01 6.99360892e-02 5.46336770e-02 0. 7.71989748e-02 0.
      3.02241952e-03 -9.75412130e-03 -1.20509699e-01 -1.92109346e-01
      -7.90887102e-02 -2.13941354e-02 0. 6.89273700e-04 0.
      -2.62119621e-02 -1.22693218e-01 -1.92109346e-01 1.92810800e-02
      3.59679759e-02 5.88439442e-02 0. 1.58705041e-01 0. 8.48113447e-02
      4.01690789e-02 1.92810800e-02 -3.04764155e-02 4.74232957e-02
      1.09196797e-01 0. 2.04216659e-01 0. -1.30442396e-01
      -5.59082814e-02 -3.04764155e-02 -1.23518318e-01 3.45876291e-02
      1.13897815e-01 0. 5.05131967e-02 0. -4.90821199e-03
      -4.90475148e-02 -1.23518318e-01 -1.74843207e-01 7.74789378e-02
      6.15339354e-02 0. -1.34052932e-01 0. -6.20454252e-02
      5.23683950e-02 -1.74843207e-01 4.31206264e-02 4.30754945e-02
      1.09208234e-01 0. 7.88807794e-02 0. -1.05808653e-01
      -1.85101684e-02 4.31206264e-02 -1.01234801e-01 -5.06585017e-02
      -8.31605271e-02 0. -6.79449067e-02 0. 3.35673639e-03
      1.99624840e-02 -1.01234801e-01 -2.89829731e-01 -8.26631337e-02
      9.14478116e-03 0. 1.09561544e-03 0. 9.32424217e-02 4.60266732e-02
      -2.89829731e-01 -3.38227339e-02 -2.94366032e-01 -4.58746254e-01 0.
      -2.11532116e-01 0. 2.34875545e-01 9.59503651e-02 -3.38227339e-02
      -1.04309291e-01 -1.14235155e-01 -1.77461877e-01 0. 4.64980453e-02
      0. 1.06571272e-01 4.90832962e-02 -1.04309291e-01 1.23496756e-01
      2.09561437e-02 -5.94231524e-02 0. 1.36696815e-01 0. 1.49133697e-01
      5.79867400e-02 1.23496756e-01</_></support_vectors>
  <uncompressed_sv_total>103</uncompressed_sv_total>
  <uncompressed_support_vectors>
    <_>
      0. 0. 0. 0. 0. 0. 0. 0. 0. 2.86874603e-02 2.12437822e-03
      6.35695038e-03 0. 0. 0. 0. 0. 2.86874603e-02 0. 1.11244291e-01
      3.32885325e-01 0. 0. 0. 0. 0. 0. 4.66492712e-01 4.66492712e-01
      4.66492712e-01 0. 0. 0. 0. 0. 4.66492712e-01 2.68266499e-02
      3.49204205e-02 1.04495212e-01 0. 5.01890369e-02 0. 0. 0.
      2.68266499e-02 2.22209886e-01 1.69874996e-01 3.06555569e-01 0.
      1.39798284e-01 0. 0. 0. 2.22209886e-01 3.06555569e-01
      2.41982520e-01 3.06555569e-01 0. 7.71212205e-02 0. 0. 0.
      3.06555569e-01 2.76797563e-01 3.01936239e-01 3.06555569e-01 0.
      2.34308019e-01 0. 0. 0. 2.76797563e-01 2.01142013e-01
      2.27338120e-01 3.39985579e-01 0. 3.40221450e-02 0. 0. 0.
      2.01142013e-01 3.94793712e-02 3.11271459e-01 3.39985579e-01 0.
      1.58443615e-01 0. 0. 0. 3.94793712e-02 1.40434608e-01
      1.40581876e-01 3.39985579e-01 0. 1.08497031e-01 0. 0. 0.
      1.40434608e-01 2.65761390e-02 3.05722266e-01 3.39985579e-01 0.
      3.30933779e-01 0. 0. 0. 2.65761390e-02 0. 3.29938382e-01
      3.49027097e-01 0. 3.49027097e-01 0. 0. 0. 0. 0. 2.23350957e-01
      3.49027097e-01 0. 2.90289789e-01 0. 0. 0. 0. 0. 3.04603964e-01
      3.49027097e-01 0. 3.49027097e-01 0. 0. 0. 0. 0. 6.08633049e-02
      1.82125539e-01 0. 1.21418484e-01 0. 0. 0. 0. 0. 1.72588333e-01
      3.87407959e-01 0. 0. 0. 0. 0. 0. 1.17453121e-01 3.56096983e-01
      3.87407959e-01 0. 0. 0. 0. 0. 1.17453121e-01 0. 3.87407959e-01
      3.87407959e-01 0. 5.49009889e-02 0. 0. 0. 0. 3.51839024e-03
      2.41834834e-01 3.87407959e-01 0. 0. 0. 0. 0. 3.51839024e-03
      3.15759718e-01 2.61563003e-01 3.15885633e-01 0. 1.69561058e-02 0.
      0. 0. 3.15759718e-01 1.73296779e-01 1.23884611e-01 3.15885633e-01
      0. 5.59761561e-02 0. 0. 0. 1.73296779e-01 1.19035393e-02
      1.26167506e-01 3.15885633e-01 0. 0. 0. 0. 0. 1.19035393e-02
      2.59872854e-01 3.15885633e-01 3.15885633e-01 0. 0. 0. 0. 0.
      2.59872854e-01 6.40660003e-02 6.01710193e-02 1.80054069e-01 0.
      1.74482256e-01 0. 6.80483729e-02 2.27406248e-02 6.40660003e-02
      3.36965695e-02 2.18493983e-01 2.72141665e-01 0. 2.72141665e-01 0.
      1.70015797e-01 5.68164326e-02 3.36965695e-02 2.72141665e-01
      1.29008189e-01 2.72141665e-01 0. 1.46362156e-01 0. 1.82700649e-01
      6.10554516e-02 2.72141665e-01 2.69797444e-01 8.91135707e-02
      2.66660750e-01 0. 2.72141665e-01 0. 2.72141665e-01 1.30633935e-01
      2.69797444e-01 9.36869904e-03 3.88780802e-01 3.88780802e-01 0.
      3.88780802e-01 0. 1.96040839e-01 6.55135661e-02 9.36869904e-03 0.
      1.96599476e-02 5.88298291e-02 0. 6.11147285e-02 0. 0. 0. 0.
      1.16730988e-01 1.19920596e-01 3.58846784e-01 0. 3.88780802e-01 0.
      3.88780802e-01 1.39559865e-01 1.16730988e-01 0. 0. 0. 0. 0. 0. 0.
      0. 0. 0. 2.43955702e-01 2.93246090e-01 0. 2.75485486e-01 0.
      4.11124248e-03 1.37390499e-03 0. 0. 7.92486221e-02 2.37141669e-01
      0. 4.19182405e-02 0. 0. 0. 0. 2.62054086e-01 7.45827779e-02
      2.23179579e-01 0. 2.93246090e-01 0. 2.93246090e-01 1.05093338e-01
      2.62054086e-01 2.93246090e-01 2.71070838e-01 2.93246090e-01 0.
      6.43943176e-02 0. 4.65864781e-03 1.55683816e-03 2.93246090e-01 0.
      2.02638403e-01 3.73748958e-01 0. 1.17341027e-01 0. 0. 0. 0.
      8.81289840e-02 3.70345384e-01 3.73748958e-01 0. 6.78830594e-02 0.
      0. 0. 8.81289840e-02 8.05201232e-02 3.58448923e-01 3.73748958e-01
      0. 1.92012087e-01 0. 0. 0. 8.05201232e-02 0. 1.81205928e-01
      3.73748958e-01 0. 1.19279921e-01 0. 0. 0. 0. 3.30283701e-01
      3.26993734e-01 3.30283701e-01 0. 6.23179041e-02 0. 2.07246333e-01
      6.92581460e-02 3.30283701e-01 3.30283701e-01 8.00136700e-02
      2.39430472e-01 0. 2.91821212e-01 0. 3.30283701e-01 1.22933179e-01
      3.30283701e-01 4.00195038e-03 4.41821255e-02 1.32209256e-01 0. 0.
      0. 0. 0. 4.00195038e-03 8.80429056e-03 0. 0. 0. 0. 0. 0. 0.
      8.80429056e-03 4.12287295e-01 2.79010326e-01 4.12287295e-01 0.
      4.12287295e-01 0. 4.12287295e-01 2.59541541e-01 4.12287295e-01 0.
      0. 0. 0. 0. 0. 0. 0. 0. 1.96054764e-02 0. 0. 0. 0. 0. 0. 0.
      1.96054764e-02 0. 0. 0. 0. 0. 0. 0. 0. 0. 3.35933030e-01
      9.02771056e-02 2.70142466e-01 0. 1.07421160e-01 0. 3.35933030e-01
      1.60508394e-01 3.35933030e-01 3.35933030e-01 2.77340740e-01
      3.35933030e-01 0. 1.42011363e-02 0. 9.97688528e-03 3.33409989e-03
      3.35933030e-01 1.86956227e-01 2.02018693e-02 6.04514591e-02 0. 0.
      0. 7.18772933e-02 2.40201298e-02 1.86956227e-01 1.35876819e-01
      2.69616898e-02 8.06793422e-02 0. 0. 0. 2.30235816e-03
      7.69407663e-04 1.35876819e-01 4.49055403e-01 4.49055403e-01
      4.49055403e-01 0. 1.50544986e-01 0. 0. 0. 4.49055403e-01 0.
      1.18155494e-01 3.53564888e-01 0. 9.94280949e-02 0. 0. 0. 0.
      8.14239904e-02 2.03677434e-02 6.09478131e-02 0. 0. 0. 0. 0.
      8.14239904e-02 0. 6.02235610e-04 1.80211151e-03 0. 0. 0. 0. 0. 0.
      0. 0. 0. 0. 0. 0. 0. 0. 0. 0. 0. 0. 0. 0. 0. 0. 0. 0. 0. 0. 0. 0.
      0. 0. 0. 0. 0. 0. 0. 0. 0. 0. 0. 0. 0. 0. 0. 0. 0. 0. 0. 0. 0. 0.
      0. 0. 0. 0. 0. 0. 0. 0. 0. 0. 0. 0. 0. 0. 0. 0. 0. 0. 0. 0. 0. 0.
      0. 0. 0. 0. 0. 0.</_>
    <_>
      2.84684956e-01 2.84684956e-01 2.84684956e-01 0. 2.84684956e-01 0.
      2.60206982e-02 8.69566109e-03 2.84684956e-01 2.84684956e-01
      1.64107859e-01 2.84684956e-01 0. 8.67961720e-03 0. 0. 0.
      2.84684956e-01 1.29624575e-01 7.65848607e-02 2.29170233e-01 0.
      2.28192151e-01 0. 3.34551856e-02 1.11801354e-02 1.29624575e-01
      2.14772657e-01 3.25397104e-02 9.73711759e-02 0. 2.69383639e-01 0.
      1.81017779e-02 6.04931219e-03 2.14772657e-01 3.15608323e-01
      5.55611663e-02 1.66259542e-01 0. 3.07407808e-02 0. 0. 0.
      3.15608323e-01 8.93639103e-02 2.94475928e-02 8.81181061e-02 0.
      5.10217249e-02 0. 0. 0. 8.93639103e-02 3.15608323e-01
      4.42564860e-02 1.32432267e-01 0. 2.74760455e-01 0. 2.11335227e-01
      7.06247017e-02 3.15608323e-01 3.15608323e-01 2.14414135e-01
      3.15608323e-01 0. 7.12990342e-03 0. 2.12162301e-01 7.09010959e-02
      3.15608323e-01 5.36929816e-02 2.42799409e-02 7.26548359e-02 0.
      6.17240444e-02 0. 0. 0. 5.36929816e-02 3.06032062e-01
      3.73752974e-02 1.11841150e-01 0. 8.67198110e-02 0. 5.90490028e-02
      1.97331924e-02 3.06032062e-01 3.06032062e-01 2.46749356e-01
      3.06032062e-01 0. 1.57197729e-01 0. 9.27565061e-03 3.09976749e-03
      3.06032062e-01 3.06032062e-01 1.81884333e-01 3.06032062e-01 0.
      2.63470262e-01 0. 1.29907817e-01 4.34130244e-02 3.06032062e-01
      2.64339030e-01 3.72301415e-02 1.11406788e-01 0. 1.32339662e-02 0.
      1.08763978e-01 3.63471098e-02 2.64339030e-01 2.77127236e-01
      9.79183912e-02 2.77127236e-01 0. 0. 0. 1.13845736e-01
      3.80453430e-02 2.77127236e-01 2.77127236e-01 8.07048008e-02
      2.41499528e-01 0. 4.36884873e-02 0. 2.39280760e-01 7.99636394e-02
      2.77127236e-01 2.77127236e-01 1.59366965e-01 2.77127236e-01 0. 0.
      0. 1.80387318e-01 6.02824241e-02 2.77127236e-01 8.78997594e-02
      1.87076274e-02 5.59803434e-02 0. 1.57104164e-01 0. 9.22929347e-02
      3.08427345e-02 8.78997594e-02 2.54749835e-01 5.65336049e-02
      1.69170126e-01 0. 2.73435801e-01 0. 1.48422852e-01 4.96004149e-02
      2.54749835e-01 2.73435801e-01 2.68520545e-02 8.03515911e-02 0.
      2.73435801e-01 0. 2.73435801e-01 1.35224417e-01 2.73435801e-01
      2.73435801e-01 5.80027066e-02 1.73566222e-01 0. 2.73435801e-01 0.
      2.73435801e-01 1.61938429e-01 2.73435801e-01 2.99264371e-01
      6.19523376e-02 1.85385063e-01 0. 2.99264371e-01 0. 2.33314723e-01
      7.79698864e-02 2.99264371e-01 2.99264371e-01 1.52626827e-01
      2.99264371e-01 0. 1.86356027e-02 0. 1.98365733e-01 6.62905052e-02
      2.99264371e-01 2.21253797e-01 3.96367833e-02 1.18608378e-01 0.
      2.99264371e-01 0. 1.66931108e-01 5.57855144e-02 2.21253797e-01
      1.59759745e-01 2.42851358e-02 7.26703927e-02 0. 1.48005141e-02 0.
      4.57767025e-02 1.52978096e-02 1.59759745e-01 3.39022577e-01
      3.39022577e-01 3.39022577e-01 0. 8.38507488e-02 0. 2.86298320e-02
      9.56761092e-03 3.39022577e-01 3.39022577e-01 1.64330646e-01
      3.39022577e-01 0. 1.50066227e-01 0. 5.42651266e-02 1.81344971e-02
      3.39022577e-01 1.02730125e-01 3.81221697e-02 1.14076078e-01 0.
      3.32010281e-03 0. 6.60688477e-03 2.20791041e-03 1.02730125e-01
      8.93433765e-02 5.86934909e-02 1.75632641e-01 0. 2.13141143e-01 0.
      0. 0. 8.93433765e-02 1.94824874e-01 3.18770371e-02 9.53881890e-02
      0. 1.83759816e-02 0. 6.99132010e-02 2.33638231e-02 1.94824874e-01
      2.54962534e-01 4.34965454e-02 1.30158171e-01 0. 0. 0.
      5.21993712e-02 1.74441505e-02 2.54962534e-01 2.65504390e-01
      1.55850142e-01 3.18488568e-01 0. 3.18488568e-01 0. 0. 0.
      2.65504390e-01 3.18488568e-01 1.29498273e-01 3.18488568e-01 0.
      1.86088786e-01 0. 1.62334993e-01 5.42495064e-02 3.18488568e-01
      2.86830992e-01 2.28883363e-02 6.84906319e-02 0. 2.42585838e-01 0.
      2.86830992e-01 1.81427851e-01 2.86830992e-01 2.86830992e-01
      4.90485355e-02 1.46771938e-01 0. 2.86830992e-01 0. 2.86830992e-01
      1.53649375e-01 2.86830992e-01 2.62521893e-01 1.52717717e-02
      4.56988849e-02 0. 4.81113233e-02 0. 1.72274306e-01 5.75711541e-02
      2.62521893e-01 1.95425630e-01 1.88395940e-02 5.63752390e-02 0.
      1.18781760e-01 0. 8.05096999e-02 2.69049797e-02 1.95425630e-01
      8.36528391e-02 2.29194444e-02 6.85836896e-02 0. 3.29896271e-01 0.
      1.00184292e-01 3.34798433e-02 8.36528391e-02 1.90015912e-01
      3.58132347e-02 1.07166439e-01 0. 2.30953634e-01 0. 1.69200301e-01
      5.65437861e-02 1.90015912e-01 6.63513839e-02 1.21037113e-02
      3.62188630e-02 0. 2.45725781e-01 0. 1.95103008e-02 6.52001426e-03
      6.63513839e-02 3.47482145e-01 7.87891150e-02 2.35766187e-01 0.
      3.47482145e-01 0. 3.47482145e-01 2.67082274e-01 3.47482145e-01
      1.15771756e-01 9.69770830e-03 2.90191285e-02 0. 5.31722493e-02 0.
      1.13886923e-01 3.80590148e-02 1.15771756e-01 1.54488906e-01
      4.81266603e-02 1.44012779e-01 0. 3.05367976e-01 0. 4.58187275e-02
      1.53118139e-02 1.54488906e-01 3.05367976e-01 2.25068703e-02
      6.73488751e-02 0. 1.86203793e-01 0. 3.05367976e-01 2.08277702e-01
      3.05367976e-01 3.05367976e-01 5.73301949e-02 1.71553135e-01 0.
      3.05367976e-01 0. 3.05367976e-01 1.30494907e-01 3.05367976e-01
      2.81027645e-01 1.49938911e-01 2.83711642e-01 0. 2.83711642e-01 0.
      3.81629122e-03 1.27533742e-03 2.81027645e-01 2.83711642e-01
      8.63170326e-02 2.58292466e-01 0. 2.50844955e-01 0. 7.73974210e-02
      2.58648582e-02 2.83711642e-01 2.83711642e-01 7.51860365e-02
      2.24984437e-01 0. 2.83711642e-01 0. 9.65685919e-02 3.22715975e-02
      2.83711642e-01 7.78689459e-02 4.79303747e-02 1.43425837e-01 0.
      8.58056322e-02 0. 2.17063855e-02 7.25391135e-03 7.78689459e-02
      2.57846087e-01 1.78622995e-02 5.34506030e-02 0. 1.30219489e-01 0.
      1.84608936e-01 6.16931133e-02 2.57846087e-01 2.96887040e-01
      1.19081989e-03 3.56337358e-03 0. 2.69767176e-03 0. 1.68697953e-01
      5.63759319e-02 2.96887040e-01 2.96887040e-01 1.38928983e-02
      4.15726937e-02 0. 1.67425066e-01 0. 2.96887040e-01 1.19856067e-01
      2.96887040e-01 2.96887040e-01 9.26193199e-04 2.77151261e-03 0.
      3.46843526e-03 0. 2.96887040e-01 1.57835543e-01 2.96887040e-01
      2.25974292e-01 4.18760843e-04 1.25308731e-03 0. 2.55693123e-02 0.
      1.25142738e-01 4.18205075e-02 2.25974292e-01 3.06222647e-01
      6.28141314e-03 1.87963098e-02 0. 1.34139001e-01 0. 2.47694358e-01
      8.27752277e-02 3.06222647e-01 3.06222647e-01 0. 0. 0. 0. 0.
      3.06222647e-01 1.32203639e-01 3.06222647e-01 3.06222647e-01
      2.07945108e-02 6.22251034e-02 0. 2.61664353e-02 0. 3.06222647e-01
      1.32327467e-01 3.06222647e-01 2.79444337e-01 5.00454241e-03
      1.49754407e-02 0. 6.88348338e-02 0. 2.79444337e-01 1.63949713e-01
      2.79444337e-01 2.79444337e-01 1.22497100e-02 3.66556607e-02 0.
      8.46466646e-02 0. 2.79444337e-01 1.78122520e-01 2.79444337e-01
      2.79444337e-01 5.24215996e-02 1.56865418e-01 0. 1.28905639e-01 0.
      2.79444337e-01 1.26119152e-01 2.79444337e-01 1.71170771e-01
      2.04777345e-02 6.12771921e-02 0. 1.00259945e-01 0. 2.79444337e-01
      1.06583439e-01 1.71170771e-01 2.67831773e-01 2.12592799e-02
      6.36157617e-02 0. 9.68421996e-02 0. 2.67831773e-01 1.34293854e-01
      2.67831773e-01 2.58184552e-01 1.73192501e-01 2.67831773e-01 0.
      4.79186047e-03 0. 1.47929266e-01 4.94354852e-02 2.58184552e-01
      2.67831773e-01 1.27953850e-02 3.82886715e-02 0. 0. 0.
      2.67831773e-01 1.16725318e-01 2.67831773e-01 2.67831773e-01
      1.46814778e-01 2.67831773e-01 0. 0. 0. 1.45700529e-01
      4.86906804e-02 2.67831773e-01</_>
    <_>
      0. 0. 0. 0. 0. 0. 0. 0. 0. 0. 0. 0. 0. 0. 0. 0. 0. 0. 0. 0. 0. 0.
      0. 0. 0. 0. 0. 0. 0. 0. 0. 0. 0. 0. 0. 0. 0. 0. 0. 0. 0. 0. 0. 0.
      0. 0. 0. 0. 0. 0. 0. 0. 0. 0. 0. 0. 0. 0. 0. 0. 0. 0. 0. 0. 0. 0.
      0. 0. 0. 0. 0. 0. 0. 0. 0. 0. 0. 0. 0. 0. 0. 0. 0. 0. 0. 0. 0. 0.
      0. 0. 0. 0. 0. 0. 0. 0. 0. 0. 0. 0. 0. 0. 0. 0. 0. 0. 0. 0. 0. 0.
      0. 0. 0. 0. 0. 0. 0. 0. 0. 0. 0. 0. 0. 0. 0. 0. 2.13222831e-01
      4.26868424e-02 1.27734825e-01 0. 3.34613085e-01 0. 0. 0.
      2.13222831e-01 4.13167238e-01 9.39110518e-02 2.81016588e-01 0.
      4.13167238e-01 0. 3.96681398e-01 1.32563964e-01 4.13167238e-01 0.
      0. 0. 0. 0. 0. 0. 0. 0. 0. 0. 0. 0. 6.74516335e-03 0. 0. 0. 0.
      3.49262148e-01 8.80618319e-02 2.63513565e-01 0. 3.49262148e-01 0.
      3.49262148e-01 3.10692072e-01 3.49262148e-01 1.83051437e-01
      5.87078836e-03 1.75675713e-02 0. 3.49262148e-01 0. 3.49262148e-01
      1.53225467e-01 1.83051437e-01 1.92745421e-02 0. 0. 0.
      3.30715738e-02 0. 0. 0. 1.92745421e-02 1.46163747e-01
      4.40973602e-02 1.31955743e-01 0. 2.59548932e-01 0. 1.16704039e-01
      3.90004888e-02 1.46163747e-01 1.57235146e-01 1.07633537e-02
      3.22079360e-02 0. 3.52775306e-01 0. 0. 0. 1.57235146e-01
      3.52775306e-01 1.68424398e-01 3.52775306e-01 0. 3.52775306e-01 0.
      3.52775306e-01 1.56138644e-01 3.52775306e-01 1.76774919e-01
      5.85510693e-02 1.75206691e-01 0. 2.97235221e-01 0. 1.79137319e-01
      5.98645955e-02 1.76774919e-01 2.62605324e-02 7.46587152e-03
      2.23407056e-02 0. 7.80004337e-02 0. 3.14558186e-02 1.05119860e-02
      2.62605324e-02 3.43161881e-01 1.94583088e-01 3.43161881e-01 0.
      3.43161881e-01 0. 3.43161881e-01 2.17749298e-01 3.43161881e-01
      7.97501057e-02 2.71123182e-02 8.11303332e-02 0. 2.50649691e-01 0.
      9.42057148e-02 3.14819142e-02 7.97501057e-02 5.79913519e-02
      1.69586707e-02 5.07466123e-02 0. 2.93222815e-01 0. 4.95049506e-02
      1.65437292e-02 5.79913519e-02 3.05903226e-01 3.73090766e-02
      1.11642547e-01 0. 3.05903226e-01 0. 2.95100808e-01 9.86176357e-02
      3.05903226e-01 1.71433277e-02 7.70848664e-03 2.30666418e-02 0.
      2.97671914e-01 0. 1.97434500e-01 6.59793094e-02 1.71433277e-02
      2.12766930e-01 1.69586707e-02 5.07466123e-02 0. 3.05903226e-01 0.
      3.05903226e-01 3.05903226e-01 2.12766930e-01 2.20644638e-01
      5.07174321e-02 1.51765510e-01 0. 3.11989576e-01 0. 3.11989576e-01
      2.29973704e-01 2.20644638e-01 6.42855316e-02 1.49707636e-02
      4.47982103e-02 0. 3.11989576e-01 0. 2.71256149e-01 9.06491131e-02
      6.42855316e-02 1.36603907e-01 4.37983088e-02 1.31061137e-01 0.
      3.11989576e-01 0. 3.11989576e-01 1.84490487e-01 1.36603907e-01
      7.51002505e-02 2.84170136e-02 8.50345343e-02 0. 3.11989576e-01 0.
      1.77263096e-01 5.92383072e-02 7.51002505e-02 6.78182319e-02
      1.94347985e-02 5.81561029e-02 0. 2.84767359e-01 0. 1.52916685e-02
      5.11022098e-03 6.78182319e-02 2.86224723e-01 1.48486286e-01
      2.86224723e-01 0. 2.86224723e-01 0. 2.86224723e-01 9.89331305e-02
      2.86224723e-01 3.16894650e-02 1.18072173e-02 3.53315622e-02 0.
      2.13160738e-01 0. 3.36416736e-02 1.12424847e-02 3.16894650e-02
      2.86224723e-01 1.36408195e-01 2.86224723e-01 0. 2.86224723e-01 0.
      2.41755232e-01 8.07904750e-02 2.86224723e-01 2.91368634e-01
      1.56063706e-01 2.91368634e-01 0. 2.91368634e-01 0. 2.91368634e-01
      1.32710785e-01 2.91368634e-01 3.81016694e-02 2.11235881e-02
      6.32098243e-02 0. 1.44084856e-01 0. 5.20813316e-02 1.74046699e-02
      3.81016694e-02 2.91368634e-01 1.74724594e-01 2.91368634e-01 0.
      2.91368634e-01 0. 2.35250607e-01 7.86166862e-02 2.91368634e-01
      7.82765597e-02 2.64219586e-02 7.90645778e-02 0. 2.18660623e-01 0.
      2.79726945e-02 9.34798364e-03 7.82765597e-02 0. 0. 0. 0.
      1.19307742e-01 0. 2.98605233e-01 9.97888744e-02 0. 3.44128370e-01
      0. 0. 0. 1.74111560e-01 0. 5.25539339e-01 5.25539339e-01
      3.44128370e-01 0. 0. 0. 0. 2.78275125e-02 0. 1.86284597e-03
      6.22531981e-04 0. 8.82994831e-02 0. 0. 0. 0. 0. 2.02255398e-01
      6.75903708e-02 8.82994831e-02 3.17128628e-01 9.69155580e-02
      2.90008307e-01 0. 3.17128628e-01 0. 3.17128628e-01 2.72697151e-01
      3.17128628e-01 3.11529160e-01 7.53787607e-02 2.25562006e-01 0.
      3.17128628e-01 0. 2.60530442e-01 8.70649219e-02 3.11529160e-01 0.
      0. 0. 0. 0. 0. 0. 0. 0. 0. 0. 0. 0. 0. 0. 0. 0. 0. 8.25995654e-02
      0. 0. 0. 2.56024331e-01 0. 6.82667568e-02 2.28136126e-02
      8.25995654e-02 3.96251053e-01 1.55944049e-01 3.96251053e-01 0.
      3.96251053e-01 0. 2.95822650e-01 9.88589823e-02 3.96251053e-01 0.
      0. 0. 0. 0. 0. 0. 0. 0. 4.99475040e-02 0. 0. 0. 3.96251053e-01 0.
      0. 0. 4.99475040e-02 1.94739252e-01 3.22385505e-02 9.64699388e-02
      0. 2.64268458e-01 0. 4.82293107e-02 1.61174051e-02 1.94739252e-01
      1.35921791e-01 1.42737813e-02 4.27124761e-02 0. 1.93030223e-01 0.
      1.05580635e-01 3.52832004e-02 1.35921791e-01 1.29809991e-01
      3.62230539e-02 1.08392797e-01 0. 3.15545291e-01 0. 3.15545291e-01
      1.29492700e-01 1.29809991e-01 2.60131478e-01 7.28913620e-02
      2.18118235e-01 0. 3.15545291e-01 0. 3.15545291e-01 3.15545291e-01
      2.60131478e-01 5.01135737e-02 6.56790333e-03 1.96535941e-02 0.
      6.87236264e-02 0. 1.63100407e-01 5.45052998e-02 5.01135737e-02 0.
      0. 0. 0. 0. 0. 0. 0. 0. 3.20728749e-01 1.11711442e-01
      3.34282905e-01 0. 4.55700010e-01 0. 4.55700010e-01 4.55700010e-01
      3.20728749e-01 0. 0. 0. 0. 5.24853207e-02 0. 0. 0. 0.</_>
    <_>
      0. 0. 0. 0. 0. 0. 0. 0. 0. 0. 0. 0. 0. 0. 0. 0. 0. 0.
      2.99052030e-01 0. 0. 0. 0. 0. 0. 0. 2.99052030e-01 6.38264596e-01
      0. 0. 0. 0. 0. 0. 0. 6.38264596e-01 3.00737866e-03 4.45851125e-03
      1.33415665e-02 0. 2.11496390e-02 0. 0. 0. 3.00737866e-03
      1.39973998e-01 9.15549695e-02 2.73967415e-01 0. 2.66808093e-01 0.
      1.32621109e-01 4.43197601e-02 1.39973998e-01 8.26554671e-02
      5.28702214e-02 1.58207878e-01 0. 3.64392608e-01 0. 0. 0.
      8.26554671e-02 3.14700693e-01 3.25810373e-01 3.64392608e-01 0.
      3.64392608e-01 0. 1.85543373e-01 6.20054938e-02 3.14700693e-01
      1.61906302e-01 4.93822694e-02 1.47770584e-01 0. 1.49186403e-01 0.
      2.93494821e-01 9.80810747e-02 1.61906302e-01 5.53233214e-02
      1.77178718e-03 5.30186296e-03 0. 1.36645570e-01 0. 1.93693355e-01
      6.47290871e-02 5.53233214e-02 2.21269265e-01 1.37736395e-01
      3.16266894e-01 0. 3.16266894e-01 0. 3.16266894e-01 2.18081519e-01
      2.21269265e-01 7.51530081e-02 2.68268157e-02 8.02757740e-02 0.
      3.16266894e-01 0. 3.16266894e-01 2.29250565e-01 7.51530081e-02
      2.65043788e-02 7.59148002e-02 2.27166042e-01 0. 3.06018054e-01 0.
      7.21952096e-02 2.41263844e-02 2.65043788e-02 1.89728484e-01
      1.47789136e-01 3.06018054e-01 0. 3.06018054e-01 0. 2.58790493e-01
      8.64833519e-02 1.89728484e-01 6.20447882e-02 1.20444214e-02
      3.60414535e-02 0. 3.06018054e-01 0. 2.80588180e-01 9.37677100e-02
      6.20447882e-02 1.07289858e-01 1.66578814e-02 4.98467311e-02 0.
      3.06018054e-01 0. 3.06018054e-01 2.82411307e-01 1.07289858e-01
      9.24731046e-02 5.73564097e-02 1.71632230e-01 0. 5.52631356e-03 0.
      4.97116614e-03 1.66128075e-03 9.24731046e-02 1.44945860e-01
      8.20839629e-02 2.45626509e-01 0. 1.99933007e-01 0. 8.10285509e-02
      2.70783901e-02 1.44945860e-01 2.96922684e-01 1.81585208e-01
      2.96922684e-01 0. 8.72419402e-02 0. 5.92184290e-02 1.97897665e-02
      2.96922684e-01 2.96922684e-01 1.71099633e-01 2.96922684e-01 0.
      2.96922684e-01 0. 2.96922684e-01 1.08173870e-01 2.96922684e-01
      7.50100240e-02 3.34912874e-02 1.00218698e-01 0. 3.52211058e-01 0.
      5.69059625e-02 1.90170147e-02 7.50100240e-02 1.36270091e-01
      7.34045058e-02 2.19654262e-01 0. 3.52211058e-01 0. 3.77136245e-02
      1.26032429e-02 1.36270091e-01 1.34657264e-01 3.02526448e-02
      9.05273482e-02 0. 3.52211058e-01 0. 2.58238405e-01 8.62989277e-02
      1.34657264e-01 3.52211058e-01 2.42239097e-03 7.24871084e-03 0.
      3.52211058e-01 0. 1.13106415e-01 3.77981812e-02 3.52211058e-01
      1.18597224e-01 6.93587586e-02 2.07547426e-01 0. 3.22420955e-01 0.
      1.68441594e-01 5.62903695e-02 1.18597224e-01 3.34501863e-02
      7.13550895e-02 2.13520795e-01 0. 3.22420955e-01 0. 2.45220155e-01
      8.19484815e-02 3.34501863e-02 3.22420955e-01 4.39021997e-02
      1.31371632e-01 0. 3.22420955e-01 0. 2.91997213e-02 9.75803565e-03
      3.22420955e-01 1.92534328e-01 7.18605816e-02 2.15033427e-01 0.
      3.22420955e-01 0. 6.24588877e-03 2.08727177e-03 1.92534328e-01
      2.93412022e-02 2.33008098e-02 6.97246343e-02 0. 3.71019989e-01 0.
      1.84469417e-01 6.16465099e-02 2.93412022e-02 4.42634933e-02
      7.08129331e-02 2.11899281e-01 0. 3.71019989e-01 0. 3.71019989e-01
      2.85824269e-01 4.42634933e-02 9.63644683e-03 2.01035049e-02
      6.01571240e-02 0. 2.31850624e-01 0. 2.81556114e-03 9.40912985e-04
      9.63644683e-03 2.64713191e-03 7.10900649e-02 2.12728560e-01 0.
      3.71019989e-01 0. 3.71019989e-01 1.38690948e-01 2.64713191e-03
      2.62268245e-01 9.24176946e-02 2.62268245e-01 0. 2.62268245e-01 0.
      1.27492800e-01 4.26058657e-02 2.62268245e-01 2.62268245e-01
      7.04480708e-02 2.10807040e-01 0. 2.62268245e-01 0. 2.59279251e-01
      8.66466910e-02 2.62268245e-01 2.62268245e-01 4.13148962e-02
      1.23629451e-01 0. 2.62268245e-01 0. 5.76042868e-02 1.92503426e-02
      2.62268245e-01 2.20175251e-01 2.32404154e-02 6.95439205e-02 0.
      1.77328140e-01 0. 6.24114648e-02 2.08568182e-02 2.20175251e-01
      3.35174322e-01 6.82685897e-02 2.04284936e-01 0. 3.35174322e-01 0.
      3.35174322e-01 1.27861798e-01 3.35174322e-01 3.35174322e-01
      4.04978730e-03 1.21184606e-02 0. 3.35174322e-01 0. 1.12543754e-01
      3.76101658e-02 3.35174322e-01 2.14348361e-01 2.76121814e-02
      8.26258659e-02 0. 1.78785384e-01 0. 2.24193744e-02 7.49217160e-03
      2.14348361e-01 3.99519922e-03 1.84081204e-03 5.50839072e-03 0.
      3.46933156e-02 0. 7.57171598e-04 2.53034115e-04 3.99519922e-03
      4.06096369e-01 4.42108698e-02 1.32295266e-01 0. 3.42790127e-01 0.
      4.49599549e-02 1.50248287e-02 4.06096369e-01 4.06096369e-01
      5.68425469e-02 1.70093909e-01 0. 4.06096369e-01 0. 0. 0.
      4.06096369e-01 0. 0. 0. 0. 0. 0. 0. 0. 0. 0. 0. 0. 0. 0. 0. 0. 0.
      0. 1.71649363e-02 7.47342687e-03 2.23632567e-02 0. 1.18522897e-01
      0. 0. 0. 1.71649363e-02 1.14097528e-01 1.61101855e-02
      4.82078195e-02 0. 5.01815498e-01 0. 5.01815498e-01 3.51419330e-01
      1.14097528e-01 0. 0. 0. 0. 0. 0. 0. 0. 0. 1.28999844e-01 0. 0. 0.
      3.42091918e-01 0. 3.95323128e-01 1.32110044e-01 1.28999844e-01
      4.86923426e-01 1.29582360e-01 3.87758374e-01 0. 4.86923426e-01 0.
      0. 0. 4.86923426e-01 1.06247149e-01 2.99036261e-02 8.94827098e-02
      0. 2.91936845e-01 0. 0. 0. 1.06247149e-01 0. 0. 0. 0. 0. 0. 0. 0.
      0. 0. 0. 0. 0. 0. 0. 0. 0. 0. 0. 0. 0. 0. 0. 0. 0. 0. 0. 0. 0. 0.
      0. 0. 0. 0. 0. 0. 0. 0. 0. 0. 0. 0. 0. 0. 0. 0. 0. 0. 0. 0. 0. 0.
      0. 0. 0. 0. 0. 0. 0. 0. 0. 0. 0. 0. 0. 0. 0. 0. 0. 0. 0. 0. 0. 0.
      0. 0. 0. 0. 0. 0. 0. 0. 0. 0. 0. 0. 0. 0. 0. 0. 0. 0. 0. 0. 0. 0.
      0. 0. 0. 7.04615593e-01 0. 0. 0. 0. 0. 0. 0. 7.04615593e-01 0. 0.
      0. 0. 0. 0. 0. 0. 0. 0. 0. 0. 0. 0. 0. 0. 0. 0.</_>
    <_>
      0. 0. 0. 0. 0. 0. 0. 0. 0. 0. 0. 0. 0. 0. 0. 0. 0. 0. 0. 0. 0. 0.
      0. 0. 0. 0. 0. 0. 2.15754747e-01 6.45620525e-01 0. 7.27572501e-01
      0. 0. 0. 0. 0. 1.05086174e-02 3.14457901e-02 0. 7.08839521e-02 0.
      0. 0. 0. 0. 1.64699733e-01 3.96317929e-01 0. 3.96317929e-01 0. 0.
      0. 0. 0. 1.25736520e-01 3.76251578e-01 0. 2.36942321e-01 0. 0. 0.
      0. 0. 3.47854704e-01 3.96317929e-01 0. 3.96317929e-01 0. 0. 0. 0.
      0. 2.06651658e-01 4.12634462e-01 0. 4.12634462e-01 0. 0. 0. 0. 0.
      1.06390361e-02 3.18360515e-02 0. 4.12634462e-01 0. 6.46478683e-02
      2.16042381e-02 0. 0. 1.95571288e-01 4.12634462e-01 0.
      4.12634462e-01 0. 0. 0. 0. 0. 2.59702443e-04 7.77128735e-04 0.
      2.30505347e-01 0. 6.49008751e-02 2.16887873e-02 0. 0. 0. 0. 0.
      4.57296818e-01 0. 1.26746923e-01 4.23567034e-02 0. 0. 0. 0. 0.
      4.57296818e-01 0. 1.08106151e-01 3.61272730e-02 0. 0. 0. 0. 0.
      4.57296818e-01 0. 2.34057337e-01 7.82180578e-02 0. 0. 0. 0. 0.
      4.57296818e-01 0. 2.45862007e-01 8.21629763e-02 0. 0. 0. 0. 0. 0.
      0. 0. 0. 0. 0. 8.32883939e-02 2.49230683e-01 0. 5.55185199e-01 0.
      0. 0. 0. 0. 0. 0. 0. 0. 0. 0. 0. 0. 0. 1.76169991e-01
      5.27167857e-01 0. 5.55185199e-01 0. 0. 0. 0. 0. 1.38101459e-01
      3.65479708e-01 0. 3.65479708e-01 0. 0. 0. 0. 0. 2.15325713e-01
      3.65479708e-01 0. 3.65479708e-01 0. 0. 0. 0. 0. 9.26977843e-02
      2.77387112e-01 0. 3.65479708e-01 0. 0. 0. 0. 0. 6.64257929e-02
      1.98771343e-01 0. 3.65479708e-01 0. 0. 0. 0. 0. 5.42097509e-01
      5.42097509e-01 0. 5.42097509e-01 0. 0. 0. 0. 0. 0. 0. 0.
      2.19046310e-01 0. 4.28533293e-02 1.43208681e-02 0. 0.
      2.98401751e-02 8.92931819e-02 0. 2.32574582e-01 0. 0. 0. 0. 0. 0.
      0. 0. 0. 0. 0. 0. 0. 0. 0. 0. 0. 4.95960057e-01 0. 6.33203909e-02
      2.11606175e-02 0. 0. 0. 0. 0. 4.95960057e-01 0. 7.75392801e-02
      2.59123333e-02 0. 0. 0. 0. 0. 4.95960057e-01 0. 0. 0. 0. 0. 0. 0.
      0. 4.95960057e-01 0. 0. 0. 0. 0. 0. 0. 0. 0. 0. 0. 0. 0. 0.
      9.79799628e-02 2.93193370e-01 0. 6.24078274e-01 0. 0. 0. 0. 0. 0.
      0. 0. 0. 0. 0. 0. 0. 0. 1.09456018e-01 3.27534199e-01 0.
      6.24078274e-01 0. 0. 0. 0. 0. 8.70403349e-02 2.60457844e-01 0.
      4.61282492e-01 0. 0. 0. 0. 0. 4.10575122e-02 1.22859746e-01 0.
      4.61282492e-01 0. 0. 0. 0. 0. 6.88365772e-02 2.05985293e-01 0.
      4.61282492e-01 0. 0. 0. 0. 0. 2.21939962e-02 6.64128959e-02 0.
      4.61282492e-01 0. 0. 0. 0. 0. 0. 0. 0. 0. 0. 0. 0. 0. 0. 0. 0. 0.
      0. 0. 0. 0. 0. 4.98753130e-01 0. 0. 0. 0. 0. 0. 0. 4.98753130e-01
      4.98753130e-01 0. 0. 0. 0. 0. 0. 0. 4.98753130e-01 0. 0. 0. 0.
      4.98750418e-01 0. 0. 0. 0. 0. 0. 0. 0. 4.98750418e-01 0. 0. 0. 0.
      2.32389523e-03 0. 0. 0. 4.98750418e-01 0. 0. 0. 2.32389523e-03 0.
      0. 0. 0. 4.98750418e-01 0. 0. 0. 0. 0. 0. 0. 0. 0. 0. 0. 0. 0. 0.
      9.50726569e-02 2.84493625e-01 0. 5.89788377e-01 0. 0. 0. 0. 0. 0.
      0. 0. 1.99999474e-02 0. 0. 0. 0. 0. 1.44564524e-01 4.32592183e-01
      0. 5.89788377e-01 0. 0. 0. 0. 0. 8.63203481e-02 2.58303404e-01 0.
      4.55047190e-01 0. 0. 0. 0. 0. 3.57859470e-02 1.07085019e-01 0.
      3.86435032e-01 0. 0. 0. 0. 0. 9.12284330e-02 2.72990286e-01 0.
      4.55047190e-01 0. 0. 0. 0. 0. 7.44353235e-02 2.22738132e-01 0.
      4.55047190e-01 0. 0. 0. 0. 5.30122630e-02 6.73698708e-02
      2.01595560e-01 0. 9.51939598e-02 0. 7.10029006e-02 2.37279236e-02
      5.30122630e-02 8.79866183e-02 5.75645268e-02 1.72254354e-01 0.
      1.84792101e-01 0. 2.28972375e-01 7.65185580e-02 8.79866183e-02
      4.12317589e-02 1.78393096e-01 3.91547769e-01 0. 3.91547769e-01 0.
      1.04047135e-01 3.47707272e-02 4.12317589e-02 6.84340447e-02
      1.17417723e-01 3.51357222e-01 0. 3.91547769e-01 0. 3.49676371e-01
      1.16855718e-01 6.84340447e-02 1.03223966e-02 1.42131737e-02
      4.25310768e-02 0. 4.74553972e-01 0. 4.64836508e-02 1.55340228e-02
      1.03223966e-02 0. 1.57191008e-02 4.70373668e-02 0. 4.74553972e-01
      0. 0. 0. 0. 8.02853052e-03 3.86668406e-02 1.15705490e-01 0.
      4.74553972e-01 0. 7.28068575e-02 2.43307725e-02 8.02853052e-03
      6.09790394e-03 8.13147649e-02 2.43324220e-01 0. 4.74553972e-01 0.
      2.26601269e-02 7.57261738e-03 6.09790394e-03</_>
    <_>
      0. 0. 0. 0. 0. 0. 0. 0. 0. 0. 0. 0. 0. 0. 0. 0. 0. 0.
      1.20721251e-01 1.11722052e-01 3.34313661e-01 0. 0. 0. 0. 0.
      1.20721251e-01 4.80537564e-01 3.79755080e-01 4.80537564e-01 0. 0.
      0. 6.60023242e-02 2.20568180e-02 4.80537564e-01 0. 0. 0. 0. 0. 0.
      0. 0. 0. 0. 0. 0. 0. 0. 0. 0. 0. 0. 4.14139569e-01 7.86153078e-02
      2.35246047e-01 0. 0. 0. 2.83467501e-01 9.47298706e-02
      4.14139569e-01 4.14139569e-01 0. 0. 0. 0. 0. 3.78151298e-01
      1.26371533e-01 4.14139569e-01 0. 0. 0. 0. 0. 0. 0. 0. 0. 0. 0. 0.
      0. 0. 0. 0. 0. 0. 4.73315209e-01 0. 0. 0. 0. 0. 4.73315209e-01
      2.34300509e-01 4.73315209e-01 3.29255909e-01 0. 0. 0. 0. 0.
      2.15183407e-01 7.19105154e-02 3.29255909e-01 0. 0. 0. 0. 0. 0. 0.
      0. 0. 0. 0. 0. 0. 0. 0. 0. 0. 0. 7.04615593e-01 0. 0. 0. 0. 0. 0.
      0. 7.04615593e-01 0. 0. 0. 0. 0. 0. 0. 0. 0. 5.19804358e-02
      8.33142549e-02 2.49307081e-01 0. 8.96430686e-02 0. 1.01626636e-02
      3.39618884e-03 5.19804358e-02 2.66543359e-01 1.54729187e-01
      2.66543359e-01 0. 4.46582139e-02 0. 2.07389649e-02 6.93060178e-03
      2.66543359e-01 2.07578719e-01 9.90602300e-02 2.66543359e-01 0.
      2.66543359e-01 0. 2.65325308e-01 8.86672437e-02 2.07578719e-01
      2.64644831e-01 1.29394814e-01 2.66543359e-01 0. 1.99439690e-01 0.
      2.66543359e-01 1.41817153e-01 2.64644831e-01 2.98051685e-01
      5.75864017e-02 1.72319800e-01 0. 0. 0. 1.78268000e-01
      5.95740341e-02 2.98051685e-01 2.98051685e-01 0. 0. 0. 0. 0.
      2.75988609e-01 9.22305435e-02 2.98051685e-01 2.88949877e-01
      3.29001620e-02 9.84494537e-02 0. 0. 0. 2.98051685e-01
      1.02693908e-01 2.88949877e-01 2.98051685e-01 0. 0. 0. 0. 0.
      1.74519032e-01 5.83212189e-02 2.98051685e-01 2.76378542e-01 0. 0.
      0. 0. 0. 2.69560665e-01 9.00824443e-02 2.76378542e-01
      2.76378542e-01 0. 0. 0. 7.68103376e-02 0. 2.44071916e-01
      8.15645456e-02 2.76378542e-01 2.76378542e-01 0. 0. 0. 0. 0.
      2.48611525e-01 8.30816105e-02 2.76378542e-01 2.76378542e-01 0. 0.
      0. 2.76378542e-01 0. 2.76378542e-01 1.08514726e-01 2.76378542e-01
      2.54394263e-01 0. 0. 0. 2.62128145e-01 0. 1.72003031e-01
      5.74803874e-02 2.54394263e-01 4.97301389e-03 0. 0. 0.
      4.85914387e-02 0. 7.29876943e-03 2.43912055e-03 4.97301389e-03
      3.90647322e-01 0. 0. 0. 4.69321728e-01 0. 3.21244121e-01
      1.07354142e-01 3.90647322e-01 6.39387500e-03 0. 0. 0.
      3.48202169e-01 0. 1.60572920e-02 5.36606554e-03 6.39387500e-03
      1.84448093e-01 8.83919746e-02 2.64502376e-01 0. 3.15842509e-01 0.
      3.13372791e-01 1.04723908e-01 1.84448093e-01 2.77121276e-01
      1.44924428e-02 4.33667451e-02 0. 1.32886648e-01 0. 3.15842509e-01
      3.15158635e-01 2.77121276e-01 2.63964161e-02 1.00002319e-01
      2.99245119e-01 0. 2.05929488e-01 0. 2.23423522e-02 7.46644055e-03
      2.63964161e-02 8.32671821e-02 0. 0. 0. 9.87100229e-03 0.
      3.15842509e-01 1.09788872e-01 8.32671821e-02 1.75882101e-01
      5.43709029e-04 1.62697840e-03 0. 0. 0. 3.36023748e-01
      2.46874973e-01 1.75882101e-01 8.94947648e-02 0. 0. 0. 0. 0.
      3.36023748e-01 1.14274152e-01 8.94947648e-02 1.59128085e-01 0. 0.
      0. 0. 0. 3.36023748e-01 2.26074472e-01 1.59128085e-01
      2.98691481e-01 0. 0. 0. 0. 0. 3.36023748e-01 3.36023748e-01
      2.98691481e-01 5.52134365e-02 0. 0. 0. 0. 0. 8.60310346e-02
      2.87501197e-02 5.52134365e-02 8.84464160e-02 3.21652088e-03
      9.62505769e-03 0. 4.45200682e-01 0. 6.45397305e-02 2.15680469e-02
      8.84464160e-02 2.22510099e-01 6.88131549e-04 2.05915212e-03 0.
      1.26446392e-02 0. 4.45200682e-01 3.09746712e-01 2.22510099e-01
      3.53617072e-02 7.37872943e-02 2.20799699e-01 0. 4.45200682e-01 0.
      3.20806950e-01 1.07208326e-01 3.53617072e-02 4.74327281e-02
      4.07561613e-03 1.21957986e-02 0. 5.99727690e-01 0. 4.62160110e-02
      1.54445814e-02 4.74327281e-02 6.18853723e-04 2.71707773e-04
      8.13053222e-04 0. 3.14554274e-01 0. 2.56237946e-03 8.56302213e-04
      6.18853723e-04 6.88133668e-03 8.83488804e-02 2.64373541e-01 0.
      5.99727690e-01 0. 2.01575086e-02 6.73630368e-03 6.88133668e-03 0.
      5.36107691e-03 1.60423871e-02 0. 3.00234824e-01 0. 0. 0. 0.
      5.55440038e-02 1.14347838e-01 3.42172325e-01 0. 0. 0. 0. 0.
      5.55440038e-02 1.90431792e-02 0. 0. 0. 0. 0. 5.85951246e-02
      1.95815116e-02 1.90431792e-02 4.15868133e-01 0. 0. 0.
      2.95072556e-01 0. 4.15868133e-01 3.95402074e-01 4.15868133e-01
      7.91868344e-02 0. 0. 0. 1.79265395e-01 0. 2.07899690e-01
      6.94764331e-02 7.91868344e-02 1.01823546e-01 0. 0. 0. 0. 0.
      3.72694552e-01 1.24548294e-01 1.01823546e-01 4.48762864e-01 0. 0.
      0. 0. 0. 4.48762864e-01 4.48762864e-01 4.48762864e-01 0. 0. 0. 0.
      0. 0. 0. 0. 0. 1.10945003e-02 0. 0. 0. 0. 0. 1.14480272e-01
      3.82573977e-02 1.10945003e-02 1.56885058e-01 2.51970952e-03
      7.53993215e-03 0. 1.53348614e-02 0. 3.06830436e-01 2.91011155e-01
      1.56885058e-01 1.91936702e-01 9.55017433e-02 2.85777599e-01 0.
      3.06830436e-01 0. 3.06830436e-01 1.91154972e-01 1.91936702e-01
      5.27815111e-02 1.95977418e-03 5.86439157e-03 0. 5.67992916e-03 0.
      2.32827470e-01 7.78070539e-02 5.27815111e-02 2.38257289e-01
      8.70152339e-02 2.60382265e-01 0. 2.13789791e-01 0. 2.66179442e-01
      8.89527202e-02 2.38257289e-01 1.05524592e-01 1.20168433e-01
      3.13472539e-01 0. 3.13472539e-01 0. 7.37258941e-02 2.46379673e-02
      1.05524592e-01 0. 5.73353516e-03 1.71569232e-02 0. 1.23937175e-01
      0. 0. 0. 0. 3.13472539e-01 1.54245183e-01 3.13472539e-01 0.
      2.97742128e-01 0. 1.43071786e-01 4.78121229e-02 3.13472539e-01
      3.01638037e-01 3.00385840e-02 8.98865610e-02 0. 1.56121463e-01 0.
      2.94745266e-01 9.84986946e-02 3.01638037e-01</_>
    <_>
      2.95697358e-02 0. 0. 0. 5.28198481e-02 0. 6.91732690e-02
      2.31165532e-02 2.95697358e-02 3.27037454e-01 2.93766521e-02
      8.79061446e-02 0. 1.03590474e-01 0. 2.04317212e-01 6.82793930e-02
      3.27037454e-01 1.08973578e-01 1.52377576e-01 3.27037454e-01 0. 0.
      0. 1.74329542e-02 5.82578778e-03 1.08973578e-01 3.27037454e-01
      3.16740304e-01 3.27037454e-01 0. 0. 0. 3.27037454e-01
      1.57604098e-01 3.27037454e-01 2.20709115e-01 3.66641693e-02
      1.09713182e-01 0. 5.30710593e-02 0. 9.98124629e-02 3.33556533e-02
      2.20709115e-01 1.95338145e-01 4.90011647e-02 1.46630183e-01 0.
      7.43938833e-02 0. 1.06392466e-01 3.55545841e-02 1.95338145e-01
      3.16740304e-01 1.12559564e-01 3.16740304e-01 0. 0. 0.
      2.26364657e-01 7.56471008e-02 3.16740304e-01 3.16740304e-01
      9.63770002e-02 2.88395613e-01 0. 0. 0. 2.84671277e-01
      9.51321423e-02 3.16740304e-01 6.80690855e-02 2.73871571e-02
      8.19528177e-02 0. 4.99087535e-02 0. 1.84635222e-02 6.17020018e-03
      6.80690855e-02 2.72156615e-02 2.74122171e-02 8.20274949e-02 0.
      7.11864745e-03 0. 1.11190220e-02 3.71578219e-03 2.72156615e-02
      3.73709172e-01 8.92796069e-02 2.67157614e-01 0. 0. 0.
      2.05038428e-01 6.85202479e-02 3.73709172e-01 3.73709172e-01
      3.73709172e-01 3.73709172e-01 0. 0. 0. 5.59718758e-02
      1.87048186e-02 3.73709172e-01 8.22250545e-02 3.13214213e-02
      9.37252864e-02 0. 0. 0. 5.91539629e-02 1.97682176e-02
      8.22250545e-02 1.64136991e-01 9.42400657e-03 2.82001123e-02 0. 0.
      0. 5.93854636e-02 1.98455788e-02 1.64136991e-01 3.62661213e-01
      2.77014583e-01 3.62661213e-01 0. 0. 0. 2.56333858e-01
      8.56622756e-02 3.62661213e-01 3.62661213e-01 5.44358306e-02
      1.62892118e-01 0. 0. 0. 2.57337034e-01 8.59975219e-02
      3.62661213e-01 2.29991764e-01 1.75917804e-01 2.76997447e-01 0. 0.
      0. 1.37959450e-01 4.61036265e-02 2.29991764e-01 2.76997447e-01
      2.48859689e-01 2.76997447e-01 0. 0. 0. 2.36904085e-01
      7.91691840e-02 2.76997447e-01 2.76997447e-01 1.32235035e-01
      2.76997447e-01 0. 0. 0. 1.68329880e-01 5.62528931e-02
      2.76997447e-01 1.22423768e-01 1.35083601e-01 2.76997447e-01 0. 0.
      0. 5.98555654e-02 2.00026780e-02 1.22423768e-01 3.15983802e-01
      1.30732313e-01 3.15983802e-01 0. 0. 0. 2.42586106e-01
      8.10680166e-02 3.15983802e-01 3.15983802e-01 1.03283428e-01
      3.09062213e-01 0. 0. 0. 3.05071026e-01 1.01949371e-01
      3.15983802e-01 1.72310889e-01 3.76271904e-02 1.12594485e-01 0. 0.
      0. 5.59814014e-02 1.87080055e-02 1.72310889e-01 2.32352942e-01
      3.47234905e-02 1.03905648e-01 0. 0. 0. 8.75288770e-02
      2.92506255e-02 2.32352942e-01 2.91470498e-01 8.47426429e-02
      2.53581315e-01 0. 0. 0. 1.98961124e-01 6.64893091e-02
      2.91470498e-01 2.91470498e-01 1.86398894e-01 2.91470498e-01 0. 0.
      0. 1.79908630e-02 6.01223065e-03 2.91470498e-01 2.02660576e-01
      2.99881827e-02 8.97358507e-02 0. 2.13156361e-02 0. 7.01698959e-02
      2.34495681e-02 2.02660576e-01 2.52503216e-01 1.09333344e-01
      2.91470498e-01 0. 2.91470498e-01 0. 1.17370658e-01 3.92233133e-02
      2.52503216e-01 2.29793593e-01 1.38873547e-01 2.61880368e-01 0. 0.
      0. 7.71344379e-02 2.57769730e-02 2.29793593e-01 2.61880368e-01
      2.07490511e-02 6.20888248e-02 0. 0. 0. 7.74363056e-02
      2.58778557e-02 2.61880368e-01 2.61880368e-01 1.34659246e-01
      2.61880368e-01 0. 2.61880368e-01 0. 2.14416102e-01 7.16542825e-02
      2.61880368e-01 2.61880368e-01 1.35646239e-01 2.61880368e-01 0.
      6.09408095e-02 0. 2.61880368e-01 9.57649723e-02 2.61880368e-01
      2.82588691e-01 9.56298690e-03 2.86159907e-02 0. 0. 0.
      1.46347627e-01 4.89069149e-02 2.82588691e-01 1.54184237e-01
      5.80979930e-03 1.73850674e-02 0. 0. 0. 6.86931759e-02
      2.29561124e-02 1.54184237e-01 3.46501201e-01 0. 0. 0. 0. 0.
      3.46501201e-01 1.27200276e-01 3.46501201e-01 3.46501201e-01 0. 0.
      0. 0. 0. 3.46501201e-01 1.49732441e-01 3.46501201e-01
      6.12606108e-02 1.79905631e-02 5.38346283e-02 0. 8.36712644e-02 0.
      2.00914647e-02 6.71423227e-03 6.12606108e-02 2.62928873e-01
      8.52325484e-02 2.55048305e-01 0. 2.29920194e-01 0. 6.20970652e-02
      2.07518023e-02 2.62928873e-01 2.85419285e-01 8.39021131e-02
      2.51067132e-01 0. 1.66678667e-01 0. 2.61880279e-01 8.75160098e-02
      2.85419285e-01 2.85419285e-01 2.01436013e-01 2.85419285e-01 0.
      2.85419285e-01 0. 8.36853981e-02 2.79662628e-02 2.85419285e-01
      2.76430041e-01 4.73679192e-02 1.41742885e-01 0. 9.70942453e-02 0.
      8.90226364e-02 2.97498796e-02 2.76430041e-01 2.76430041e-01
      1.46930948e-01 2.76430041e-01 0. 2.76430041e-01 0. 1.10648908e-01
      3.69770192e-02 2.76430041e-01 2.76430041e-01 6.10290579e-02
      1.82622224e-01 0. 1.54481560e-01 0. 6.92398399e-02 2.31387950e-02
      2.76430041e-01 2.76430041e-01 5.82296364e-02 1.74245298e-01 0.
      2.38268152e-01 0. 2.19854396e-02 7.34716607e-03 2.76430041e-01
      2.84887642e-01 1.98142588e-01 2.84887642e-01 0. 2.84887642e-01 0.
      2.12458253e-01 7.10000023e-02 2.84887642e-01 2.84887642e-01
      1.63665518e-01 2.84887642e-01 0. 1.63173392e-01 0. 2.83947587e-01
      9.48905349e-02 2.84887642e-01 1.69606924e-01 5.44764511e-02
      1.63014323e-01 0. 2.84887642e-01 0. 1.41638843e-02 4.73333336e-03
      1.69606924e-01 7.97027275e-02 2.63221245e-02 7.87658319e-02 0.
      8.99183229e-02 0. 1.89298391e-02 6.32603653e-03 7.97027275e-02
      4.07366246e-01 0. 0. 0. 0. 0. 3.34048063e-01 1.11633278e-01
      4.07366246e-01 4.07366246e-01 0. 0. 0. 0. 0. 4.07366246e-01
      2.04608545e-01 4.07366246e-01 0. 0. 0. 0. 0. 0. 0. 0. 0.
      1.18201338e-02 0. 0. 0. 0. 0. 0. 0. 1.18201338e-02 3.42510849e-01
      1.06347501e-01 3.18232298e-01 0. 9.97677818e-02 0. 3.42510849e-01
      1.36703223e-01 3.42510849e-01 3.42510849e-01 1.96427315e-01
      3.42510849e-01 0. 3.26031595e-01 0. 5.97398393e-02 1.99640561e-02
      3.42510849e-01 3.05510927e-02 0. 0. 0. 0. 0. 0. 0. 3.05510927e-02
      1.94710493e-02 0. 0. 0. 0. 0. 0. 0. 1.94710493e-02 3.88290286e-01
      3.02291006e-01 3.88290286e-01 0. 3.88290286e-01 0. 0. 0.
      3.88290286e-01 3.88290286e-01 0. 0. 0. 0. 0. 0. 0. 3.88290286e-01
      7.90375564e-03 0. 0. 0. 0. 0. 0. 0. 7.90375564e-03 0. 0. 0. 0. 0.
      0. 0. 0. 0. 5.77455878e-01 0. 0. 0. 0. 0. 0. 0. 5.77455878e-01
      4.04551208e-01 0. 0. 0. 0. 0. 0. 0. 4.04551208e-01 0. 0. 0. 0. 0.
      0. 0. 0. 0. 0. 0. 0. 0. 0. 0. 0. 0. 0.</_>
    <_>
      1.43392757e-01 0. 0. 0. 2.54311234e-01 0. 0. 0. 1.43392757e-01 0.
      0. 0. 0. 0. 0. 0. 0. 0. 5.44293880e-01 0. 0. 0. 5.44293880e-01 0.
      0. 0. 5.44293880e-01 0. 0. 0. 0. 0. 0. 0. 0. 0. 0. 0. 0. 0.
      2.14859191e-03 0. 0. 0. 0. 9.06060711e-02 1.24041148e-01
      3.71176958e-01 0. 3.22288796e-02 0. 0. 0. 9.06060711e-02 0. 0. 0.
      0. 5.81255034e-02 0. 0. 0. 0. 1.32753640e-01 4.19068962e-01
      4.19068962e-01 0. 4.19068962e-01 0. 4.19068962e-01 2.89986223e-01
      1.32753640e-01 1.64466560e-01 7.60198161e-02 2.27479398e-01 0.
      5.45368902e-03 0. 0. 0. 1.64466560e-01 2.90430337e-01
      7.91297257e-02 2.36785397e-01 0. 0. 0. 0. 0. 2.90430337e-01
      2.51468033e-01 2.21933573e-01 2.90430337e-01 0. 1.47537753e-01 0.
      2.90430337e-01 1.12139665e-01 2.51468033e-01 2.90430337e-01
      1.27114818e-01 2.90430337e-01 0. 0. 0. 7.61038288e-02
      2.54326295e-02 2.90430337e-01 3.03364456e-01 5.65767661e-02
      1.69298604e-01 0. 0. 0. 0. 0. 3.03364456e-01 3.03364456e-01
      4.24876362e-02 1.27138719e-01 0. 0. 0. 2.87643783e-02
      9.61255189e-03 3.03364456e-01 3.03364456e-01 9.55220535e-02
      2.85837829e-01 0. 0. 0. 0. 0. 3.03364456e-01 3.03364456e-01
      1.55143753e-01 3.03364456e-01 0. 0. 0. 5.23727573e-02
      1.75020825e-02 3.03364456e-01 4.08065259e-01 0. 0. 0.
      4.27734435e-01 0. 0. 0. 4.08065259e-01 0. 0. 0. 0. 0. 0. 0. 0. 0.
      4.59256321e-02 0. 0. 0. 3.78985852e-02 0. 0. 0. 4.59256321e-02
      2.32559502e-01 4.27734435e-01 4.27734435e-01 0. 0. 0. 0. 0.
      2.32559502e-01 0. 0. 0. 0. 2.07369979e-02 0. 0. 0. 0.
      2.50727143e-02 9.81300995e-02 2.93641597e-01 0. 3.21327806e-01 0.
      3.21327806e-01 2.34457850e-01 2.50727143e-02 1.70922861e-01
      1.24503382e-01 3.21327806e-01 0. 7.87802157e-04 0. 0. 0.
      1.70922861e-01 3.21327806e-01 2.82132924e-01 3.21327806e-01 0.
      4.75245677e-02 0. 2.49096557e-01 8.32438990e-02 3.21327806e-01
      4.60928679e-02 6.43022135e-02 1.92416042e-01 0. 1.94677562e-01 0.
      2.96298593e-01 1.84986442e-01 4.60928679e-02 5.51739931e-02
      7.73396045e-02 2.31429324e-01 0. 1.71471983e-01 0. 1.98457062e-01
      6.63210303e-02 5.51739931e-02 2.12717533e-01 1.54925376e-01
      2.96298593e-01 0. 2.71536589e-01 0. 2.75302142e-01 9.20013711e-02
      2.12717533e-01 5.95129579e-02 2.96298593e-01 2.96298593e-01 0.
      2.96298593e-01 0. 1.41191870e-01 4.71839681e-02 5.95129579e-02
      7.18895867e-02 1.51018396e-01 3.41521680e-01 0. 5.87258637e-02 0.
      0. 0. 7.18895867e-02 2.78362244e-01 2.04803631e-01 3.41521680e-01
      0. 5.98124042e-03 0. 2.30552051e-02 7.70466495e-03 2.78362244e-01
      1.62668731e-02 3.19622815e-01 3.41521680e-01 0. 1.85254902e-01 0.
      0. 0. 1.62668731e-02 1.72348276e-01 3.14036667e-01 3.41521680e-01
      0. 2.94761062e-02 0. 1.53701392e-03 5.13644365e-04 1.72348276e-01
      3.73862348e-02 3.45031172e-02 1.03246085e-01 0. 7.94706307e-03 0.
      0. 0. 3.73862348e-02 1.77889481e-01 1.73974723e-01 3.28990638e-01
      0. 3.61230178e-03 0. 0. 0. 1.77889481e-01 1.83540702e-01
      1.40546367e-01 3.28990638e-01 0. 3.28990638e-01 0. 5.96852750e-02
      1.99458227e-02 1.83540702e-01 3.28990638e-01 3.28990638e-01
      3.28990638e-01 0. 1.93150371e-01 0. 4.64218818e-02 1.55134164e-02
      3.28990638e-01 1.71078727e-01 1.82773620e-01 2.87228137e-01 0. 0.
      0. 0. 0. 1.71078727e-01 2.87228137e-01 1.71482265e-01
      2.87228137e-01 0. 1.43297380e-02 0. 1.97259802e-03 6.59209269e-04
      2.87228137e-01 2.87228137e-01 1.66077867e-01 2.87228137e-01 0. 0.
      0. 0. 0. 2.87228137e-01 2.87228137e-01 1.51000172e-01
      2.87228137e-01 0. 1.37508037e-02 0. 0. 0. 2.87228137e-01
      1.55480921e-01 1.65517092e-01 3.18670928e-01 0. 1.67565018e-01 0.
      7.56767485e-03 2.52899062e-03 1.55480921e-01 4.58043702e-02
      3.13028187e-01 3.18670928e-01 0. 3.18670928e-01 0. 2.30419934e-02
      7.70024909e-03 4.58043702e-02 1.31704107e-01 2.03743383e-01
      3.18670928e-01 0. 1.29352719e-01 0. 0. 0. 1.31704107e-01
      1.32140011e-01 2.16444686e-01 3.18670928e-01 0. 3.18670928e-01 0.
      7.43427724e-02 2.48441119e-02 1.32140011e-01 4.75754924e-02
      2.82446891e-01 3.06207448e-01 0. 1.22639880e-01 0. 1.61185618e-02
      5.38655417e-03 4.75754924e-02 1.04544722e-01 2.39011094e-01
      3.06207448e-01 0. 5.55035584e-02 0. 1.07457093e-03 3.59103637e-04
      1.04544722e-01 3.06207448e-01 1.39753491e-01 3.06207448e-01 0.
      1.19319983e-01 0. 6.98471069e-02 2.33417358e-02 3.06207448e-01
      3.06207448e-01 1.54351577e-01 3.06207448e-01 0. 4.57842126e-02 0.
      4.65647364e-03 1.55611569e-03 3.06207448e-01 3.10315400e-01
      7.51070157e-02 2.24747971e-01 0. 3.32593292e-01 0. 1.32667094e-01
      4.43351232e-02 3.10315400e-01 3.32593292e-01 1.75282031e-01
      3.32593292e-01 0. 2.56569594e-01 0. 1.03185520e-01 3.44828777e-02
      3.32593292e-01 1.02574036e-01 0. 0. 0. 4.84873392e-02 0.
      3.06154843e-02 1.02311838e-02 1.02574036e-01 2.72704452e-01
      1.76516119e-02 5.28203547e-02 0. 2.45402344e-02 0. 2.38120425e-02
      7.95758702e-03 2.72704452e-01 3.75205785e-01 1.28513768e-01
      3.75205785e-01 0. 0. 0. 0. 0. 3.75205785e-01 3.75205785e-01
      1.70089498e-01 3.75205785e-01 0. 3.69578670e-03 0. 0. 0.
      3.75205785e-01 1.87369972e-01 2.39008404e-02 7.15204328e-02 0. 0.
      0. 0. 0. 1.87369972e-01 1.20687656e-01 1.04297930e-02
      3.12099196e-02 0. 0. 0. 0. 0. 1.20687656e-01 3.50148648e-01
      3.50148648e-01 3.50148648e-01 0. 9.83001664e-02 0. 0. 0.
      3.50148648e-01 3.26695055e-01 1.78866133e-01 3.50148648e-01 0.
      3.18120390e-01 0. 1.24025702e-01 4.14473191e-02 3.26695055e-01
      6.69593662e-02 1.04525751e-02 3.12780924e-02 0. 0. 0. 0. 0.
      6.69593662e-02 2.09268951e-03 3.97095224e-04 1.18826039e-03 0. 0.
      0. 0. 0. 2.09268951e-03 4.10290569e-01 7.89246410e-02
      2.36171976e-01 0. 1.77519754e-01 0. 1.49842367e-01 5.00748195e-02
      4.10290569e-01 4.10290569e-01 1.88048646e-01 4.10290569e-01 0.
      1.60137862e-02 0. 9.98949166e-03 3.33832134e-03 4.10290569e-01 0.
      0. 0. 0. 0. 0. 0. 0. 0. 0. 0. 0. 0. 0. 0. 0. 0. 0.</_>
    <_>
      0. 0. 0. 0. 0. 0. 0. 0. 0. 0. 0. 0. 0. 0. 0. 0. 0. 0. 0. 0. 0. 0.
      0. 0. 0. 0. 0. 4.30713743e-01 4.30713743e-01 4.30713743e-01 0.
      4.30713743e-01 0. 2.47552007e-01 8.27277452e-02 4.30713743e-01 0.
      0. 0. 0. 0. 0. 0. 0. 0. 0. 0. 0. 0. 0. 0. 0. 0. 0. 3.18286538e-01
      2.80827671e-01 3.18286538e-01 0. 3.18286538e-01 0. 2.94764042e-01
      9.85052139e-02 3.18286538e-01 2.97454029e-01 8.93369243e-02
      2.67330110e-01 0. 3.18286538e-01 0. 2.29260892e-01 7.66151622e-02
      2.97454029e-01 2.91329110e-03 0. 0. 0. 4.36422266e-02 0.
      1.56910717e-02 5.24368137e-03 2.91329110e-03 3.01702440e-01
      1.13555580e-01 3.39801341e-01 0. 4.52023804e-01 0. 4.30199623e-01
      1.43765152e-01 3.01702440e-01 0. 0. 0. 0. 2.41963193e-02 0. 0. 0.
      0. 2.80678608e-02 4.80371714e-02 1.43745556e-01 0. 4.52023804e-01
      0. 1.97490916e-01 6.59979954e-02 2.80678608e-02 2.23548964e-01
      7.51978606e-02 2.25020528e-01 0. 4.31273222e-01 0. 1.77476481e-01
      5.93095459e-02 2.23548964e-01 1.25743523e-01 2.85536293e-02
      8.54433253e-02 0. 4.31273222e-01 0. 8.06174502e-02 2.69409996e-02
      1.25743523e-01 2.10637487e-02 2.04166044e-02 6.10942692e-02 0.
      4.31273222e-01 0. 8.19485709e-02 2.73857806e-02 2.10637487e-02
      7.84630049e-03 2.86686653e-03 8.57875869e-03 0. 4.31273222e-01 0.
      2.65212823e-02 8.86296481e-03 7.84630049e-03 0. 3.88020853e-04
      1.16110640e-03 0. 3.84195102e-03 0. 0. 0. 0. 5.20448945e-02
      1.50559381e-01 4.44481611e-01 0. 4.44481611e-01 0. 3.85032296e-02
      1.28671378e-02 5.20448945e-02 0. 2.04448756e-02 6.11788668e-02 0.
      1.25201613e-01 0. 0. 0. 0. 1.20103601e-02 3.93813729e-01
      4.44481611e-01 0. 4.44481611e-01 0. 1.75014697e-02 5.84869878e-03
      1.20103601e-02 7.68850073e-02 1.04945190e-01 3.14035982e-01 0.
      3.68245691e-01 0. 9.77791324e-02 3.26761492e-02 7.68850073e-02
      4.67099287e-02 2.68393084e-02 8.03134516e-02 0. 3.68245691e-01 0.
      8.69527310e-02 2.90581547e-02 4.67099287e-02 1.77426934e-02
      1.55890778e-01 3.68245691e-01 0. 3.68245691e-01 0. 2.07235456e-01
      6.92546293e-02 1.77426934e-02 1.07792141e-02 1.75437238e-02
      5.24975210e-02 0. 3.68245691e-01 0. 2.85011649e-01 9.52461287e-02
      1.07792141e-02 0. 0. 0. 0. 9.80448723e-02 0. 7.58666359e-03
      2.53533619e-03 0. 0. 1.02585725e-01 3.06975633e-01 0.
      6.08177602e-01 0. 0. 0. 0. 0. 0. 0. 0. 3.03452581e-01 0.
      8.98977965e-02 3.00423447e-02 0. 0. 6.23238869e-02 1.86496839e-01
      0. 6.08177602e-01 0. 0. 0. 0. 0. 4.91458289e-02 1.47063047e-01 0.
      4.52846497e-01 0. 3.46472040e-02 1.15785180e-02 0. 0.
      1.39664439e-02 4.17928100e-02 0. 4.52846497e-01 0. 1.50137886e-01
      5.01735732e-02 0. 0. 4.77453768e-02 1.42872155e-01 0.
      4.52846497e-01 0. 3.47827971e-02 1.16238315e-02 0. 7.27728801e-03
      8.58825147e-02 2.56992310e-01 0. 4.52846497e-01 0. 1.50725454e-01
      5.03699295e-02 7.27728801e-03 0. 4.72434275e-02 1.41370326e-01 0.
      2.13473320e-01 0. 0. 0. 0. 0. 2.23847881e-01 3.70333880e-01 0.
      3.70333880e-01 0. 0. 0. 0. 0. 1.21019997e-01 3.62137973e-01 0.
      3.70333880e-01 0. 0. 0. 0. 0. 2.16513470e-01 3.70333880e-01 0.
      3.70333880e-01 0. 0. 0. 0. 0. 9.04833749e-02 2.70760775e-01 0.
      3.60548854e-01 0. 2.02714399e-01 6.77437708e-02 0. 0.
      4.11301712e-03 1.23076821e-02 0. 3.60548854e-01 0. 3.60548854e-01
      1.54831216e-01 0. 0. 5.75351380e-02 1.72166869e-01 0.
      3.60548854e-01 0. 9.33604538e-02 3.11995074e-02 0. 0.
      7.60960132e-02 2.27707401e-01 0. 3.60548854e-01 0. 2.92045444e-01
      9.75967124e-02 0. 0. 2.37556268e-03 7.10857427e-03 0.
      3.34640294e-01 0. 1.52832016e-01 5.10739125e-02 0. 0.
      1.59044378e-02 4.75921407e-02 0. 4.40796703e-01 0. 0. 0. 0. 0.
      4.26855087e-02 1.27730921e-01 0. 4.40796703e-01 0. 1.29243970e-01
      4.31911685e-02 0. 0. 1.06557108e-01 3.18859488e-01 0.
      4.40796703e-01 0. 3.31865996e-01 1.10903785e-01 0. 0.
      3.34231257e-02 1.00014433e-01 0. 4.42673594e-01 0. 2.50171823e-03
      8.36032501e-04 0. 1.92415304e-02 9.35040861e-02 2.79799014e-01 0.
      4.42673594e-01 0. 4.36608829e-02 1.45907095e-02 1.92415304e-02 0.
      6.04177825e-02 1.80792823e-01 0. 4.42673594e-01 0. 1.62215590e-01
      5.42096086e-02 0. 5.27133718e-02 5.95080703e-02 1.78070322e-01 0.
      4.42673594e-01 0. 6.23733290e-02 2.08440721e-02 5.27133718e-02 0.
      1.11130737e-01 3.32545549e-01 0. 3.91590148e-01 0. 0. 0. 0. 0.
      1.17692731e-01 3.52181584e-01 0. 3.91590148e-01 0. 0. 0. 0. 0.
      9.50542688e-02 2.84438640e-01 0. 3.91590148e-01 0. 0. 0. 0. 0.
      5.66589981e-02 1.69545323e-01 0. 3.91590148e-01 0. 0. 0. 0. 0.
      3.33850868e-02 9.99006629e-02 0. 4.47851151e-01 0. 3.71311326e-03
      1.24086055e-03 0. 0. 8.44394565e-02 2.52674043e-01 0.
      4.47851151e-01 0. 1.60901584e-02 5.37706213e-03 0. 0.
      4.34104949e-02 1.29900262e-01 0. 4.47851151e-01 0. 0. 0. 0. 0.
      9.61958766e-02 2.87853628e-01 0. 4.47851151e-01 0. 0. 0. 0. 0.
      5.60660586e-02 1.67770460e-01 0. 3.72939497e-01 0. 3.88490371e-02
      1.29826739e-02 0. 3.80976126e-02 8.39494467e-02 2.51208782e-01 0.
      3.72939497e-01 0. 3.72939497e-01 3.41225475e-01 3.80976126e-02 0.
      3.79727967e-02 1.13628656e-01 0. 3.72939497e-01 0. 4.33642277e-03
      1.44915632e-03 0. 7.20572472e-02 0. 0. 0. 1.79233059e-01 0.
      3.72939497e-01 1.46670759e-01 7.20572472e-02 6.58990666e-02
      3.38474177e-02 1.01284221e-01 0. 3.59462380e-01 0. 3.59462380e-01
      1.34183139e-01 6.58990666e-02 1.15965724e-01 6.09130710e-02
      1.82274923e-01 0. 3.59462380e-01 0. 6.91140518e-02 2.30967030e-02
      1.15965724e-01 1.25016183e-01 2.03175955e-02 6.07978031e-02 0.
      2.98782557e-01 0. 2.44630098e-01 8.17510784e-02 1.25016183e-01
      1.16819456e-01 1.43562853e-01 3.59462380e-01 0. 3.59462380e-01 0.
      6.02673441e-02 2.01402865e-02 1.16819456e-01</_>
    <_>
      4.03007260e-03 0. 0. 0. 0. 0. 0. 0. 4.03007260e-03 4.48273569e-02
      0. 0. 0. 0. 0. 0. 0. 4.48273569e-02 8.58494490e-02 2.67777704e-02
      8.01289901e-02 0. 3.32665950e-01 0. 3.14526334e-02 1.05109448e-02
      8.58494490e-02 4.16439444e-01 1.16037004e-01 3.47225636e-01 0.
      4.16439444e-01 0. 4.16439444e-01 1.74432099e-01 4.16439444e-01
      2.23592464e-02 0. 0. 0. 0. 0. 0. 0. 2.23592464e-02 2.13989848e-03
      0. 0. 0. 0. 0. 0. 0. 2.13989848e-03 4.06148493e-01 2.68607475e-02
      8.03772882e-02 0. 1.37086853e-01 0. 4.06148493e-01 1.60526931e-01
      4.06148493e-01 4.06148493e-01 0. 0. 0. 0. 0. 3.26361656e-01
      1.09064363e-01 4.06148493e-01 5.64554823e-04 0. 0. 0. 0. 0. 0. 0.
      5.64554823e-04 8.46832246e-03 5.40058166e-02 1.61605373e-01 0. 0.
      0. 0. 0. 8.46832246e-03 3.81976575e-01 5.30366041e-02
      1.58705115e-01 0. 0. 0. 2.36422554e-01 7.90082663e-02
      3.81976575e-01 3.81976575e-01 3.81976575e-01 3.81976575e-01 0. 0.
      0. 3.58936749e-02 1.19950362e-02 3.81976575e-01 1.05747677e-01
      1.01451941e-01 3.03581804e-01 0. 0. 0. 0. 0. 1.05747677e-01
      3.18563789e-01 7.05828592e-02 2.11210012e-01 0. 0. 0.
      7.62702897e-02 2.54881941e-02 3.18563789e-01 1.93384349e-01
      3.18563789e-01 3.18563789e-01 0. 0. 0. 0. 0. 1.93384349e-01
      3.18563789e-01 1.41681850e-01 3.18563789e-01 0. 0. 0.
      9.80618075e-02 3.27705368e-02 3.18563789e-01 1.08631685e-01
      6.61692070e-03 1.98002737e-02 0. 1.27704054e-01 0. 3.09539828e-02
      1.03442948e-02 1.08631685e-01 2.99340010e-01 2.99075153e-02
      8.94943476e-02 0. 2.99340010e-01 0. 2.99340010e-01 1.06494695e-01
      2.99340010e-01 2.99340010e-01 4.41128039e-04 1.32001832e-03 0.
      5.36734387e-02 0. 1.20409228e-01 4.02386747e-02 2.99340010e-01
      2.99340010e-01 2.04244424e-02 6.11174926e-02 0. 2.99340010e-01 0.
      2.99340010e-01 1.27105325e-01 2.99340010e-01 2.83939868e-01
      1.34000778e-02 4.00979891e-02 0. 2.73407519e-01 0. 2.83939868e-01
      1.33751899e-01 2.83939868e-01 2.83939868e-01 9.29874775e-04
      2.78253434e-03 0. 6.95820898e-02 0. 2.18261495e-01 7.29391947e-02
      2.83939868e-01 2.83939868e-01 3.32530327e-02 9.95053574e-02 0.
      2.83939868e-01 0. 2.81709969e-01 9.41426978e-02 2.83939868e-01
      1.07283711e-01 1.91285610e-02 5.72398677e-02 0. 2.60598928e-01 0.
      7.43579194e-02 2.48491429e-02 1.07283711e-01 2.84505874e-01
      3.28849591e-02 9.84039903e-02 0. 0. 0. 1.56938300e-01
      5.24460264e-02 2.84505874e-01 2.84505874e-01 1.68313339e-01
      2.84505874e-01 0. 0. 0. 3.34337391e-02 1.11729782e-02
      2.84505874e-01 2.56224394e-01 7.81222656e-02 2.33771563e-01 0.
      1.85643688e-01 0. 6.81622028e-02 2.27786135e-02 2.56224394e-01
      2.84505874e-01 8.60289708e-02 2.57431269e-01 0. 9.77727473e-02 0.
      2.07621828e-01 6.93836883e-02 2.84505874e-01 1.80120260e-01
      1.99331552e-01 3.49605858e-01 0. 0. 0. 1.92718599e-02
      6.44033309e-03 1.80120260e-01 6.22482747e-02 4.23019119e-02
      1.26582950e-01 0. 0. 0. 1.85856260e-02 6.21099211e-03
      6.22482747e-02 3.49605858e-01 1.59988906e-02 4.78746668e-02 0. 0.
      0. 3.49605858e-01 1.37101501e-01 3.49605858e-01 3.49605858e-01 0.
      0. 0. 0. 0. 3.15758079e-01 1.05521075e-01 3.49605858e-01
      2.83588141e-01 0. 0. 0. 2.37452343e-01 0. 1.42716601e-01
      4.76934314e-02 2.83588141e-01 2.83588141e-01 1.75425541e-02
      5.24938069e-02 0. 1.11129083e-01 0. 2.04527438e-01 6.83494881e-02
      2.83588141e-01 2.83588141e-01 0. 0. 0. 2.83588141e-01 0.
      2.83588141e-01 1.00881919e-01 2.83588141e-01 2.83588141e-01 0. 0.
      0. 0. 0. 1.93965241e-01 6.48199394e-02 2.83588141e-01
      2.99294472e-01 4.59394269e-02 1.37467757e-01 0. 2.99294472e-01 0.
      1.16831355e-01 3.90430093e-02 2.99294472e-01 6.04174659e-02
      3.17849293e-02 9.51124951e-02 0. 2.99294472e-01 0. 4.41688970e-02
      1.47604756e-02 6.04174659e-02 2.99294472e-01 3.67286839e-02
      1.09906226e-01 0. 0. 0. 1.85871810e-01 6.21152446e-02
      2.99294472e-01 2.99294472e-01 2.73823589e-01 2.99294472e-01 0.
      5.85384630e-02 0. 6.61596954e-02 2.21094508e-02 2.99294472e-01
      1.67980909e-01 4.65473682e-02 1.39287502e-01 0. 2.51457304e-01 0.
      8.38751197e-02 2.80295927e-02 1.67980909e-01 3.04747432e-01
      4.82335761e-02 1.44333258e-01 0. 1.64938301e-01 0. 2.88285494e-01
      9.63400081e-02 3.04747432e-01 3.04747432e-01 6.82928637e-02
      2.04358295e-01 0. 6.25914484e-02 0. 4.51610982e-02 1.50920469e-02
      3.04747432e-01 3.04747432e-01 7.56641105e-02 2.26415873e-01 0.
      1.01144329e-01 0. 1.58961862e-01 5.31222709e-02 3.04747432e-01
      3.01960886e-01 1.27325514e-02 3.81006561e-02 0. 1.46941215e-01 0.
      3.01960886e-01 1.08834617e-01 3.01960886e-01 3.01960886e-01
      3.50518432e-03 1.04888482e-02 0. 1.01407215e-01 0. 2.26242259e-01
      7.56063610e-02 3.01960886e-01 3.01960886e-01 7.10857436e-02
      2.12715670e-01 0. 3.01960886e-01 0. 1.50068998e-01 5.01504280e-02
      3.01960886e-01 1.36300415e-01 1.51891317e-02 4.54516746e-02 0.
      2.18774065e-01 0. 4.77100238e-02 1.59438625e-02 1.36300415e-01
      3.53594422e-01 0. 0. 0. 9.95938927e-02 0. 3.53594422e-01
      1.27819344e-01 3.53594422e-01 3.53594422e-01 0. 0. 0. 0. 0.
      3.53594422e-01 1.48216799e-01 3.53594422e-01 1.25437155e-01 0. 0.
      0. 0. 0. 5.21426462e-02 1.74252037e-02 1.25437155e-01
      2.67830014e-01 0. 0. 0. 0. 0. 1.34500623e-01 4.49478664e-02
      2.67830014e-01 3.07850212e-01 5.10259829e-02 1.52689204e-01 0. 0.
      0. 3.03746402e-01 1.01506978e-01 3.07850212e-01 3.07850212e-01
      2.81927049e-01 3.07850212e-01 0. 0. 0. 8.75834301e-02
      2.92689148e-02 3.07850212e-01 2.82384783e-01 1.86170749e-02
      5.57093881e-02 0. 0. 0. 1.27393723e-01 4.25728559e-02
      2.82384783e-01 1.88124716e-01 7.30048344e-02 2.18458310e-01 0. 0.
      0. 3.98106501e-02 1.33040529e-02 1.88124716e-01 3.86034071e-01
      2.44532332e-01 3.86034071e-01 0. 0. 0. 0. 0. 3.86034071e-01
      3.86034071e-01 1.26843050e-01 3.79562765e-01 0. 4.79328111e-02 0.
      9.32058692e-03 3.11477669e-03 3.86034071e-01 5.62991388e-02
      4.57662679e-02 1.36950135e-01 0. 0. 0. 0. 0. 5.62991388e-02
      2.73397099e-02 2.63431109e-04 7.88286270e-04 0. 0. 0. 0. 0.
      2.73397099e-02 4.19174105e-01 2.42613435e-01 4.19174105e-01 0.
      4.19174105e-01 0. 7.32945129e-02 2.44937409e-02 4.19174105e-01
      1.91915587e-01 3.85780707e-02 1.15440294e-01 0. 3.71558219e-01 0.
      3.33156884e-02 1.11335181e-02 1.91915587e-01 1.38643105e-02 0. 0.
      0. 0. 0. 0. 0. 1.38643105e-02 0. 0. 0. 0. 0. 0. 0. 0. 0.</_>
    <_>
      1.19665060e-02 0. 0. 0. 1.13273822e-02 0. 0. 0. 1.19665060e-02
      1.42448485e-01 2.53798510e-03 7.59461941e-03 0. 2.59226024e-01 0.
      0. 0. 1.42448485e-01 2.67573595e-01 5.38191721e-02 1.61047474e-01
      0. 2.62868077e-01 0. 3.00539106e-01 2.08315462e-01 2.67573595e-01
      3.00539106e-01 1.03918821e-01 3.00539106e-01 0. 3.00539106e-01 0.
      3.00539106e-01 2.26883262e-01 3.00539106e-01 1.48728684e-01
      7.57054146e-03 2.26539485e-02 0. 2.23526135e-01 0. 1.45607144e-02
      4.86594718e-03 1.48728684e-01 3.98825184e-02 4.59933002e-03
      1.37629490e-02 0. 3.03457193e-02 0. 2.41670087e-02 8.07621144e-03
      3.98825184e-02 2.98536420e-01 2.10232049e-01 2.98536420e-01 0.
      2.98536420e-01 0. 2.98536420e-01 1.25676304e-01 2.98536420e-01
      1.96618617e-01 1.28421143e-01 2.98536420e-01 0. 2.98536420e-01 0.
      2.98536420e-01 1.73926875e-01 1.96618617e-01 6.05605403e-03 0. 0.
      0. 5.37538752e-02 0. 5.57181574e-02 1.86200384e-02 6.05605403e-03
      0. 0. 0. 0. 4.46148545e-01 0. 4.46148545e-01 4.46148545e-01 0.
      4.31076698e-02 1.44576039e-02 4.32624966e-02 0. 3.48367870e-01 0.
      2.48316944e-01 8.29833820e-02 4.31076698e-02 0. 0. 0. 0.
      2.06961915e-01 0. 3.71524930e-01 1.24157116e-01 0. 0. 0. 0. 0.
      3.21469009e-01 0. 3.21469009e-01 2.28719845e-01 0. 1.27290431e-02
      0. 0. 0. 3.21469009e-01 0. 3.21469009e-01 2.18817294e-01
      1.27290431e-02 0. 0. 0. 0. 2.46917278e-01 0. 3.21469009e-01
      1.74599528e-01 0. 1.27788587e-02 0. 0. 0. 3.21469009e-01 0.
      3.21469009e-01 2.84770459e-01 1.27788587e-02 1.04744464e-01
      2.34242287e-02 7.00942278e-02 0. 1.38944745e-01 0. 3.24173361e-01
      2.00703323e-01 1.04744464e-01 3.17942172e-01 4.48050164e-02
      1.34073704e-01 0. 1.28823370e-01 0. 3.24173361e-01 2.57575125e-01
      3.17942172e-01 1.32950656e-02 1.56161538e-03 4.67294874e-03 0.
      2.10945942e-02 0. 3.24173361e-01 1.24809541e-01 1.32950656e-02
      9.24811661e-02 4.85903164e-03 1.45400763e-02 0. 2.13279322e-01 0.
      3.24173361e-01 3.24173361e-01 9.24811661e-02 2.19558403e-01
      9.74671245e-02 2.79530376e-01 0. 2.79530376e-01 0. 2.65315741e-01
      8.86640325e-02 2.19558403e-01 9.23815966e-02 7.46811852e-02
      2.23474100e-01 0. 2.79530376e-01 0. 2.39884675e-01 8.01654533e-02
      9.23815966e-02 8.90648812e-02 2.25450862e-02 6.74633086e-02 0.
      2.79530376e-01 0. 2.79530376e-01 2.02308118e-01 8.90648812e-02
      6.55572191e-02 3.10606901e-02 9.29450914e-02 0. 2.79530376e-01 0.
      2.79530376e-01 2.22419590e-01 6.55572191e-02 8.96416530e-02
      5.67756221e-02 1.69893652e-01 0. 4.33971554e-01 0. 3.36340964e-01
      1.12399533e-01 8.96416530e-02 0. 0. 0. 0. 2.20101215e-02 0.
      1.19452840e-02 3.99190467e-03 0. 1.13433763e-01 6.14074022e-02
      1.83753654e-01 0. 4.33971554e-01 0. 4.33971554e-01 4.33971554e-01
      1.13433763e-01 0. 1.98783400e-03 5.94833447e-03 0. 5.93932904e-02
      0. 2.91031897e-02 9.72579978e-03 0. 0. 0. 0. 0. 1.56941205e-01 0.
      2.97260791e-01 9.93393362e-02 0. 1.89570105e-03 0. 0. 0.
      4.05918449e-01 0. 4.05918449e-01 4.05918449e-01 1.89570105e-03 0.
      0. 0. 0. 1.28910318e-02 0. 2.14290693e-02 7.16121867e-03 0.
      3.02932132e-03 0. 0. 0. 4.05918449e-01 0. 4.05918449e-01
      2.20297173e-01 3.02932132e-03 4.25085127e-02 0. 0. 0. 0. 0.
      8.57445002e-02 2.86543239e-02 4.25085127e-02 6.18379004e-02 0. 0.
      0. 3.28371406e-01 0. 3.28371406e-01 1.98856428e-01 6.18379004e-02
      3.28371406e-01 0. 0. 0. 0. 0. 3.28371406e-01 1.12838723e-01
      3.28371406e-01 3.28371406e-01 0. 0. 0. 1.91220820e-01 0.
      3.28371406e-01 1.60685599e-01 3.28371406e-01 1.08573347e-01
      1.94434319e-02 5.81819378e-02 0. 2.76013643e-01 0. 2.76013643e-01
      1.47808060e-01 1.08573347e-01 2.13781819e-01 5.08795753e-02
      1.52250528e-01 0. 1.50257722e-01 0. 2.76013643e-01 2.01720372e-01
      2.13781819e-01 2.76013643e-01 3.54565009e-02 1.06099077e-01 0.
      1.28378987e-01 0. 2.76013643e-01 9.71520767e-02 2.76013643e-01
      2.76013643e-01 8.68538767e-02 2.59899259e-01 0. 6.04356304e-02 0.
      1.91966191e-01 6.41518235e-02 2.76013643e-01 2.30694771e-01
      6.45537525e-02 1.93168700e-01 0. 3.17749232e-01 0. 3.17749232e-01
      2.52719194e-01 2.30694771e-01 3.70059581e-03 3.26707121e-03
      9.77628585e-03 0. 7.27554336e-02 0. 2.18771826e-02 7.31098838e-03
      3.70059581e-03 3.17749232e-01 8.23600143e-02 2.46451914e-01 0.
      1.91538066e-01 0. 3.17749232e-01 1.62682801e-01 3.17749232e-01
      1.25863492e-01 2.54105544e-03 7.60377711e-03 0. 4.42010909e-02 0.
      3.14389229e-01 1.05063640e-01 1.25863492e-01 0. 0. 0. 0. 0. 0. 0.
      0. 0. 1.10572472e-01 0. 0. 0. 5.50177991e-01 0. 5.50177991e-01
      2.51643002e-01 1.10572472e-01 3.92608903e-02 0. 0. 0. 0. 0.
      1.31705761e-01 4.40138690e-02 3.92608903e-02 1.11005209e-01 0. 0.
      0. 3.87348771e-01 0. 3.06285977e-01 1.02355398e-01 1.11005209e-01
      3.79501075e-01 0. 0. 0. 0. 0. 3.60716969e-01 1.20545566e-01
      3.79501075e-01 3.79501075e-01 9.42759274e-04 2.82108434e-03 0. 0.
      0. 3.79501075e-01 2.30967194e-01 3.79501075e-01 4.22582366e-02 0.
      0. 0. 2.32683886e-02 0. 2.50398815e-02 8.36789608e-03
      4.22582366e-02 1.27799928e-01 2.55043115e-02 7.63183311e-02 0.
      1.48308814e-01 0. 1.04563758e-01 3.49434614e-02 1.27799928e-01
      2.80180186e-01 2.89133079e-02 8.65195617e-02 0. 0. 0.
      2.34541059e-01 7.83796832e-02 2.80180186e-01 2.80180186e-01
      7.32918829e-02 2.19317123e-01 0. 0. 0. 1.14446737e-01
      3.82461622e-02 2.80180186e-01 2.05139443e-01 7.94597790e-02
      2.37773091e-01 0. 2.15263262e-01 0. 1.00966454e-01 3.37412804e-02
      2.05139443e-01 2.80180186e-01 8.41556638e-02 2.51825064e-01 0.
      1.25313804e-01 0. 2.80180186e-01 1.38923511e-01 2.80180186e-01
      2.95343399e-01 2.04068590e-02 6.10650815e-02 0. 0. 0.
      2.95343399e-01 1.25553370e-01 2.95343399e-01 1.66120827e-01 0. 0.
      0. 0. 0. 2.95343399e-01 2.08369598e-01 1.66120827e-01
      2.79439211e-01 8.37003533e-03 2.50462908e-02 0. 1.39429411e-02 0.
      2.95343399e-01 1.87050551e-01 2.79439211e-01 2.14894086e-01 0. 0.
      0. 3.54252756e-02 0. 2.95343399e-01 2.63622969e-01 2.14894086e-01
      1.19863428e-01 0. 0. 0. 0. 0. 3.80250543e-01 1.59287751e-01
      1.19863428e-01 2.07646005e-02 0. 0. 0. 0. 0. 6.86197206e-02
      2.29315646e-02 2.07646005e-02 2.90977716e-01 0. 0. 0.
      1.04084283e-01 0. 3.80250543e-01 3.80250543e-01 2.90977716e-01
      9.91424099e-02 0. 0. 0. 2.83327132e-01 0. 3.80250543e-01
      2.78447539e-01 9.91424099e-02</_>
    <_>
      2.44000390e-01 1.88200281e-03 5.63164847e-03 0. 6.85604569e-03 0.
      2.89041251e-01 1.88549832e-01 2.44000390e-01 2.89041251e-01
      5.00301495e-02 1.49709240e-01 0. 9.89335589e-03 0. 2.89041251e-01
      9.75814536e-02 2.89041251e-01 1.80865884e-01 4.93127406e-02
      1.47561952e-01 0. 0. 0. 1.90986723e-01 6.38245642e-02
      1.80865884e-01 2.89041251e-01 2.28666902e-01 2.89041251e-01 0. 0.
      0. 1.91074967e-01 6.38540387e-02 2.89041251e-01 2.71625310e-01
      1.32883698e-01 2.71625310e-01 0. 8.45999420e-02 0. 8.72753039e-02
      2.91658938e-02 2.71625310e-01 1.26503050e-01 1.27103537e-01
      2.71625310e-01 0. 2.39586532e-01 0. 6.78032637e-02 2.26586554e-02
      1.26503050e-01 2.71625310e-01 1.52204096e-01 2.71625310e-01 0.
      1.22941274e-03 0. 2.23254651e-01 7.46077970e-02 2.71625310e-01
      2.71625310e-01 3.98630910e-02 1.19285546e-01 0. 5.32745523e-03 0.
      2.71625310e-01 1.45268470e-01 2.71625310e-01 3.03163622e-02
      9.53255445e-02 2.85250396e-01 0. 3.32724482e-01 0. 4.54633869e-02
      1.51930666e-02 3.03163622e-02 0. 0. 0. 0. 1.36654004e-01 0.
      8.95259753e-02 2.99180839e-02 0. 3.32724482e-01 2.07424816e-02
      6.20694235e-02 0. 1.00180404e-02 0. 3.32724482e-01 3.32724482e-01
      3.32724482e-01 3.32724482e-01 0. 0. 0. 0. 0. 2.92603284e-01
      9.77828801e-02 3.32724482e-01 7.59750307e-02 0. 0. 0.
      2.06393093e-01 0. 3.76381278e-01 1.94906756e-01 7.59750307e-02
      3.76381278e-01 0. 0. 0. 1.13329671e-01 0. 3.76381278e-01
      3.76381278e-01 3.76381278e-01 4.28064801e-02 0. 0. 0. 0. 0.
      5.65672554e-02 1.89038105e-02 4.28064801e-02 1.81378275e-01 0. 0.
      0. 0. 0. 3.14465761e-01 1.05089210e-01 1.81378275e-01
      2.58623362e-01 1.64129764e-01 2.98488110e-01 0. 1.54373467e-01 0.
      3.35368253e-02 1.12074465e-02 2.58623362e-01 2.61098295e-01
      2.84213573e-01 2.98488110e-01 0. 4.75152722e-03 0. 1.67178214e-02
      5.58680436e-03 2.61098295e-01 1.51867107e-01 1.01917274e-01
      2.98488110e-01 0. 2.98488110e-01 0. 2.98488110e-01 1.35399640e-01
      1.51867107e-01 1.00387156e-01 6.35941103e-02 1.90297097e-01 0.
      9.41779017e-02 0. 6.12082817e-02 2.04547867e-02 1.00387156e-01
      3.33109707e-01 1.83803618e-01 3.33109707e-01 0. 0. 0.
      3.25473577e-01 1.08767554e-01 3.33109707e-01 3.33109707e-01
      2.46812706e-03 7.38554960e-03 0. 0. 0. 3.33109707e-01
      3.33109707e-01 3.33109707e-01 1.58599094e-02 2.22445093e-02
      6.65638000e-02 0. 0. 0. 1.10897794e-02 3.70600959e-03
      1.58599094e-02 1.15379453e-01 0. 0. 0. 0. 0. 1.80302039e-01
      6.02537729e-02 1.15379453e-01 2.89962351e-01 0. 0. 0. 0. 0.
      2.89962351e-01 1.85813889e-01 2.89962351e-01 2.89962351e-01 0. 0.
      0. 0. 0. 2.89962351e-01 1.79609358e-01 2.89962351e-01
      1.99499473e-01 0. 0. 0. 0. 0. 2.10765168e-01 7.04340115e-02
      1.99499473e-01 2.89962351e-01 0. 0. 0. 0. 0. 2.89962351e-01
      2.11257577e-01 2.89962351e-01 1.73982278e-01 0. 0. 0. 0. 0.
      3.99499029e-01 1.61472395e-01 1.73982278e-01 1.48594854e-02 0. 0.
      0. 0. 0. 1.16354279e-01 3.88835520e-02 1.48594854e-02
      2.16256186e-01 0. 0. 0. 2.06332048e-03 0. 3.99499029e-01
      3.99499029e-01 2.16256186e-01 9.49410647e-02 0. 0. 0.
      1.01447411e-01 0. 3.99499029e-01 3.65580648e-01 9.49410647e-02
      9.03644189e-02 4.12973715e-03 1.23577006e-02 0. 3.03284377e-01 0.
      3.03284377e-01 1.99921802e-01 9.03644189e-02 2.54320562e-01
      2.75315804e-04 8.23846727e-04 0. 1.58211336e-01 0. 3.03284377e-01
      1.01994194e-01 2.54320562e-01 1.69028848e-01 0. 0. 0.
      1.89593166e-01 0. 3.03284377e-01 1.26634926e-01 1.69028848e-01
      3.03284377e-01 0. 0. 0. 5.80591373e-02 0. 3.03284377e-01
      1.39079094e-01 3.03284377e-01 2.90847600e-01 0. 0. 0. 0. 0.
      5.31278215e-02 1.77544318e-02 2.90847600e-01 2.36536011e-01 0. 0.
      0. 0. 0. 7.82213509e-02 2.61402670e-02 2.36536011e-01
      3.72552544e-01 0. 0. 0. 0. 0. 1.41788125e-01 4.73832227e-02
      3.72552544e-01 3.72552544e-01 0. 0. 0. 0. 0. 3.38959187e-01
      1.13274492e-01 3.72552544e-01 1.61359861e-01 0. 0. 0. 0. 0.
      4.41174619e-02 1.47433169e-02 1.61359861e-01 2.14629531e-01
      1.94034334e-02 5.80624714e-02 0. 0. 0. 1.22671202e-01
      4.09945585e-02 2.14629531e-01 4.24364537e-01 0. 0. 0. 0. 0.
      1.85369879e-01 6.19475171e-02 4.24364537e-01 4.24364537e-01
      8.40815455e-02 2.51604050e-01 0. 0. 0. 0. 0. 4.24364537e-01
      1.72101066e-01 2.13570241e-02 6.39083683e-02 0. 5.52619202e-03 0.
      2.79024512e-01 1.30893722e-01 1.72101066e-01 2.09702358e-01
      5.86640239e-02 1.75545141e-01 0. 2.77071148e-01 0. 2.79024512e-01
      2.01645806e-01 2.09702358e-01 2.79024512e-01 7.73025006e-02
      2.31318578e-01 0. 4.29814961e-03 0. 2.44512372e-02 8.17117468e-03
      2.79024512e-01 2.79024512e-01 1.12338483e-01 2.79024512e-01 0.
      2.18689829e-01 0. 9.96444970e-02 3.32994424e-02 2.79024512e-01
      3.04071903e-01 0. 0. 0. 0. 0. 3.81869644e-01 1.27614453e-01
      3.04071903e-01 4.48837519e-01 0. 0. 0. 0. 0. 4.48837519e-01
      2.10052624e-01 4.48837519e-01 0. 0. 0. 0. 0. 0. 0. 0. 0. 0. 0. 0.
      0. 0. 0. 0. 0. 0. 4.36482996e-01 0. 0. 0. 0. 0. 1.38153329e-01
      4.61685322e-02 4.36482996e-01 4.36482996e-01 0. 0. 0. 0. 0.
      4.36482996e-01 1.47766441e-01 4.36482996e-01 0. 0. 0. 0. 0. 0. 0.
      0. 0. 0. 0. 0. 0. 0. 0. 0. 0. 0. 4.76499170e-01 0. 0. 0. 0. 0.
      1.65967569e-01 5.54635897e-02 4.76499170e-01 4.76499170e-01
      7.52808899e-02 2.25269139e-01 0. 0. 0. 0. 0. 4.76499170e-01 0. 0.
      0. 0. 0. 0. 0. 0. 0. 0. 0. 0. 0. 0. 0. 0. 0. 0. 3.97667617e-01
      1.56047225e-01 3.97667617e-01 0. 0. 0. 0. 0. 3.97667617e-01
      3.97667617e-01 1.40780181e-01 3.97667617e-01 0. 5.49577810e-02 0.
      0. 0. 3.97667617e-01 0. 0. 0. 0. 0. 0. 0. 0. 0. 0. 0. 0. 0. 0. 0.
      0. 0. 0.</_>
    <_>
      0. 0. 0. 0. 0. 0. 0. 0. 0. 0. 0. 0. 0. 0. 0. 0. 0. 0. 0. 0. 0. 0.
      0. 0. 0. 0. 0. 0. 0. 0. 0. 0. 0. 0. 0. 0. 0. 0. 0. 0. 0. 0. 0. 0.
      0. 0. 0. 0. 0. 0. 0. 0. 0. 0. 0. 0. 0. 0. 0. 0. 0. 0. 0. 0. 0. 0.
      0. 0. 0. 0. 0. 0. 0. 0. 0. 0. 0. 0. 0. 0. 0. 0. 0. 0. 0. 0. 0. 0.
      0. 0. 0. 0. 0. 0. 0. 0. 0. 0. 0. 0. 0. 0. 0. 0. 0. 0. 0. 0. 0. 0.
      0. 0. 0. 0. 0. 0. 0. 0. 0. 0. 0. 0. 0. 0. 0. 0. 0. 0. 0. 0. 0. 0.
      0. 0. 0. 0. 0. 0. 0. 0. 0. 0. 0. 0. 0. 0. 0. 0. 0. 0. 0. 0. 0. 0.
      0. 0. 0. 0. 0. 0. 0. 0. 0. 0. 0. 0. 0. 0. 0. 0. 0. 0. 0. 0. 0. 0.
      0. 0. 0. 0. 0. 0. 0. 0. 0. 0. 0. 0. 0. 0. 0. 0. 0. 0. 0. 0. 0. 0.
      0. 0. 0. 0. 0. 0. 0. 0. 0. 5.37618279e-01 3.57114792e-01
      5.37618279e-01 0. 0. 0. 0. 0. 5.37618279e-01 0. 0. 0. 0. 0. 0. 0.
      0. 0. 0. 0. 0. 0. 0. 0. 0. 0. 0. 2.69754469e-01 1.01779766e-01
      3.04562688e-01 0. 0. 0. 0. 0. 2.69754469e-01 4.41509873e-01
      4.01865840e-01 4.41509873e-01 0. 2.54602805e-02 0. 0. 0.
      4.41509873e-01 0. 0. 0. 0. 0. 0. 0. 0. 0. 1.52407391e-02
      4.82777087e-03 1.44464755e-02 0. 0. 0. 0. 0. 1.52407391e-02
      3.88081849e-01 1.17176116e-01 3.50634396e-01 0. 3.21909152e-02 0.
      0. 0. 3.88081849e-01 3.88081849e-01 2.15440050e-01 3.88081849e-01
      0. 2.30370149e-01 0. 6.83468729e-02 2.28403807e-02 3.88081849e-01
      1.15071416e-01 3.84252332e-02 1.14982501e-01 0. 1.03329040e-01 0.
      4.85836789e-02 1.62358191e-02 1.15071416e-01 8.49843547e-02
      1.19227562e-02 3.56772989e-02 0. 9.07712132e-02 0. 3.29591483e-02
      1.10143693e-02 8.49843547e-02 2.75797009e-01 1.65363565e-01
      3.07103753e-01 0. 3.07103753e-01 0. 3.07103753e-01 1.13150395e-01
      2.75797009e-01 3.07103753e-01 1.85790986e-01 3.07103753e-01 0.
      3.07103753e-01 0. 1.64712369e-01 5.50439954e-02 3.07103753e-01
      8.48507509e-02 2.30735354e-02 6.90445453e-02 0. 9.32672527e-03 0.
      0. 0. 8.48507509e-02 2.06079915e-01 7.77232945e-02 2.32576832e-01
      0. 0. 0. 0. 0. 2.06079915e-01 3.52544606e-01 1.80652067e-01
      3.52544606e-01 0. 3.78300138e-02 0. 1.09043112e-02 3.64402914e-03
      3.52544606e-01 3.52544606e-01 2.27368683e-01 3.52544606e-01 0. 0.
      0. 0. 0. 3.52544606e-01 1.96039841e-01 8.81876647e-02
      2.63890088e-01 0. 0. 0. 0. 0. 1.96039841e-01 2.91147023e-01
      1.32416129e-01 2.91147023e-01 0. 2.69473717e-02 0. 0. 0.
      2.91147023e-01 2.91147023e-01 1.45539701e-01 2.91147023e-01 0. 0.
      0. 0. 0. 2.91147023e-01 2.91147023e-01 1.94785431e-01
      2.91147023e-01 0. 5.02962619e-02 0. 0. 0. 2.91147023e-01
      2.73202300e-01 1.14486799e-01 2.73202300e-01 0. 1.21509604e-01 0.
      0. 0. 2.73202300e-01 2.73202300e-01 1.28520653e-01 2.73202300e-01
      0. 1.89801425e-01 0. 4.59897928e-02 1.53690204e-02 2.73202300e-01
      2.73202300e-01 1.49015710e-01 2.73202300e-01 0. 2.02746645e-01 0.
      0. 0. 2.73202300e-01 2.07340568e-01 7.99618214e-02 2.39276245e-01
      0. 1.71856791e-01 0. 1.57309435e-02 5.25701791e-03 2.07340568e-01
      2.78473049e-01 1.04012147e-01 2.78473049e-01 0. 2.78473049e-01 0.
      1.65989667e-01 5.54709136e-02 2.78473049e-01 2.78473049e-01
      1.50567889e-01 2.78473049e-01 0. 2.05199748e-01 0. 7.78350756e-02
      2.60111187e-02 2.78473049e-01 2.78473049e-01 2.86612343e-02
      8.57650638e-02 0. 2.28149239e-02 0. 7.05605419e-03 2.35801283e-03
      2.78473049e-01 2.78473049e-01 4.74497043e-02 1.41987562e-01 0.
      7.23811565e-03 0. 4.21073381e-03 1.40715344e-03 2.78473049e-01
      3.40632886e-01 1.81674913e-01 3.40632886e-01 0. 1.59578342e-02 0.
      1.14274723e-02 3.81886074e-03 3.40632886e-01 3.40632886e-01
      1.53592736e-01 3.40632886e-01 0. 0. 0. 0. 0. 3.40632886e-01
      2.60164440e-01 5.59190139e-02 1.67330995e-01 0. 0. 0.
      7.61831529e-04 2.54590705e-04 2.60164440e-01 1.81798741e-01
      3.29624899e-02 9.86363441e-02 0. 0. 0. 0. 0. 1.81798741e-01
      3.76542896e-01 1.63712859e-01 3.76542896e-01 0. 0. 0. 0. 0.
      3.76542896e-01 3.76542896e-01 2.16757402e-01 3.76542896e-01 0.
      2.70673297e-02 0. 0. 0. 3.76542896e-01 1.62495494e-01
      2.33524367e-02 6.98793977e-02 0. 0. 0. 0. 0. 1.62495494e-01
      7.76431262e-02 8.49107746e-03 2.54085418e-02 0. 0. 0. 0. 0.
      7.76431262e-02 4.08581942e-01 4.08581942e-01 4.08581942e-01 0.
      3.61509383e-01 0. 0. 0. 4.08581942e-01 1.53117806e-01
      8.83064866e-02 2.64246702e-01 0. 2.64619827e-01 0. 0. 0.
      1.53117806e-01 3.44669409e-02 7.48998579e-03 2.24128943e-02 0. 0.
      0. 0. 0. 3.44669409e-02 0. 0. 0. 0. 0. 0. 0. 0. 0.</_>
    <_>
      2.80646503e-01 1.43154740e-01 3.54750901e-01 0. 3.54750901e-01 0.
      1.56680763e-01 5.23599572e-02 2.80646503e-01 6.76182983e-03
      4.21393057e-03 1.26096886e-02 0. 2.05280080e-01 0. 1.04453843e-02
      3.49066383e-03 6.76182983e-03 2.99489319e-01 2.02060804e-01
      3.54750901e-01 0. 3.54750901e-01 0. 1.07890785e-01 3.60552073e-02
      2.99489319e-01 0. 6.99403184e-03 2.09288150e-02 0. 1.07586458e-01
      0. 2.41047330e-03 8.05537857e-04 0. 1.71680793e-01 0. 0. 0.
      1.53257042e-01 0. 2.39048094e-01 7.98858702e-02 1.71680793e-01
      4.50337976e-01 3.78912948e-02 1.13385215e-01 0. 1.53856814e-01 0.
      4.50337976e-01 4.50337976e-01 4.50337976e-01 0. 0. 0. 0. 0. 0. 0.
      0. 0. 1.33905625e-02 0. 0. 0. 0. 0. 0. 0. 1.33905625e-02
      3.26764852e-01 1.70918375e-01 3.26764852e-01 0. 2.45494172e-02 0.
      3.26764852e-01 2.60561466e-01 3.26764852e-01 3.26764852e-01
      2.68389761e-01 3.26764852e-01 0. 1.80896416e-01 0. 2.03214467e-01
      6.79108799e-02 3.26764852e-01 1.84842497e-02 0. 0. 0. 0. 0. 0. 0.
      1.84842497e-02 1.12297311e-02 0. 0. 0. 0. 0. 0. 0. 1.12297311e-02
      5.45083061e-02 8.31702203e-02 2.48877019e-01 0. 1.51474118e-01 0.
      0. 0. 5.45083061e-02 6.77140951e-02 2.04254501e-02 6.11204952e-02
      0. 0. 0. 1.45033393e-02 4.84676147e-03 6.77140951e-02 0. 0. 0. 0.
      5.59978373e-02 0. 0. 0. 0. 3.78141671e-01 3.64799082e-01
      4.52421337e-01 0. 4.52421337e-01 0. 2.17550084e-01 7.27014244e-02
      3.78141671e-01 2.79808760e-01 7.74594843e-02 2.31788129e-01 0.
      6.05456173e-01 0. 1.55799344e-01 5.20654097e-02 2.79808760e-01 0.
      1.68553356e-03 5.04375901e-03 0. 6.35507330e-02 0. 0. 0. 0.
      2.81991903e-02 4.16206196e-03 1.24544296e-02 0. 6.05456173e-01 0.
      3.59536931e-02 1.20150931e-02 2.81991903e-02 0. 0. 0. 0.
      1.01181626e-01 0. 0. 0. 0. 0. 0. 0. 0. 0. 0. 0. 0. 0. 0.
      1.02751322e-01 3.07469994e-01 0. 4.87432256e-02 0. 0. 0. 0. 0. 0.
      0. 0. 0. 0. 0. 0. 0. 0. 4.50239867e-01 4.50239867e-01 0.
      4.50239867e-01 0. 4.50239867e-01 2.77790129e-01 0. 4.85773310e-02
      5.49154468e-02 1.64327323e-01 0. 1.33612314e-02 0. 5.45126908e-02
      1.82171855e-02 4.85773310e-02 8.06257799e-02 4.54325266e-02
      1.35950908e-01 0. 4.72699106e-02 0. 1.81547716e-01 6.06700592e-02
      8.06257799e-02 8.91208127e-02 2.09849402e-01 3.25107247e-01 0.
      2.80043006e-01 0. 3.25107247e-01 1.57644406e-01 8.91208127e-02
      1.61465585e-01 2.05645099e-01 3.25107247e-01 0. 3.25107247e-01 0.
      3.25107247e-01 3.16235363e-01 1.61465585e-01 1.98897440e-02
      3.30342655e-03 9.88507457e-03 0. 7.49359503e-02 0. 8.09522569e-02
      2.70528272e-02 1.98897440e-02 5.62969595e-02 1.07268654e-01
      3.20987523e-01 0. 3.65444273e-01 0. 2.59986430e-01 8.68830830e-02
      5.62969595e-02 4.43031825e-02 5.23028225e-02 1.56509921e-01 0.
      3.65444273e-01 0. 3.65444273e-01 1.47391900e-01 4.43031825e-02
      3.92522337e-03 4.14993502e-02 1.24181412e-01 0. 3.65444273e-01 0.
      3.65444273e-01 2.20740214e-01 3.92522337e-03 0. 0. 0. 0.
      6.96208656e-01 0. 0. 0. 0. 0. 0. 0. 0. 8.73849392e-02 0. 0. 0. 0.
      2.04516426e-02 0. 0. 0. 6.96208656e-01 0. 4.01979499e-02
      1.34334480e-02 2.04516426e-02 4.71960986e-03 8.14688765e-03
      2.43785009e-02 0. 1.12494439e-01 0. 2.67986325e-03 8.95563280e-04
      4.71960986e-03 0. 0. 0. 0. 0. 0. 0. 0. 0. 0. 8.38200971e-02
      2.50820696e-01 0. 3.19816679e-01 0. 3.19816679e-01 1.68669552e-01
      0. 2.36977145e-01 1.16883822e-01 3.19816679e-01 0. 8.52547511e-02
      0. 5.81127256e-02 1.94202513e-02 2.36977145e-01 3.19816679e-01
      1.11204527e-01 3.19816679e-01 0. 5.50408848e-02 0. 3.19816679e-01
      1.73327446e-01 3.19816679e-01 1.06357589e-01 8.91398638e-02
      2.66739577e-01 0. 2.01544866e-01 0. 2.78045416e-01 1.85608923e-01
      1.06357589e-01 2.25861222e-01 1.79449603e-01 2.78045416e-01 0.
      2.78045416e-01 0. 2.78045416e-01 2.34625831e-01 2.25861222e-01
      2.18823105e-01 8.44989996e-03 2.52853055e-02 0. 6.73777983e-03 0.
      2.25184321e-01 7.52527714e-02 2.18823105e-01 2.23661304e-01
      6.23625182e-02 1.86612293e-01 0. 3.11248284e-02 0. 1.62320942e-01
      5.42449094e-02 2.23661304e-01 1.26382142e-01 1.66522667e-01
      2.81626076e-01 0. 2.81626076e-01 0. 2.81626076e-01 1.45047769e-01
      1.26382142e-01 7.34534487e-02 6.52438849e-02 1.95233822e-01 0.
      2.81626076e-01 0. 2.81626076e-01 1.74910724e-01 7.34534487e-02
      2.81626076e-01 9.47948024e-02 2.81626076e-01 0. 9.39365625e-02 0.
      7.15148300e-02 2.38990132e-02 2.81626076e-01 2.17807487e-01
      2.75469571e-02 8.24306980e-02 0. 2.35510617e-01 0. 1.22982956e-01
      4.10988107e-02 2.17807487e-01 1.47202328e-01 0. 0. 0.
      3.51802588e-01 0. 3.19547713e-01 1.06787242e-01 1.47202328e-01
      5.31157069e-02 1.45346373e-02 4.34930138e-02 0. 1.97811127e-01 0.
      1.39137074e-01 4.64971885e-02 5.31157069e-02 1.95626542e-01
      1.01284888e-02 3.03083006e-02 0. 3.51802588e-01 0. 3.51802588e-01
      1.95230871e-01 1.95626542e-01 7.37345144e-02 2.18525697e-02
      6.53911233e-02 0. 3.51802588e-01 0. 3.51802588e-01 1.45292208e-01
      7.37345144e-02 8.28743652e-02 6.83680028e-02 2.04582334e-01 0.
      1.36497647e-01 0. 1.86247066e-01 6.22406341e-02 8.28743652e-02
      2.78745383e-01 6.34921417e-02 1.89991981e-01 0. 5.85434660e-02 0.
      2.78745383e-01 1.28833190e-01 2.78745383e-01 4.61012423e-02
      4.47031893e-02 1.33768469e-01 0. 2.17003390e-01 0. 2.78745383e-01
      1.53534159e-01 4.61012423e-02 2.78745383e-01 7.90546909e-02
      2.36560881e-01 0. 2.06605092e-01 0. 2.78745383e-01 2.75694877e-01
      2.78745383e-01 2.48484448e-01 5.46146929e-03 1.63427349e-02 0. 0.
      0. 2.48484448e-01 1.01407260e-01 2.48484448e-01 2.48484448e-01
      9.21996757e-02 2.48484448e-01 0. 1.22742476e-02 0. 2.48484448e-01
      9.34186280e-02 2.48484448e-01 2.48484448e-01 2.95741744e-02
      8.84968564e-02 0. 1.29707217e-01 0. 2.48484448e-01 1.32324100e-01
      2.48484448e-01 2.48484448e-01 1.05021387e-01 2.48484448e-01 0.
      2.03724489e-01 0. 2.48484448e-01 9.77826566e-02 2.48484448e-01
      2.92336434e-01 1.50233522e-01 2.99131095e-01 0. 1.15565084e-01 0.
      1.24690063e-01 4.16692309e-02 2.92336434e-01 1.60879835e-01
      6.60116896e-02 1.97532028e-01 0. 1.87370911e-01 0. 8.30417052e-02
      2.77510826e-02 1.60879835e-01 2.12487668e-01 2.13043571e-01
      2.99131095e-01 0. 2.99131095e-01 0. 1.21800750e-01 4.07036729e-02
      2.12487668e-01 8.73553753e-02 1.24447666e-01 2.99131095e-01 0.
      2.99131095e-01 0. 6.45879954e-02 2.15841755e-02 8.73553753e-02</_>
    <_>
      0. 5.74594247e-04 1.71940506e-03 0. 0. 0. 0. 0. 0. 9.25765857e-02
      5.57250530e-02 1.66750595e-01 0. 4.18266142e-03 0. 1.55500565e-02
      5.19656902e-03 9.25765857e-02 0. 1.41213924e-01 4.22565967e-01 0.
      4.83357869e-02 0. 0. 0. 0. 2.32379183e-01 5.51734090e-01
      5.51734090e-01 0. 1.53102636e-01 0. 6.73835725e-02 2.25184653e-02
      2.32379183e-01 1.27493575e-01 3.45118605e-02 1.03272639e-01 0.
      3.93946394e-02 0. 4.71795835e-02 1.57666299e-02 1.27493575e-01
      6.03219308e-02 4.47743246e-03 1.33981863e-02 0. 4.54045348e-02 0.
      4.11572531e-02 1.37540670e-02 6.03219308e-02 3.23482901e-01
      3.28101724e-01 3.28101724e-01 0. 3.28101724e-01 0. 2.98147261e-01
      9.96358395e-02 3.23482901e-01 1.52252421e-01 7.26747215e-02
      2.17469931e-01 0. 3.28101724e-01 0. 2.98822612e-01 9.98615250e-02
      1.52252421e-01 0. 0. 0. 0. 7.26385489e-02 0. 2.85135652e-03
      9.52875649e-04 0. 3.39617461e-01 2.17036471e-01 3.39617461e-01 0.
      3.39617461e-01 0. 3.39617461e-01 1.77626759e-01 3.39617461e-01 0.
      7.51332799e-03 2.24826559e-02 0. 1.65442213e-01 0. 4.27703485e-02
      1.42931351e-02 0. 2.20681384e-01 5.71904611e-03 1.71135664e-02 0.
      3.01564574e-01 0. 3.24875683e-01 1.08567759e-01 2.20681384e-01
      2.88811296e-01 1.67749837e-01 2.88811296e-01 0. 2.88811296e-01 0.
      2.88811296e-01 1.06192425e-01 2.88811296e-01 1.97991833e-01
      1.32241026e-01 2.88811296e-01 0. 2.88811296e-01 0. 1.24270640e-01
      4.15291153e-02 1.97991833e-01 2.11146519e-01 4.08231243e-02
      1.22157909e-01 0. 1.11533403e-01 0. 1.96529225e-01 6.56766146e-02
      2.11146519e-01 1.29944280e-01 6.88068345e-02 2.05895469e-01 0.
      1.24129228e-01 0. 5.46341985e-02 1.82577893e-02 1.29944280e-01 0.
      1.53326780e-01 3.38385552e-01 0. 1.46121785e-01 0. 0. 0. 0.
      1.95368379e-02 3.38385552e-01 3.38385552e-01 0. 2.09172145e-01 0.
      3.05783879e-02 1.02187879e-02 1.95368379e-02 0. 2.90364206e-01
      3.38385552e-01 0. 3.38385552e-01 0. 0. 0. 0. 0. 1.69919148e-01
      3.38385552e-01 0. 3.23161423e-01 0. 3.74203138e-02 1.25052445e-02
      0. 5.51356338e-02 2.27557093e-01 3.68367970e-01 0. 3.68367970e-01
      0. 2.03410134e-01 6.79762736e-02 5.51356338e-02 2.58179903e-02
      8.29349235e-02 2.48172030e-01 0. 3.68367970e-01 0. 1.84595793e-01
      6.16888329e-02 2.58179903e-02 0. 5.75414747e-02 1.72185555e-01 0.
      3.68367970e-01 0. 1.85347915e-01 6.19401857e-02 0. 0.
      3.47961187e-02 1.04122847e-01 0. 3.68367970e-01 0. 1.44159496e-01
      4.81756963e-02 0. 2.01033950e-02 1.28469383e-02 3.84428687e-02 0.
      1.56175345e-01 0. 1.60754565e-02 5.37214614e-03 2.01033950e-02
      3.10566902e-01 2.88210027e-02 8.62434432e-02 0. 2.12271646e-01 0.
      4.25583981e-02 1.42222922e-02 3.10566902e-01 2.82944571e-02
      1.60620343e-02 4.80637103e-02 0. 3.54997963e-01 0. 9.03241113e-02
      3.01847346e-02 2.82944571e-02 3.54997963e-01 6.34062067e-02
      1.89735547e-01 0. 3.54997963e-01 0. 3.54997963e-01 1.94171384e-01
      3.54997963e-01 2.64924854e-01 8.84832349e-03 2.64775567e-02 0.
      1.57780588e-01 0. 7.35486895e-02 2.45787390e-02 2.64924854e-01
      5.46518303e-02 0. 0. 0. 8.04271474e-02 0. 3.43118347e-02
      1.14664426e-02 5.46518303e-02 3.15623611e-01 1.94663089e-02
      5.82506284e-02 0. 3.15623611e-01 0. 3.15623611e-01 2.23526210e-01
      3.15623611e-01 2.40624189e-01 0. 0. 0. 3.15623611e-01 0.
      3.15623611e-01 2.09264487e-01 2.40624189e-01 4.84446529e-03
      3.99367064e-01 3.99367064e-01 0. 3.99367064e-01 0. 0. 0.
      4.84446529e-03 0. 8.37693214e-02 2.50669718e-01 0. 3.94999236e-01
      0. 1.73502956e-02 5.79817919e-03 0. 3.24571170e-02 1.89027637e-01
      3.99367064e-01 0. 2.85478562e-01 0. 0. 0. 3.24571170e-02 0.
      2.57970486e-03 7.71946134e-03 0. 1.11232735e-01 0. 0. 0. 0. 0. 0.
      0. 0. 3.40283990e-01 0. 1.72889844e-01 5.77768981e-02 0.
      7.90370908e-03 0. 0. 0. 3.40283990e-01 0. 2.78982252e-01
      9.32312161e-02 7.90370908e-03 3.49620171e-03 0. 0. 0.
      3.05153936e-01 0. 3.38664651e-01 1.13176078e-01 3.49620171e-03
      2.66260803e-01 0. 0. 0. 2.88271874e-01 0. 3.40283990e-01
      2.89494485e-01 2.66260803e-01 2.25746203e-02 9.11652856e-03
      2.72801314e-02 0. 1.93268508e-01 0. 1.05558313e-01 3.52757834e-02
      2.25746203e-02 7.40980357e-02 5.14058955e-02 1.53826043e-01 0.
      3.04673404e-01 0. 3.04673404e-01 1.40938848e-01 7.40980357e-02
      3.04673404e-01 5.91993779e-02 1.77147105e-01 0. 4.03702110e-02 0.
      2.54781067e-01 8.51435587e-02 3.04673404e-01 2.86532909e-01
      1.97598442e-01 3.04673404e-01 0. 3.04673404e-01 0. 1.31894156e-01
      4.40767147e-02 2.86532909e-01 1.36237070e-01 2.74528656e-02
      8.21494386e-02 0. 2.92079538e-01 0. 2.92079538e-01 1.82383060e-01
      1.36237070e-01 2.88157046e-01 0. 0. 0. 2.27705210e-01 0.
      2.92079538e-01 2.53345788e-01 2.88157046e-01 6.08264804e-02
      8.78120512e-02 2.62767136e-01 0. 2.92079538e-01 0. 1.19089320e-01
      3.97975817e-02 6.08264804e-02 1.13277882e-01 0. 0. 0.
      2.81307846e-01 0. 2.86311030e-01 9.56803560e-02 1.13277882e-01
      4.40235347e-01 4.40235347e-01 4.40235347e-01 0. 4.40235347e-01 0.
      0. 0. 4.40235347e-01 0. 0. 0. 0. 1.62993029e-01 0. 0. 0. 0. 0. 0.
      0. 0. 0. 0. 0. 0. 0. 0. 0. 0. 0. 0. 0. 0. 0. 0. 1.58766881e-02 0.
      0. 0. 4.91264686e-02 0. 4.39244002e-01 1.50190517e-01
      1.58766881e-02 4.39244002e-01 0. 0. 0. 3.82094793e-02 0.
      4.39244002e-01 4.39244002e-01 4.39244002e-01 1.05844589e-03 0. 0.
      0. 0. 0. 0. 0. 1.05844589e-03 4.47165072e-02 0. 0. 0. 0. 0. 0. 0.
      4.47165072e-02 3.78435194e-01 9.23055485e-02 2.76213408e-01 0.
      2.45702500e-03 0. 3.23040575e-01 1.07954763e-01 3.78435194e-01
      3.78435194e-01 2.44391337e-01 3.78435194e-01 0. 1.24309026e-01 0.
      0. 0. 3.78435194e-01 4.15020846e-02 0. 0. 0. 0. 0. 0. 0.
      4.15020846e-02 1.86955053e-02 0. 0. 0. 0. 0. 0. 0. 1.86955053e-02
      3.03801835e-01 3.72796208e-01 3.72796208e-01 0. 3.72796208e-01 0.
      0. 0. 3.03801835e-01 2.23173693e-01 0. 0. 0. 3.72796208e-01 0.
      3.71151298e-01 1.24032550e-01 2.23173693e-01 4.47928393e-03 0. 0.
      0. 0. 0. 0. 0. 4.47928393e-03 3.38822342e-02 0. 0. 0.
      2.62661520e-02 0. 0. 0. 3.38822342e-02</_>
    <_>
      0. 0. 0. 0. 0. 0. 0. 0. 0. 0. 0. 0. 0. 0. 0. 0. 0. 0.
      4.82162446e-01 0. 0. 0. 4.82162446e-01 0. 0. 0. 4.82162446e-01
      2.58807182e-01 0. 0. 0. 4.04697597e-01 0. 0. 0. 2.58807182e-01 0.
      0. 0. 0. 0. 0. 0. 0. 0. 0. 0. 0. 0. 0. 0. 0. 0. 0. 0. 0. 0. 0. 0.
      0. 0. 0. 0. 0. 0. 0. 0. 0. 0. 0. 0. 0. 0. 0. 0. 0. 0. 0. 0. 0. 0.
      0. 0. 0. 0. 0. 0. 0. 0. 0. 0. 0. 0. 0. 0. 0. 0. 0. 0. 0. 0. 0. 0.
      0. 0. 0. 0. 0. 0. 0. 0. 0. 1.71887670e-02 0. 0. 0. 0.
      2.39869431e-01 4.31162082e-02 1.29020140e-01 0. 3.43286186e-01 0.
      5.06435819e-02 1.69242397e-02 2.39869431e-01 0. 0. 0. 0.
      1.12578765e-01 0. 0. 0. 0. 3.78386378e-01 9.48556438e-02
      2.83844292e-01 0. 5.80721796e-01 0. 1.11415885e-01 3.72333303e-02
      3.78386378e-01 8.91874209e-02 2.14934759e-02 6.43166751e-02 0.
      2.73639470e-01 0. 1.01502776e-01 3.39205228e-02 8.91874209e-02
      6.91809356e-02 6.60851225e-03 1.97751876e-02 0. 6.76835850e-02 0.
      6.40863627e-02 2.14165915e-02 6.91809356e-02 2.59861439e-01
      7.28845894e-02 2.18098491e-01 0. 3.09390962e-01 0. 3.09390962e-01
      3.07442337e-01 2.59861439e-01 3.09390962e-01 8.24931785e-02
      2.46851042e-01 0. 7.17288256e-02 0. 3.09390962e-01 1.92250744e-01
      3.09390962e-01 9.60551649e-02 4.73098224e-03 1.41569031e-02 0. 0.
      0. 2.81242188e-02 9.39864386e-03 9.60551649e-02 2.89559122e-02 0.
      0. 0. 0. 0. 1.42962290e-02 4.77756094e-03 2.89559122e-02
      3.65777999e-01 7.09647313e-02 2.12353557e-01 0. 0. 0.
      3.65777999e-01 2.02080652e-01 3.65777999e-01 3.65777999e-01 0. 0.
      0. 8.06609094e-02 0. 3.65777999e-01 2.73225427e-01 3.65777999e-01
      6.51525427e-03 0. 0. 0. 0. 0. 0. 0. 6.51525427e-03 9.99415759e-03
      0. 0. 0. 0. 0. 0. 0. 9.99415759e-03 3.34527433e-01 0. 0. 0.
      3.40857953e-01 0. 3.40857953e-01 3.18850905e-01 3.34527433e-01
      1.92405358e-01 3.40857953e-01 3.40857953e-01 0. 3.40857953e-01 0.
      1.19467162e-01 3.99238504e-02 1.92405358e-01 1.05795348e-02
      7.15396926e-03 2.14074031e-02 0. 4.80984449e-02 0. 0. 0.
      1.05795348e-02 3.57851088e-02 5.99625818e-02 1.79430902e-01 0.
      3.77707243e-01 0. 9.92604066e-03 3.31711699e-03 3.57851088e-02
      2.61830986e-01 1.77487850e-01 3.77707243e-01 0. 6.09603487e-02 0.
      2.06899159e-02 6.91420678e-03 2.61830986e-01 2.58641005e-01
      2.78333545e-01 3.77707243e-01 0. 3.77707243e-01 0. 1.37932785e-03
      4.60947136e-04 2.58641005e-01 2.93016642e-01 3.69261354e-02
      1.10496908e-01 0. 1.79542288e-01 0. 2.93016642e-01 2.67769396e-01
