<?xml version="1.0"?>
<opencv_storage>
<opencv_ml_svm>
  <format>3</format>
  <svmType>C_SVC</svmType>
  <kernel>
    <type>LINEAR</type></kernel>
  <C>1.0000000000000001e-01</C>
  <term_criteria><epsilon>9.9999999999999995e-07</epsilon>
    <iterations>10000</iterations></term_criteria>
  <var_count>576</var_count>
  <class_count>6</class_count>
  <class_labels type_id="opencv-matrix">
    <rows>6</rows>
    <cols>1</cols>
    <dt>i</dt>
    <data>
      0 1 2 3 4 5</data></class_labels>
  <sv_total>15</sv_total>
  <support_vectors>
    <_>
      4.46022376e-02 7.55900983e-03 1.53277917e-02 0. 3.28936800e-02 0.
      7.28166327e-02 3.72973122e-02 4.46022376e-02 -6.14017434e-02
      -1.94180862e-03 -6.64570183e-03 0. 2.99269967e-02 0.
      4.91970964e-02 2.29348671e-02 -6.14017434e-02 4.88237925e-02
      -6.18426390e-02 -1.47972509e-01 0. -1.72459066e-01 0.
      8.43112022e-02 3.08292676e-02 4.88237925e-02 -5.38077317e-02
      -1.12744845e-01 -7.98611194e-02 0. -1.64379328e-01 0.
      -3.35575789e-02 5.10516670e-03 -5.38077317e-02 -5.93394637e-02
      1.79549027e-02 3.80466916e-02 0. 3.55027206e-02 0. -1.19958660e-02
      -4.16619179e-04 -5.93394637e-02 2.99334098e-02 2.35791784e-02
      4.86330651e-02 0. 3.38877626e-02 0. 1.32527426e-02 7.34805735e-03
      2.99334098e-02 -5.08373231e-02 -6.71312362e-02 -9.49552283e-02 0.
      -1.58077151e-01 0. -8.67309049e-02 -8.53748471e-02 -5.08373231e-02
      7.13727251e-02 -1.62260253e-02 -5.41693829e-02 0. -1.80345252e-01
      0. -6.41034544e-02 -1.14047034e-02 7.13727251e-02 3.10679898e-02
      2.32225768e-02 5.31001091e-02 0. 4.75232191e-02 0. 3.58953066e-02
      1.20605128e-02 3.10679898e-02 3.17856185e-02 1.55227054e-02
      2.65487023e-02 0. 2.63262670e-02 0. 2.87954751e-02 1.16006890e-02
      3.17856185e-02 7.15956762e-02 1.74240954e-02 4.06899676e-02 0.
      2.50097848e-02 0. 6.92146719e-02 5.53465821e-02 7.15956762e-02
      1.00451708e-01 7.00794160e-02 1.03742801e-01 0. 1.37782777e-02 0.
      1.02555029e-01 4.72283773e-02 1.00451708e-01 3.70170251e-02
      1.27955424e-02 3.02760806e-02 0. 4.08814140e-02 0. 7.02414066e-02
      3.44752520e-02 3.70170251e-02 9.60277691e-02 2.84804814e-02
      5.52713908e-02 0. 4.83699925e-02 0. 9.44424644e-02 7.67680034e-02
      9.60277691e-02 5.52613251e-02 1.46022299e-02 3.71280313e-02 0.
      1.21598607e-02 0. 5.69153614e-02 2.45390236e-02 5.52613251e-02
      1.38395160e-01 2.04288512e-02 3.94960567e-02 0. 1.56067191e-02 0.
      8.41374099e-02 3.95331010e-02 1.38395160e-01 6.71519265e-02
      -4.19947654e-02 -1.31456539e-01 0. -1.43012181e-01 0.
      6.82373792e-02 2.51063630e-02 6.71519265e-02 7.76411891e-02
      -4.93297949e-02 -8.52356628e-02 0. -1.06574796e-01 0.
      1.93460155e-02 3.06639895e-02 7.76411891e-02 6.85949475e-02
      -8.25696886e-02 -1.21402040e-01 0. -1.25210375e-01 0.
      9.04876590e-02 3.70777771e-02 6.85949475e-02 7.95826167e-02
      -8.39283410e-03 -7.55818412e-02 0. -1.07985392e-01 0.
      9.28725116e-03 1.78964306e-02 7.95826167e-02 3.16921659e-02
      -1.56641360e-02 -8.16632509e-02 0. -1.11553676e-01 0.
      -4.65599671e-02 -5.77415107e-03 3.16921659e-02 -2.60390211e-02
      -1.44802341e-02 -4.80386131e-02 0. -7.76810870e-02 0.
      1.83338169e-02 3.35056409e-02 -2.60390211e-02 -6.94158673e-02
      1.64678674e-02 -3.09987459e-04 0. -9.26210806e-02 0.
      -6.71793148e-02 -1.81033760e-02 -6.94158673e-02 -2.97776014e-02
      3.17656957e-02 2.75095329e-02 0. 3.75117920e-02 0. 4.08379221e-03
      2.13585403e-02 -2.97776014e-02 -3.63949090e-02 -9.24141437e-04
      -7.56048458e-03 0. 2.34193038e-02 0. 3.36288996e-02 2.65169926e-02
      -3.63949090e-02 -1.77403279e-02 1.04785940e-04 2.62320827e-04 0.
      3.28088775e-02 0. 4.27493043e-02 3.66429687e-02 -1.77403279e-02
      -9.65069905e-02 -1.25692552e-02 -3.51634771e-02 0. 7.42937997e-02
      0. -6.62341937e-02 -3.49224545e-03 -9.65069905e-02 -6.26325160e-02
      7.02681346e-03 -8.89650285e-02 0. 7.41712451e-02 0.
      -3.90791446e-02 1.97654516e-02 -6.26325160e-02 -3.13611701e-02
      1.52086178e-02 2.73550991e-02 0. 2.63248961e-02 0. 5.42150363e-02
      3.32546532e-02 -3.13611701e-02 1.43231656e-02 1.74497161e-02
      4.76523489e-02 0. 2.21213903e-02 0. 4.27711681e-02 1.51280174e-02
      1.43231656e-02 -6.16548508e-02 2.58637182e-02 2.72633284e-02 0.
      4.38691415e-02 0. -6.41981438e-02 1.65871962e-03 -6.16548508e-02
      -6.85373768e-02 6.42623007e-02 1.14901386e-01 0. -1.90663874e-01
      0. -9.66703966e-02 -2.46142652e-02 -6.85373768e-02 -8.22846219e-03
      -3.20452601e-02 -1.15346767e-01 0. -1.23775899e-01 0.
      -6.39431179e-02 -1.04903327e-02 -8.22846219e-03 -2.82301698e-02
      2.22238470e-02 3.82068828e-02 0. 3.02864704e-02 0. 5.35324328e-02
      4.56716828e-02 -2.82301698e-02 -6.35606721e-02 3.24286446e-02
      5.65868989e-02 0. -6.74726889e-02 0. -9.40721855e-02
      -3.64598855e-02 -6.35606721e-02 -5.16070537e-02 4.68126722e-02
      5.94338998e-02 0. 3.93596441e-02 0. 1.08152525e-02 1.32625559e-02
      -5.16070537e-02 -6.94850534e-02 3.09629254e-02 6.46133572e-02 0.
      3.66508365e-02 0. 3.00070066e-02 1.27797881e-02 -6.94850534e-02
      -4.74737063e-02 1.40018854e-02 2.33328491e-02 0. 5.21546975e-02 0.
      6.75675133e-03 2.98240669e-02 -4.74737063e-02 -5.75430915e-02
      2.78395712e-02 3.88738178e-02 0. 3.21769267e-02 0. 4.56664152e-02
      2.11495068e-02 -5.75430915e-02 -5.28978445e-02 9.97484010e-03
      -1.20885586e-02 0. 2.85962168e-02 0. 2.67877057e-02 2.60830205e-02
      -5.28978445e-02 -8.80899653e-02 1.38675328e-02 9.46488138e-03 0.
      5.06331585e-02 0. 1.18165221e-02 1.88824274e-02 -8.80899653e-02
      -7.90456906e-02 1.65744331e-02 1.47952307e-02 0. 3.45859043e-02 0.
      3.55556868e-02 2.45188940e-02 -7.90456906e-02 -5.73124476e-02
      1.73144192e-02 3.13884765e-02 0. 3.96835878e-02 0. 5.66525273e-02
      2.84007844e-02 -5.73124476e-02 -5.44942394e-02 3.73166762e-02
      8.27883780e-02 0. 3.31036337e-02 0. 7.03058615e-02 3.29982452e-02
      -5.44942394e-02 -5.65988235e-02 2.30954196e-02 5.00617661e-02 0.
      4.32862667e-03 0. 4.42972258e-02 2.49738749e-02 -5.65988235e-02
      -2.13216264e-02 2.40932335e-03 -1.78760774e-02 0. -1.58722028e-01
      0. -5.29706851e-02 1.76804177e-02 -2.13216264e-02 -3.24044190e-02
      2.29227189e-02 6.13573231e-02 0. 1.52310170e-02 0. 8.28593448e-02
      3.13053094e-02 -3.24044190e-02 -1.62799284e-02 -1.67209096e-02
      -6.67592436e-02 0. -1.35319620e-01 0. 1.03424355e-01
      4.07244787e-02 -1.62799284e-02 -1.27024189e-01 3.02542914e-02
      4.47915271e-02 0. 2.48018764e-02 0. -1.16174020e-01
      -3.77918929e-02 -1.27024189e-01 -8.46461430e-02 1.88816246e-02
      1.20534273e-02 0. 2.39458587e-02 0. -3.64857987e-02 1.13898609e-02
      -8.46461430e-02 4.39645611e-02 1.70383081e-02 4.50261757e-02 0.
      1.95588525e-02 0. 1.49757676e-02 5.13340579e-03 4.39645611e-02
      4.26749811e-02 1.86197720e-02 4.30515818e-02 0. 1.90625675e-02 0.
      2.04455983e-02 7.56922550e-03 4.26749811e-02 -1.05585381e-01
      1.51051274e-02 9.55820084e-04 0. 1.59846246e-02 0. 1.32233864e-02
      1.10486094e-02 -1.05585381e-01 -3.70588265e-02 -1.86032802e-02
      -8.13439190e-02 0. 1.34715782e-02 0. -4.80321459e-02
      1.65084042e-02 -3.70588265e-02 4.26618420e-02 1.69150550e-02
      3.88410166e-02 0. 1.59811862e-02 0. 1.87555794e-02 1.22133438e-02
      4.26618420e-02 3.85335721e-02 7.53113953e-03 2.22960655e-02 0.
      1.38566028e-02 0. 2.13062037e-02 9.48829111e-03 3.85335721e-02
      -1.23869978e-01 2.66830977e-02 2.49108057e-02 0. 1.45426448e-02 0.
      1.98392645e-02 1.11945905e-02 -1.23869978e-01 -1.03985637e-01
      3.68623435e-02 8.31445307e-02 0. 6.09349785e-03 0. 6.25625402e-02
      4.51915264e-02 -1.03985637e-01 4.29046266e-02 3.96437617e-03
      1.18629094e-02 0. 1.46095697e-02 0. 2.32529379e-02 1.23572834e-02
      4.29046266e-02 5.55166267e-02 1.82057801e-03 5.44786174e-03 0.
      7.09257321e-04 0. 1.70509387e-02 5.69813838e-03 5.55166267e-02
      -8.39634240e-02 3.88406664e-02 4.77371104e-02 0. 2.63775773e-02 0.
      9.11151692e-02 3.26084569e-02 -8.39634240e-02 -7.08604977e-02
      -4.32924032e-02 -1.67779297e-01 0. 3.79344821e-03 0.
      1.04275495e-01 5.31297065e-02 -7.08604977e-02 4.28183377e-02
      4.24764119e-03 1.24924332e-02 0. 3.25455260e-03 0. 1.92260053e-02
      6.63485285e-03 4.28183377e-02 4.47376892e-02 6.59318501e-03
      1.85625609e-02 0. 1.08953454e-02 0. 3.28997858e-02 1.28380237e-02
      4.47376892e-02</_>
    <_>
      -3.82094011e-02 3.26711908e-02 1.72574800e-02 0. 2.62864996e-02 0.
      -1.17734550e-02 8.46223254e-03 -3.82094011e-02 -6.53945804e-02
      1.98027473e-02 8.94333329e-03 0. 6.34665862e-02 0. -2.96833497e-02
      8.12154263e-03 -6.53945804e-02 -4.12047170e-02 -1.34616792e-01
      -1.59391925e-01 0. -1.28133222e-01 0. -1.40920524e-02
      8.17741174e-03 -4.12047170e-02 -2.96884831e-02 -3.95261496e-02
      -4.11616405e-03 0. -1.98434573e-02 0. 6.55388786e-03
      2.23895777e-02 -2.96884831e-02 -5.10998033e-02 3.80490944e-02
      2.44142544e-02 0. -1.56288277e-02 0. -1.06682509e-01
      -3.86320949e-02 -5.10998033e-02 5.07821105e-02 4.21992615e-02
      9.46301967e-02 0. 1.07206792e-01 0. 4.15483639e-02 1.72907934e-02
      5.07821105e-02 -1.29711507e-02 -8.56066048e-02 -9.35981721e-02 0.
      -4.29517329e-02 0. -9.99444574e-02 -5.93497492e-02 -1.29711507e-02
      1.15658678e-01 -1.29923135e-01 -9.89316553e-02 0. 7.37458020e-02
      0. 9.27801356e-02 5.03331460e-02 1.15658678e-01 3.08797285e-02
      3.63600180e-02 5.06056361e-02 0. 9.43666175e-02 0. 4.65268157e-02
      1.92861333e-02 3.08797285e-02 -7.41392896e-02 -2.96362676e-02
      -1.82281941e-01 0. 1.31489158e-01 0. 8.40335265e-02 4.86608483e-02
      -7.41392896e-02 4.03655879e-02 -1.16732575e-01 -1.45991638e-01 0.
      2.78316848e-02 0. 8.40765014e-02 3.16019394e-02 4.03655879e-02
      -7.89581835e-02 -1.27785876e-01 -6.36744648e-02 0. -2.15541255e-02
      0. 8.04516822e-02 3.45063992e-02 -7.89581835e-02 -1.19897649e-01
      1.42721087e-02 -3.16590630e-02 0. 1.28549024e-01 0. 2.91441027e-02
      1.44729875e-02 -1.19897649e-01 -9.17784646e-02 7.61837736e-02
      1.22658081e-01 0. 8.92480537e-02 0. -3.99058908e-02
      -5.72272809e-03 -9.17784646e-02 -1.12420775e-01 -1.34941768e-02
      -1.82824600e-02 0. 1.95583720e-02 0. -5.62017271e-03
      3.04061198e-03 -1.12420775e-01 -7.31128156e-02 7.02831000e-02
      2.38633715e-02 0. -8.91176052e-03 0. -7.30217546e-02
      -4.10536267e-02 -7.31128156e-02 7.34381899e-02 -2.93354783e-02
      -9.89866704e-02 0. -1.39327854e-01 0. 9.87249091e-02
      4.71711643e-02 7.34381899e-02 4.62313294e-02 1.87908355e-02
      -7.55049009e-03 0. -3.46563943e-02 0. 8.54233652e-02
      4.64298800e-02 4.62313294e-02 1.62960179e-02 4.63938452e-02
      5.67597002e-02 0. -1.98369652e-01 0. -1.59777075e-01
      -6.19464330e-02 1.62960179e-02 3.82102504e-02 -1.81775130e-02
      2.10973229e-02 0. -3.37764919e-02 0. -6.98276386e-02
      -1.93745308e-02 3.82102504e-02 5.02231829e-02 3.26295127e-03
      -7.09812865e-02 0. -5.94682768e-02 0. 3.55370529e-02
      2.25247405e-02 5.02231829e-02 6.95927143e-02 -7.56484121e-02
      -6.99161738e-02 0. 5.38131967e-02 0. 8.51321593e-02 4.80406471e-02
      6.95927143e-02 -2.16370430e-02 -7.70249441e-02 -4.85247560e-02 0.
      -4.98106517e-02 0. -5.02335615e-02 -4.88988683e-02 -2.16370430e-02
      -1.73787237e-04 -1.34856448e-01 -9.01572555e-02 0. 1.58805829e-02
      0. 3.03377956e-02 1.74764842e-02 -1.73787237e-04 6.01011328e-02
      -1.30280480e-01 -1.37674123e-01 0. 2.47130860e-02 0.
      7.36031011e-02 3.39664146e-02 6.01011328e-02 2.38078702e-02
      -5.48466332e-02 -5.69522679e-02 0. -1.19129545e-03 0.
      5.99965714e-02 2.95066293e-02 2.38078702e-02 4.96053323e-02
      -1.57032505e-01 -8.86674821e-02 0. 2.78495308e-02 0.
      7.89124966e-02 3.31060775e-02 4.96053323e-02 3.75899673e-02
      -1.24005424e-02 -3.73091847e-02 0. -6.33948296e-02 0.
      -2.68164370e-02 3.52814584e-03 3.75899673e-02 5.53941093e-02
      6.13121390e-02 4.39967737e-02 0. -1.87640693e-02 0. 1.97822116e-02
      1.25061320e-02 5.53941093e-02 7.31597319e-02 2.15755049e-02
      -7.33406842e-03 0. -1.84420928e-01 0. -1.14938185e-01
      -2.88479179e-02 7.31597319e-02 5.28081544e-02 2.64069624e-02
      2.27154028e-02 0. -1.54221073e-01 0. -3.03339232e-02
      7.09425006e-03 5.28081544e-02 7.40524530e-02 2.95903496e-02
      -1.32136531e-02 0. -1.70462728e-01 0. -6.80638030e-02
      -1.54033937e-02 7.40524530e-02 -5.31233214e-02 5.99130467e-02
      1.10293895e-01 0. -7.13815764e-02 0. -1.93761572e-01
      -8.47286358e-02 -5.31233214e-02 -5.50264046e-02 -2.55691912e-03
      5.66919409e-02 0. 1.68456919e-02 0. -3.30734514e-02
      -2.38126311e-02 -5.50264046e-02 -6.96907798e-03 7.69269541e-02
      1.26325667e-01 0. 4.02752450e-03 0. -1.42612040e-01
      -7.31529072e-02 -6.96907798e-03 -5.81743941e-02 6.82603940e-02
      5.27925193e-02 0. 1.12915263e-01 0. 2.62287306e-03 -6.38693422e-02
      -5.81743941e-02 -2.91527230e-02 -3.52363400e-02 -2.74002012e-02 0.
      8.18406045e-02 0. -5.39637692e-02 -3.42874154e-02 -2.91527230e-02
      -2.13448629e-02 -8.21307749e-02 -7.67004415e-02 0. 3.88300009e-02
      0. 9.28939600e-03 9.09952354e-03 -2.13448629e-02 -4.40867543e-02
      2.14277860e-02 3.30676250e-02 0. 7.74099305e-02 0. -1.36787537e-02
      -5.65502967e-04 -4.40867543e-02 1.80365983e-02 -6.12603053e-02
      -3.50482836e-02 0. 4.76919580e-03 0. 6.50210679e-02 3.15191895e-02
      1.80365983e-02 8.41785148e-02 -3.69109586e-02 -1.05975457e-01 0.
      1.91228557e-02 0. 7.59443492e-02 3.41523439e-02 8.41785148e-02
      8.23675022e-02 -2.39146035e-02 -7.55388886e-02 0. -1.15702361e-01
      0. 4.07133438e-02 2.37542558e-02 8.23675022e-02 -3.19229299e-03
      -6.76052347e-02 -1.21119276e-01 0. 3.71706448e-02 0.
      8.09120312e-02 3.16718630e-02 -3.19229299e-03 6.05109595e-02
      -5.32033257e-02 -7.11511495e-03 0. -6.83153793e-02 0.
      7.60177076e-02 3.97547074e-02 6.05109595e-02 4.96206209e-02
      -7.64469290e-03 3.63727286e-02 0. -1.49422735e-01 0.
      4.98371795e-02 3.40655968e-02 4.96206209e-02 7.70927072e-02
      5.82713075e-02 9.22589302e-02 0. -1.94893405e-01 0.
      -4.77630273e-02 4.66328161e-03 7.70927072e-02 9.15483832e-02
      -4.20285249e-03 -3.81569215e-03 0. -1.31109908e-01 0.
      6.20949753e-02 3.28238420e-02 9.15483832e-02 8.54629055e-02
      5.79183139e-02 1.12030961e-01 0. -1.91386804e-01 0. 4.36362140e-02
      2.62353718e-02 8.54629055e-02 -1.02925794e-02 4.77341153e-02
      5.87926693e-02 0. 6.71908185e-02 0. -1.94171891e-01
      -8.91003832e-02 -1.02925794e-02 -8.14437419e-02 3.11447680e-02
      4.86498661e-02 0. 1.10115632e-01 0. -4.87741306e-02
      -7.87253380e-02 -8.14437419e-02 -3.50380428e-02 2.50785146e-02
      5.48346937e-02 0. 8.50251317e-02 0. -5.73533401e-03 1.04989475e-02
      -3.50380428e-02 -9.34583172e-02 2.50510052e-02 -2.15106849e-02 0.
      4.99483272e-02 0. -1.17093753e-02 2.54402100e-03 -9.34583172e-02
      -1.03807285e-01 -2.18815319e-02 4.89070415e-02 0. 5.47323339e-02
      0. -3.25663202e-02 -1.32396666e-03 -1.03807285e-01 -3.70506719e-02
      -8.71369392e-02 -9.55696180e-02 0. 2.45808642e-02 0.
      5.18674590e-02 2.76121218e-02 -3.70506719e-02 -9.65478197e-02
      1.06945708e-02 -3.74487340e-02 0. 4.39236648e-02 0. 1.85257532e-02
      9.57583543e-03 -9.65478197e-02 -7.43314670e-03 3.12673487e-02
      2.36291513e-02 0. 6.48130402e-02 0. 5.66505119e-02 3.06509379e-02
      -7.43314670e-03 -8.48769397e-03 -8.79306346e-02 -8.75798091e-02 0.
      4.14149575e-02 0. 1.10955752e-01 4.45077121e-02 -8.48769397e-03
      -7.88841047e-04 -4.11011390e-02 1.09452882e-03 0. -5.35324812e-02
      0. -4.90109958e-02 -1.05878552e-02 -7.88841047e-04 2.60437205e-02
      5.15139028e-02 6.22376353e-02 0. 7.00915307e-02 0. 7.97416419e-02
      4.09887806e-02 2.60437205e-02 -4.07890081e-02 3.23808827e-02
      7.07011819e-02 0. -4.63354886e-02 0. -7.01828301e-02
      -1.46583924e-02 -4.07890081e-02 2.23612785e-02 -1.17347337e-01
      -1.14873014e-01 0. -4.00588335e-03 0. -1.59978066e-02
      2.87385238e-03 2.23612785e-02 -2.77908389e-02 1.05868671e-02
      1.21543156e-02 0. -1.48766980e-01 0. -1.29998639e-01
      -3.11456434e-02 -2.77908389e-02 -5.88004738e-02 5.61556662e-04
      -4.25482308e-03 0. 4.18517329e-02 0. -2.13470906e-02
      -1.02788396e-03 -5.88004738e-02 -2.80044973e-04 7.59202102e-03
      -2.19488125e-02 0. 5.77350669e-02 0. 5.57411350e-02 2.66734064e-02
      -2.80044973e-04</_>
    <_>
      -3.73999246e-05 1.84053730e-03 -1.57806056e-03 0. 6.25760928e-02
      0. 4.39714044e-02 2.98572294e-02 -3.73999246e-05 -1.81638764e-03
      2.71523744e-02 5.73606342e-02 0. 7.17954040e-02 0. 3.40371998e-03
      1.53200747e-02 -1.81638764e-03 -4.14922386e-02 -1.17639698e-01
      -9.17803943e-02 0. -7.85735622e-02 0. -7.35299801e-03
      1.57378204e-02 -4.14922386e-02 -3.39064486e-02 -1.45240147e-02
      -5.70121296e-02 0. -4.60965037e-02 0. -6.64357245e-02
      1.89121201e-04 -3.39064486e-02 3.47137786e-02 4.21583876e-02
      8.08703229e-02 0. 6.33065850e-02 0. 2.64146421e-02 9.83706396e-03
      3.47137786e-02 6.53384402e-02 4.33548726e-02 1.01974338e-01 0.
      7.55805597e-02 0. 7.22444430e-02 2.69503798e-02 6.53384402e-02
      3.34880389e-02 -3.69023532e-03 -6.18016161e-02 0. -4.80082408e-02
      0. -1.20973764e-02 3.58581939e-03 3.34880389e-02 -8.73144567e-02
      -9.14960504e-02 -6.62020966e-02 0. -8.11841339e-02 0.
      -3.79579626e-02 -1.46830864e-02 -8.73144567e-02 5.85594103e-02
      3.39514874e-02 7.17600212e-02 0. 5.57043739e-02 0. 8.05113316e-02
      2.80596334e-02 5.85594103e-02 2.81145889e-02 1.16195474e-02
      1.10176879e-04 0. -3.06142289e-02 0. 7.40713701e-02 4.84060943e-02
      2.81145889e-02 -9.02936980e-02 -2.97516752e-02 -4.04022895e-02 0.
      -8.30628648e-02 0. -6.87032416e-02 -4.29637842e-02 -9.02936980e-02
      2.29469649e-02 3.62438001e-02 -3.21970321e-02 0. -7.10221678e-02
      0. -7.53922090e-02 -2.39612889e-02 2.29469649e-02 3.18050664e-03
      -2.88815907e-04 -3.32652703e-02 0. 1.58733223e-02 0.
      3.92995328e-02 2.73863077e-02 3.18050664e-03 -2.42474512e-03
      1.13865212e-02 1.09215956e-02 0. 4.37240563e-02 0. -8.63533393e-02
      -1.43384971e-02 -2.42474512e-03 3.87394964e-03 -7.50414329e-04
      -5.80773428e-02 0. -7.87188411e-02 0. -5.34545816e-02
      -6.50670053e-03 3.87394964e-03 2.01344397e-02 1.60232279e-02
      2.29796953e-03 0. -1.03264056e-01 0. -9.61621255e-02
      -9.17759910e-02 2.01344397e-02 4.95102778e-02 -2.26575192e-02
      -9.76994932e-02 0. -1.21975385e-01 0. 6.92665130e-02
      3.98548543e-02 4.95102778e-02 4.84645106e-02 1.51347590e-03
      -2.01691836e-02 0. -8.18587542e-02 0. 6.91671446e-02
      5.36773168e-02 4.84645106e-02 5.36237396e-02 1.91167295e-02
      4.13056724e-02 0. -1.23221323e-01 0. 2.46836171e-02 2.53582206e-02
      5.36237396e-02 3.01624723e-02 2.42461544e-02 4.96051572e-02 0.
      -8.23604688e-02 0. -5.73493466e-02 1.99878719e-02 3.01624723e-02
      5.25742956e-02 1.32721523e-02 4.30646027e-03 0. -4.23710905e-02 0.
      8.28582421e-02 3.79919820e-02 5.25742956e-02 1.96279287e-02
      -2.99879182e-02 -1.03472941e-01 0. -9.88490283e-02 0.
      1.30275907e-02 2.24044211e-02 1.96279287e-02 1.19577423e-02
      -2.48208027e-02 -8.28126371e-02 0. -3.74621563e-02 0.
      2.47864369e-02 3.37410793e-02 1.19577423e-02 4.79673035e-02
      -2.85819769e-02 -1.01317443e-01 0. -8.66502300e-02 0.
      3.99214812e-02 4.54763435e-02 4.79673035e-02 2.85220239e-03
      6.25346415e-03 -1.37662108e-04 0. -9.87635255e-02 0.
      -4.15632315e-02 1.11478530e-02 2.85220239e-03 4.45971452e-02
      4.32276055e-02 8.90597999e-02 0. -7.03835711e-02 0. 3.52399163e-02
      3.84308957e-02 4.45971452e-02 5.04858606e-02 2.85084043e-02
      5.92353903e-02 0. -1.00383297e-01 0. -7.21602365e-02
      -1.69866104e-02 5.04858606e-02 1.70700531e-03 3.15540330e-03
      -3.45762968e-02 0. -6.97471872e-02 0. -7.67925456e-02
      1.23904692e-02 1.70700531e-03 4.17816564e-02 2.92500965e-02
      5.29261008e-02 0. -1.02746494e-01 0. -1.17828902e-02
      1.05165374e-02 4.17816564e-02 7.29987994e-02 3.46485972e-02
      6.74413592e-02 0. -1.23209640e-01 0. -6.86865151e-02
      -7.84307602e-04 7.29987994e-02 2.34486144e-02 -9.23672132e-03
      -7.16147348e-02 0. -8.96331072e-02 0. 8.02382603e-02
      5.32901771e-02 2.34486144e-02 6.16997071e-02 9.88775585e-03
      -2.68049333e-02 0. -1.24701783e-01 0. 5.67933917e-02
      3.29917707e-02 6.16997071e-02 3.76002789e-02 1.91334896e-02
      5.61506487e-02 0. -8.72824788e-02 0. -8.49642456e-02
      -2.51734201e-02 3.76002789e-02 -3.33404802e-02 1.99248325e-02
      2.83976309e-02 0. -1.48964031e-02 0. -8.15351233e-02
      -1.39557375e-02 -3.33404802e-02 5.27447797e-02 4.54106405e-02
      8.96094367e-02 0. -1.03824191e-01 0. -1.03612855e-01
      -7.38759860e-02 5.27447797e-02 -7.14710653e-02 3.58744003e-02
      2.22898368e-02 0. 5.87626956e-02 0. -5.87008558e-02
      -2.10147742e-02 -7.14710653e-02 -5.48201464e-02 -3.90618443e-02
      -6.87787384e-02 0. 2.02033557e-02 0. -2.26981621e-02
      2.10892856e-02 -5.48201464e-02 -4.31292836e-04 -3.04356478e-02
      -5.93605377e-02 0. -4.47625257e-02 0. 1.18218875e-02
      2.60813721e-02 -4.31292836e-04 -7.36645460e-02 -4.85263355e-02
      -5.85711077e-02 0. 7.85859153e-02 0. 4.03323174e-02 3.22657898e-02
      -7.36645460e-02 -1.01441965e-02 -5.89488298e-02 -6.00378588e-02 0.
      -2.56382581e-02 0. -5.31916730e-02 -3.10624782e-02 -1.01441965e-02
      7.14658573e-03 3.08808330e-02 5.61760068e-02 0. -5.30481637e-02 0.
      -7.65542760e-02 -4.82461415e-02 7.14658573e-03 -7.55433962e-02
      -7.53253000e-03 -3.38780694e-02 0. -7.05906283e-03 0.
      -6.75561428e-02 -2.55580042e-02 -7.55433962e-02 1.69467051e-02
      3.20164226e-02 2.81599667e-02 0. 7.39329541e-03 0. -4.87859361e-02
      -7.68990740e-02 1.69467051e-02 -6.77923858e-02 2.99304053e-02
      6.86359638e-03 0. 7.29139298e-02 0. -6.96184114e-02
      -1.50112854e-02 -6.77923858e-02 -2.53772680e-02 -2.59182621e-02
      -8.89655650e-02 0. -5.76612912e-02 0. 5.87273464e-02
      4.46139425e-02 -2.53772680e-02 6.64496273e-02 -3.25877331e-02
      -8.99483413e-02 0. -6.77622929e-02 0. 9.16356891e-02
      5.09484671e-02 6.64496273e-02 -3.54670435e-02 -2.32559070e-02
      -5.11183627e-02 0. 2.47887522e-02 0. 6.59278557e-02 2.68467180e-02
      -3.54670435e-02 7.81887770e-02 -6.87223971e-02 -6.17798492e-02 0.
      -9.34796333e-02 0. 1.12970226e-01 4.53366414e-02 7.81887770e-02
      -1.96764078e-02 6.17639981e-02 1.22834116e-01 0. -3.88429202e-02
      0. -1.06637634e-01 -1.05093516e-01 -1.96764078e-02 -7.96759427e-02
      2.05407199e-02 -3.71367112e-02 0. 5.37879094e-02 0.
      -7.26549402e-02 -7.20625594e-02 -7.96759427e-02 3.60460691e-02
      3.61937694e-02 8.13136995e-02 0. 5.84932491e-02 0. 4.79191728e-02
      1.93722118e-02 3.60460691e-02 -7.49584213e-02 3.47218253e-02
      5.14373966e-02 0. 4.12640907e-02 0. 8.81947484e-03 3.59293190e-03
      -7.49584213e-02 -7.41004944e-02 -7.41184503e-02 -6.69601485e-02 0.
      8.45292509e-02 0. 3.05333994e-02 3.07410657e-02 -7.41004944e-02
      -1.19339610e-02 -8.56383443e-02 -9.55669880e-02 0. -4.77514900e-02
      0. -6.47433028e-02 -2.82059405e-02 -1.19339610e-02 -5.37900142e-02
      2.60920171e-02 3.40062231e-02 0. 3.22046615e-02 0. 1.73495524e-02
      5.89253986e-03 -5.37900142e-02 3.00703272e-02 1.45209562e-02
      3.65468673e-02 0. 6.44921586e-02 0. 6.28452748e-02 2.42027380e-02
      3.00703272e-02 -3.05821877e-02 4.20337208e-02 4.28450778e-02 0.
      -1.83418747e-02 0. -6.99845552e-02 -1.13279127e-01 -3.05821877e-02
      -5.95372245e-02 1.32300267e-02 -1.66772213e-02 0. 6.95055947e-02
      0. -7.64649808e-02 -3.49176936e-02 -5.95372245e-02 7.58478418e-03
      1.75832864e-02 4.78908718e-02 0. 4.74350788e-02 0. -6.99792348e-04
      4.22058487e-03 7.58478418e-03 -1.05625831e-01 5.12415869e-03
      1.15624657e-02 0. 9.28115994e-02 0. 3.97196738e-03 1.40959155e-02
      -1.05625831e-01 -9.38631818e-02 -1.15952559e-01 -6.84950799e-02 0.
      3.34323905e-02 0. 6.72167540e-02 3.41129936e-02 -9.38631818e-02
      3.03671788e-03 -1.14118010e-01 -8.81730169e-02 0. -1.04859538e-01
      0. 9.04880464e-02 3.35341878e-02 3.03671788e-03 -6.08973093e-02
      -8.06047581e-03 -2.41197795e-02 0. 8.64827484e-02 0.
      7.50645995e-02 3.62457931e-02 -6.08973093e-02 6.17731772e-02
      2.51165014e-02 3.38809527e-02 0. 7.05355182e-02 0. 6.41772375e-02
      2.96829659e-02 6.17731772e-02</_>
    <_>
      4.23897803e-03 1.04592862e-02 7.55396811e-03 0. -6.02001958e-02 0.
      -4.44615334e-02 -5.89970732e-03 4.23897803e-03 4.60203551e-02
      2.60743629e-02 5.88274971e-02 0. 2.40797009e-02 0. 2.73143370e-02
      1.64759941e-02 4.60203551e-02 5.94688626e-03 -8.19199346e-03
      -4.23523551e-03 0. -5.67625575e-02 0. -6.26275167e-02
      -2.64151935e-02 5.94688626e-03 -8.24069679e-02 -5.65846413e-02
      -7.73175880e-02 0. 3.58041599e-02 0. 3.55829485e-02 1.80287547e-02
      -8.24069679e-02 3.74974795e-02 3.34766209e-02 6.17479384e-02 0.
      3.62534374e-02 0. 2.89515164e-02 1.06191821e-02 3.74974795e-02
      8.51673409e-02 -9.53457225e-03 -1.22761734e-01 0. 7.73224682e-02
      0. 7.95440152e-02 3.35001312e-02 8.51673409e-02 5.76534234e-02
      -2.10568309e-02 -1.57844007e-01 0. 5.66971190e-02 0.
      2.67300811e-02 1.05346153e-02 5.76534234e-02 -1.16156286e-03
      -1.74830049e-01 -1.36601314e-01 0. 9.38902870e-02 0.
      5.87052256e-02 2.65007187e-02 -1.16156286e-03 1.09685557e-02
      -1.16967196e-02 -6.09630272e-02 0. 5.74458055e-02 0.
      7.28955790e-02 3.52614634e-02 1.09685557e-02 -1.14676833e-01
      2.17110049e-02 -4.99651097e-02 0. 1.61406137e-02 0.
      -3.84329371e-02 8.73469841e-03 -1.14676833e-01 6.56345347e-03
      -1.13121226e-01 -5.35591356e-02 0. 6.04277626e-02 0.
      4.48355153e-02 2.68136766e-02 6.56345347e-03 -6.53856248e-02
      -2.30354611e-02 -7.56358877e-02 0. -8.16234499e-02 0.
      -4.61142994e-02 1.06754314e-05 -6.53856248e-02 -8.90938714e-02
      5.76734059e-02 4.63140048e-02 0. -1.29649997e-01 0.
      -1.54512674e-01 -4.90729176e-02 -8.90938714e-02 6.77241758e-02
      4.85422052e-02 9.88357589e-02 0. 8.89475737e-03 0. 3.59784774e-02
      2.90408805e-02 6.77241758e-02 -1.75187811e-02 1.48677854e-02
      1.23063615e-03 0. -1.07993983e-01 0. -1.28320426e-01
      -5.68156615e-02 -1.75187811e-02 7.40066394e-02 4.29805554e-02
      6.81493655e-02 0. -1.06516048e-01 0. 1.34830866e-02 3.09482627e-02
      7.40066394e-02 3.16539817e-02 3.46254371e-02 7.12747276e-02 0.
      2.85540856e-02 0. 3.29121053e-02 1.18556395e-02 3.16539817e-02
      2.83498522e-02 -2.39711441e-02 -1.11634873e-01 0. 6.23671561e-02
      0. 3.85565162e-02 1.65659711e-02 2.83498522e-02 -2.43280758e-03
      -6.60968944e-02 -1.00816056e-01 0. 1.79334134e-02 0.
      5.23443036e-02 2.17127167e-02 -2.43280758e-03 -7.88347572e-02
      -1.23813421e-01 -6.42563552e-02 0. 6.72699511e-02 0.
      7.34689310e-02 3.16325687e-02 -7.88347572e-02 6.82363585e-02
      -2.60737445e-02 -8.14252570e-02 0. 5.10184281e-02 0.
      2.33964082e-02 7.86925200e-03 6.82363585e-02 3.08246668e-02
      -1.27838954e-01 -7.62017220e-02 0. 7.63553306e-02 0.
      4.65528220e-02 2.04307344e-02 3.08246668e-02 4.41106111e-02
      -6.22190088e-02 -5.91572598e-02 0. -4.29191859e-03 0.
      2.10634898e-02 1.04048727e-02 4.41106111e-02 -3.24777439e-02
      -1.19404398e-01 -1.03055418e-01 0. -3.93906981e-02 0.
      1.57609638e-02 1.73363276e-02 -3.24777439e-02 3.90852243e-02
      -3.32763605e-02 -9.06482190e-02 0. 3.29304412e-02 0.
      -3.90879856e-03 7.29325274e-03 3.90852243e-02 2.62353905e-02
      1.60476509e-02 -6.87142136e-03 0. -1.43527478e-01 0.
      -4.68002409e-02 -2.94266292e-03 2.62353905e-02 -4.49694917e-02
      -9.82463136e-02 -1.10320672e-01 0. -1.03743471e-01 0.
      3.74011435e-02 3.46291475e-02 -4.49694917e-02 1.66435391e-02
      2.14503109e-02 -5.20910025e-02 0. -1.28220662e-01 0.
      -3.66895534e-02 2.28585079e-02 1.66435391e-02 4.38225493e-02
      6.33236989e-02 3.73000056e-02 0. -1.12901896e-01 0.
      -1.26899499e-02 5.85803995e-04 4.38225493e-02 4.87875566e-02
      3.60381454e-02 6.23963960e-02 0. -7.91522339e-02 0. 4.58872952e-02
      3.48891169e-02 4.87875566e-02 5.54804830e-03 4.46242951e-02
      5.10430411e-02 0. -1.68287128e-01 0. -1.49115250e-01
      -3.25943008e-02 5.54804830e-03 -8.63418132e-02 4.16456647e-02
      6.96424395e-02 0. -8.25475752e-02 0. -5.33623174e-02
      3.51688243e-03 -8.63418132e-02 2.46090963e-02 -4.14370112e-02
      -5.42798340e-02 0. -1.37684524e-01 0. 4.35660891e-02
      2.00199857e-02 2.46090963e-02 1.88663155e-02 -3.96486782e-02
      -4.04293872e-02 0. 2.71614958e-02 0. 5.48978560e-02 2.37542149e-02
      1.88663155e-02 -2.78793368e-02 6.94487151e-03 -2.58862060e-02 0.
      -1.19817540e-01 0. -5.32920137e-02 -5.20058675e-03 -2.78793368e-02
      -8.54896307e-02 5.57879545e-02 5.27450480e-02 0. 2.59767156e-02 0.
      2.26147175e-02 1.39295030e-02 -8.54896307e-02 8.32410827e-02
      3.50157507e-02 1.01219593e-02 0. -2.00305320e-02 0.
      -3.50172445e-02 -5.03292494e-03 8.32410827e-02 -1.23439409e-01
      -2.96569765e-02 -5.61904684e-02 0. -4.21171486e-02 0.
      -8.77105892e-02 -2.59068012e-02 -1.23439409e-01 -1.09868988e-01
      5.47636226e-02 7.71193057e-02 0. 6.21510148e-02 0. 2.05666889e-02
      1.11942701e-02 -1.09868988e-01 -1.06225431e-01 5.07563055e-02
      4.07178141e-02 0. 6.08473830e-02 0. -3.48329358e-02 1.86391850e-03
      -1.06225431e-01 -1.27063215e-01 -3.64243798e-02 -5.52798063e-02 0.
      -6.20773099e-02 0. 4.00404334e-02 2.24979185e-02 -1.27063215e-01
      -5.26921712e-02 -3.76053783e-03 -7.82947913e-02 0. -8.57083723e-02
      0. -2.17054058e-02 2.19056439e-02 -5.26921712e-02 -1.07609577e-01
      2.44491734e-02 8.76239128e-03 0. 4.36784066e-02 0. -1.38402008e-03
      1.64843164e-02 -1.07609577e-01 -2.85771303e-02 2.49993652e-02
      2.71859542e-02 0. 2.07333383e-03 0. -1.29640400e-02 2.31516473e-02
      -2.85771303e-02 -5.01130819e-02 5.27919643e-02 6.16633743e-02 0.
      -5.75041100e-02 0. -7.82291070e-02 -1.43106170e-02 -5.01130819e-02
      -7.01176524e-02 1.93756763e-02 3.24845687e-02 0. -5.22799492e-02
      0. -6.29097894e-02 -1.22036482e-03 -7.01176524e-02 -4.60191220e-02
      2.48260964e-02 2.42781229e-02 0. 1.91570874e-02 0. 6.84841396e-03
      1.94676388e-02 -4.60191220e-02 -6.96862116e-02 -5.06610908e-02
      -9.12699327e-02 0. -8.96763802e-02 0. 1.87391043e-02
      2.21910607e-02 -6.96862116e-02 -8.41115266e-02 5.25097884e-02
      7.47462064e-02 0. -8.38776156e-02 0. -1.16086781e-01
      -3.42434384e-02 -8.41115266e-02 -7.61225522e-02 3.59941274e-02
      3.19256522e-02 0. 5.56131676e-02 0. -9.45417676e-03 6.15166686e-03
      -7.61225522e-02 1.29396431e-02 3.75120416e-02 8.63014683e-02 0.
      4.87998202e-02 0. 3.03679556e-02 1.97048429e-02 1.29396431e-02
      -3.50223854e-02 3.50890085e-02 7.78455287e-02 0. 3.04477792e-02 0.
      3.93833965e-02 1.32982051e-02 -3.50223854e-02 -9.54283103e-02
      4.97018360e-02 2.23048553e-02 0. 6.42515793e-02 0. 2.12892471e-03
      5.03747119e-03 -9.54283103e-02 -1.00079812e-01 2.03468204e-02
      -1.50921044e-03 0. 3.44433300e-02 0. -2.76295636e-02
      6.38849940e-03 -1.00079812e-01 -1.21484911e-02 1.51004763e-02
      3.01589165e-02 0. 2.28493568e-02 0. 1.38957845e-02 5.41631458e-03
      -1.21484911e-02 -1.78243406e-02 1.14259738e-02 2.89821867e-02 0.
      1.80014689e-02 0. 1.38160288e-02 1.43062184e-02 -1.78243406e-02
      -4.53402176e-02 2.84724478e-02 3.76066342e-02 0. -5.67637421e-02
      0. -3.13068484e-03 -3.21663707e-03 -4.53402176e-02 1.10773649e-02
      7.44011533e-03 1.39359734e-03 0. -1.23510554e-01 0.
      -7.73917139e-02 -2.75932048e-02 1.10773649e-02 3.50322686e-02
      1.11355092e-02 3.09038199e-02 0. -4.80128303e-02 0.
      -3.74076366e-02 -3.92062450e-03 3.50322686e-02 -5.55184577e-03
      -1.52323144e-02 -2.33399086e-02 0. -1.03035644e-01 0.
      -8.85911286e-02 -3.00435219e-02 -5.55184577e-03 -4.71943133e-02
      -2.35519297e-02 -3.40879709e-02 0. -1.02833226e-01 0.
      2.28327978e-02 8.54180846e-03 -4.71943133e-02 -5.34027219e-02
      -6.93423152e-02 -7.85581917e-02 0. -9.49595943e-02 0.
      7.97870681e-02 4.18747813e-02 -5.34027219e-02 -1.65434126e-02
      -2.60706451e-02 -2.09835023e-02 0. -1.04937121e-01 0.
      -1.73188597e-02 -2.25703162e-03 -1.65434126e-02 1.70692056e-02
      2.89197471e-02 -3.59972566e-03 0. -1.00990562e-02 0.
      4.24733050e-02 2.22584456e-02 1.70692056e-02</_>
    <_>
      1.74177717e-02 1.96409021e-02 4.37963605e-02 0. 6.59594685e-02 0.
      7.07319379e-02 3.83032635e-02 1.74177717e-02 -6.18813112e-02
      -4.11281502e-03 -1.26308957e-02 0. 4.14500460e-02 0.
      3.59681547e-02 1.32901259e-02 -6.18813112e-02 -8.50639045e-02
      -2.17706207e-02 -5.19259647e-02 0. -7.55996071e-03 0.
      1.30408937e-02 1.70554183e-02 -8.50639045e-02 -7.64318481e-02
      -2.66635716e-02 -4.62148748e-02 0. 8.88663158e-02 0.
      7.67719373e-03 4.17649932e-02 -7.64318481e-02 -8.86574760e-02
      1.18303474e-03 2.65929755e-03 0. 4.34301868e-02 0. 1.12073636e-02
      3.74530442e-03 -8.86574760e-02 -2.82432344e-02 2.46966444e-02
      6.76846504e-02 0. 8.49112347e-02 0. 7.67908916e-02 5.73641844e-02
      -2.82432344e-02 -7.68217966e-02 -2.31772731e-03 -3.96235473e-02 0.
      5.35471924e-02 0. 1.61825232e-02 -5.94366062e-03 -7.68217966e-02
      -4.03074361e-02 3.34986597e-02 2.83710519e-03 0. -8.26255381e-02
      0. -3.06300912e-02 -1.04570361e-02 -4.03074361e-02 1.39904744e-03
      1.72460135e-02 4.90264669e-02 0. 5.31876720e-02 0. 4.52800505e-02
      2.30899509e-02 1.39904744e-03 1.07831070e-02 2.78779324e-02
      4.13887054e-02 0. 7.93763995e-02 0. 8.83030444e-02 4.66717333e-02
      1.07831070e-02 -2.31592394e-02 -4.93101543e-03 1.40333604e-02 0.
      -1.34202585e-01 0. -2.68730186e-02 5.04832808e-03 -2.31592394e-02
      -1.72648989e-02 -5.54093085e-02 -8.84990618e-02 0. -9.49948728e-02
      0. -3.85949984e-02 4.30445969e-02 -1.72648989e-02 -3.39854807e-02
      1.31416470e-02 2.51876153e-02 0. 1.03319608e-01 0. 7.99567625e-02
      3.68143469e-02 -3.39854807e-02 -3.48372087e-02 3.19722742e-02
      9.06137228e-02 0. 1.11680113e-01 0. 1.54487519e-02 9.91595723e-03
      -3.48372087e-02 -5.54324202e-02 -4.38486636e-02 -1.08450711e-01 0.
      -9.16892886e-02 0. -8.80284160e-02 1.56711065e-03 -5.54324202e-02
      -6.32464960e-02 3.04462388e-02 4.40789610e-02 0. -7.56439269e-02
      0. -9.05108824e-02 -6.39133453e-02 -6.32464960e-02 -2.75297370e-02
      3.52591113e-03 -1.50280921e-02 0. -2.16601565e-02 0.
      1.11178821e-02 8.25865194e-03 -2.75297370e-02 -1.08847678e-01
      1.13657601e-02 -4.04273197e-02 0. 6.52514026e-02 0. 5.39926998e-02
      3.73707786e-02 -1.08847678e-01 -3.36933671e-03 1.40509503e-02
      -3.00422218e-03 0. -4.02920656e-02 0. 5.51986285e-02
      2.63714325e-02 -3.36933671e-03 -5.13677001e-02 7.83671439e-03
      7.41049042e-03 0. -2.30372678e-02 0. 7.70391664e-03 3.30827646e-02
      -5.13677001e-02 -6.21128827e-02 1.41982762e-02 6.23546308e-04 0.
      2.55041383e-02 0. 2.45323516e-02 1.67989358e-02 -6.21128827e-02
      1.21434694e-02 9.65269096e-03 1.31061431e-02 0. -1.07108250e-01 0.
      -3.16549875e-02 6.13637175e-03 1.21434694e-02 -1.54086966e-02
      2.46736407e-03 1.03225093e-02 0. -4.93052453e-02 0.
      -3.13988216e-02 2.82296762e-02 -1.54086966e-02 2.73770653e-02
      1.26825524e-02 3.74038778e-02 0. -9.85670984e-02 0.
      -5.66236749e-02 3.60170845e-03 2.73770653e-02 5.02563454e-02
      4.35127039e-03 5.96243329e-03 0. -1.44588411e-01 0. 4.69195619e-02
      3.54652479e-02 5.02563454e-02 5.42935543e-02 1.83970798e-02
      4.07308638e-02 0. -9.26302522e-02 0. 1.49753201e-03 2.46493127e-02
      5.42935543e-02 5.16219586e-02 1.75499357e-02 5.00993356e-02 0.
      -1.54100373e-01 0. -4.76109348e-02 6.99656270e-03 5.16219586e-02
      6.79806471e-02 4.11802391e-03 -7.40342960e-03 0. -9.50813144e-02
      0. 1.52062252e-02 5.54695651e-02 6.79806471e-02 4.38782685e-02
      2.95182895e-02 4.43820693e-02 0. -1.35036439e-01 0.
      -9.46102291e-03 1.89610422e-02 4.38782685e-02 5.72641827e-02
      2.88631730e-02 7.78176561e-02 0. -1.52379602e-01 0.
      -3.11119352e-02 6.28981879e-03 5.72641827e-02 7.53992945e-02
      2.19774265e-02 1.97501015e-02 0. -1.18093170e-01 0. 9.36192870e-02
      6.03617728e-02 7.53992945e-02 6.21925630e-02 9.13152006e-03
      2.78035621e-03 0. -1.60188824e-01 0. 4.13957238e-02 2.36104000e-02
      6.21925630e-02 2.49803737e-02 3.13174427e-02 4.38879663e-03 0.
      -9.54754129e-02 0. 1.13662397e-02 1.01011423e-02 2.49803737e-02
      1.37908878e-02 1.41243283e-02 1.14271007e-02 0. -9.21332836e-02 0.
      -3.07604540e-02 3.63875441e-02 1.37908878e-02 5.00964001e-02
      1.95470452e-02 2.11770972e-03 0. -9.68015790e-02 0.
      -6.88133687e-02 9.30898823e-03 5.00964001e-02 4.29551899e-02
      7.55638350e-03 -2.60940138e-02 0. -1.33212477e-01 0.
      -1.18634738e-02 2.89635733e-02 4.29551899e-02 1.65369455e-02
      1.38429357e-02 2.66277436e-02 0. -8.49943534e-02 0.
      -5.89061575e-03 4.30591330e-02 1.65369455e-02 9.65720881e-03
      2.25791577e-02 5.43387830e-02 0. -1.07572190e-01 0.
      -7.44109303e-02 -1.36304926e-02 9.65720881e-03 3.75608690e-02
      2.27514151e-02 4.74443734e-02 0. -9.06135291e-02 0.
      -7.81611074e-03 5.31552499e-03 3.75608690e-02 4.35935073e-02
      4.12723459e-02 7.34737813e-02 0. -6.13231212e-02 0.
      -8.82116109e-02 -6.10188618e-02 4.35935073e-02 -1.65546741e-02
      1.54736638e-02 2.98732221e-02 0. -6.36878833e-02 0.
      -5.58323003e-02 -2.98498534e-02 -1.65546741e-02 -3.62524651e-02
      -6.16207793e-02 -7.34938085e-02 0. -1.45604936e-02 0.
      2.12848336e-02 6.29205853e-02 -3.62524651e-02 -3.98912281e-02
      2.61535794e-02 4.48348708e-02 0. 2.22932231e-02 0. -6.43553957e-02
      -5.60710989e-02 -3.98912281e-02 -7.68430158e-02 -3.94687951e-02
      -6.23708889e-02 0. 8.48354176e-02 0. 3.37057151e-02 2.00023148e-02
      -7.68430158e-02 3.42633314e-02 -5.23644760e-02 -1.08830415e-01 0.
      -6.99170828e-02 0. 1.17120795e-01 6.93724602e-02 3.42633314e-02
      4.92863655e-02 -3.44259068e-02 -1.05114952e-01 0. -1.01247653e-01
      0. 7.04099312e-02 4.41784412e-02 4.92863655e-02 3.61922979e-02
      -7.50229061e-02 -6.57300502e-02 0. 4.24977485e-03 0.
      1.15624301e-01 5.52599095e-02 3.61922979e-02 8.67167786e-02
      -5.33297248e-02 -7.75121525e-02 0. -1.07225642e-01 0.
      1.31617486e-01 6.00941181e-02 8.67167786e-02 -6.27373680e-02
      3.64354416e-03 -6.50605559e-02 0. -5.58322407e-02 0.
      -1.31291717e-01 -5.96594214e-02 -6.27373680e-02 -8.96218047e-03
      -3.25115994e-02 -4.39243652e-02 0. -9.85000581e-02 0.
      -7.62579888e-02 1.28978735e-03 -8.96218047e-03 -2.06154715e-02
      2.07100268e-02 3.59250307e-02 0. 7.16378912e-02 0. 2.86090374e-02
      2.21743993e-02 -2.06154715e-02 2.73119900e-02 3.09103113e-02
      3.83655243e-02 0. 6.94714263e-02 0. 7.20436946e-02 2.86820177e-02
      2.73119900e-02 5.80938943e-02 3.10202241e-02 3.43989469e-02 0.
      -7.68571645e-02 0. -9.31595918e-03 -3.41644883e-02 5.80938943e-02
      -4.71596140e-03 4.64367829e-02 9.01384726e-02 0. -1.29557056e-02
      0. -7.42992088e-02 -1.32083654e-01 -4.71596140e-03 4.18420099e-02
      3.88410501e-02 7.18361810e-02 0. 7.63854608e-02 0. -8.23834073e-03
      2.28767982e-04 4.18420099e-02 -6.38809651e-02 2.10226234e-02
      5.83350882e-02 0. 1.08003289e-01 0. -1.19481966e-01
      -5.41696101e-02 -6.38809651e-02 -3.97921279e-02 3.67774405e-02
      7.62283951e-02 0. 7.27756247e-02 0. -4.56358157e-02
      -4.59316298e-02 -3.97921279e-02 -5.28451316e-02 4.22834372e-03
      -3.71794328e-02 0. 8.58691931e-02 0. 4.40146923e-02 2.37042289e-02
      -5.28451316e-02 -6.28165901e-02 5.43008232e-03 1.49772428e-02 0.
      9.76848751e-02 0. -4.51175347e-02 -1.50551402e-03 -6.28165901e-02
      -9.67202485e-02 -2.43935734e-02 -5.58333360e-02 0. 8.76317769e-02
      0. 5.68305962e-02 3.61808240e-02 -9.67202485e-02 -5.07615805e-02
      -1.16446786e-01 -5.38022183e-02 0. 5.76811098e-02 0.
      1.01587966e-01 4.48493585e-02 -5.07615805e-02 8.51418898e-02
      -1.08378567e-01 -8.97967815e-02 0. -5.79085536e-02 0.
      1.60862401e-01 6.26125187e-02 8.51418898e-02 -7.72143006e-02
      -4.90909256e-02 -1.28911093e-01 0. 8.36244747e-02 0.
      8.70028213e-02 3.49768288e-02 -7.72143006e-02 4.69373465e-02
      1.22756492e-02 2.33358815e-02 0. 6.42244816e-02 0. 6.86321482e-02
      2.86813863e-02 4.69373465e-02</_>
    <_>
      -1.76519528e-02 -9.29181557e-03 -2.78046560e-02 0. -2.24446934e-02
      0. -1.36039602e-02 -4.54621669e-03 -1.76519528e-02 -8.92796787e-04
      -4.77914279e-03 -1.43009834e-02 0. -1.89499110e-02 0.
      -2.09298357e-02 -6.99440297e-03 -8.92796787e-04 -1.61530674e-02
      -9.36068129e-03 6.44949963e-04 0. 6.44949963e-04 0.
      -1.96089558e-02 -1.03571806e-02 -1.61530674e-02 3.70211862e-02
      2.86103301e-02 1.56514458e-02 0. 1.05582876e-02 0. 1.14063481e-02
      4.96401498e-03 3.70211862e-02 4.07692418e-03 -6.22709468e-03
      -1.86337586e-02 0. -4.04248796e-02 0. -2.34867837e-02
      -1.32059045e-02 4.07692418e-03 2.14071875e-03 -2.03011301e-03
      -6.07486721e-03 0. -5.46388980e-03 0. 4.76916367e-03
      1.59377500e-03 2.14071875e-03 3.81106399e-02 -2.85935774e-03
      6.83021219e-03 0. 8.72554071e-03 0. 1.07997665e-02 2.04732381e-02
      3.81106399e-02 5.29655116e-03 -2.24419348e-02 -1.04850270e-02 0.
      4.22454141e-02 0. 3.67522240e-02 1.22819804e-02 5.29655116e-03
      -2.31214496e-03 -3.15730763e-03 -9.44786891e-03 0. -1.58046011e-03
      0. 0. 0. -2.31214496e-03 -3.30701321e-02 -2.72919610e-02
      -8.00356641e-02 0. -8.11605062e-03 0. 0. 0. -3.30701321e-02
      -4.61661490e-03 -3.74878347e-02 -7.73270652e-02 0. -2.63419989e-02
      0. 0. 0. -4.61661490e-03 -4.05616611e-02 -7.84261897e-02
      -8.08553845e-02 0. -5.29145040e-02 0. 0. 0. -4.05616611e-02
      -5.07180691e-02 -2.06085183e-02 -5.03983274e-02 0. -2.47813459e-03
      0. -4.09864262e-03 -1.36969797e-03 -5.07180691e-02 -5.53346090e-02
      -8.76027159e-03 -2.62140725e-02 0. -9.16077383e-03 0.
      -2.24276204e-02 -7.49493623e-03 -5.53346090e-02 -5.19199930e-02
      -4.01343666e-02 -5.59230074e-02 0. -2.46432051e-02 0.
      -7.25099910e-03 -2.42316234e-03 -5.19199930e-02 -5.46134785e-02
      -1.36159966e-02 -4.05837782e-02 0. -2.66838260e-02 0.
      -3.52348126e-02 -1.41852666e-02 -5.46134785e-02 -1.74153282e-03
      4.85429680e-03 9.44073126e-03 0. -1.28731793e-02 0.
      -6.56336779e-03 -2.19336711e-03 -1.74153282e-03 1.36668757e-02
      2.09752973e-02 1.55778844e-02 0. -7.01819488e-04 0. 1.22931264e-02
      4.10815794e-03 1.36668757e-02 -4.30547586e-03 3.14657353e-02
      4.98631261e-02 0. -1.28731793e-02 0. -3.53823341e-02
      -1.31928334e-02 -4.30547586e-03 -4.87227505e-03 6.95766881e-03
      3.69494148e-02 0. 1.89559278e-03 0. -2.17969716e-02
      -1.10387905e-02 -4.87227505e-03 2.60195602e-02 6.44618645e-03
      9.90999769e-03 0. 3.58181912e-03 0. 3.53613310e-02 1.26553420e-02
      2.60195602e-02 3.58118117e-02 -1.87907070e-02 -3.15885432e-02 0.
      1.90232079e-02 0. 2.34146919e-02 7.82479905e-03 3.58118117e-02
      1.85099188e-02 -1.49372183e-02 -2.08053794e-02 0. 4.80521732e-04
      0. 1.72115937e-02 -8.11512582e-03 1.85099188e-02 2.05366481e-02
      -6.03341497e-02 -5.07185198e-02 0. -1.12386504e-02 0.
      2.45484728e-02 9.96495970e-03 2.05366481e-02 2.99971011e-02
      -4.11966033e-02 -5.98779730e-02 0. -2.43402813e-02 0.
      1.63784232e-02 5.47339581e-03 2.99971011e-02 2.19089333e-02
      -4.28177007e-02 -5.19573875e-02 0. -4.47310358e-02 0.
      1.13463514e-02 3.79176484e-03 2.19089333e-02 6.04045019e-02
      -4.89925817e-02 -2.94442512e-02 0. -2.27533337e-02 0.
      5.42882606e-02 2.32758969e-02 6.04045019e-02 6.13741204e-02
      -2.35418715e-02 -1.24901505e-02 0. -5.98521270e-02 0.
      3.87443043e-02 1.68727227e-02 6.13741204e-02 1.90270357e-02
      -2.05668733e-02 -4.07234170e-02 0. -3.23192514e-02 0.
      4.78230324e-03 1.59817259e-03 1.90270357e-02 6.86271349e-03
      -1.72792263e-02 -4.27260362e-02 0. -7.14405999e-02 0.
      -3.09893452e-02 -1.03560975e-02 6.86271349e-03 6.27223700e-02
      -2.13561151e-02 -1.69559959e-02 0. -7.19272420e-02 0.
      3.61223593e-02 1.65524147e-02 6.27223700e-02 6.48887977e-02
      -1.78944822e-02 -3.53306346e-02 0. -5.75838331e-03 0.
      2.67628264e-02 2.47920044e-02 6.48887977e-02 1.67269837e-02
      1.75161790e-02 5.14044613e-02 0. -2.32182932e-03 0.
      -9.09414981e-03 -9.09603853e-03 1.67269837e-02 2.70708092e-02
      -1.45755522e-03 8.87434185e-03 0. -1.80503987e-02 0.
      -1.98668782e-02 -1.42592760e-02 2.70708092e-02 3.74099649e-02
      1.89303816e-03 5.66467363e-03 0. 1.85850577e-03 0. -9.05189570e-03
      -1.43732997e-02 3.74099649e-02 1.17864981e-02 -1.70069712e-03
      -1.17727148e-03 0. -8.46956763e-03 0. -1.24196317e-02
      -2.73608733e-02 1.17864981e-02 1.88431945e-02 -1.55980457e-02
      -2.84919292e-02 0. -7.77995680e-03 0. -1.33825345e-02
      -1.04767317e-02 1.88431945e-02 2.61235423e-02 -3.77181768e-02
      -4.34179157e-02 0. -9.87162720e-03 0. 9.29575227e-03
      3.10647534e-03 2.61235423e-02 1.13523034e-02 -7.12769991e-03
      -1.21984519e-02 0. -2.39749509e-03 0. -1.15622003e-02
      -7.58004142e-03 1.13523034e-02 2.19299048e-02 -2.60443222e-02
      -2.74177156e-02 0. -1.23851402e-02 0. 1.94992162e-02
      6.51629502e-03 2.19299048e-02 5.94379008e-02 -3.35523263e-02
      -5.70554882e-02 0. -2.00522598e-02 0. 2.72779446e-02
      9.11582448e-03 5.94379008e-02 6.56990558e-02 -4.02005091e-02
      -5.10845706e-02 0. -6.24829717e-02 0. 1.32234022e-02
      4.41904459e-03 6.56990558e-02 3.49007212e-02 -4.15968075e-02
      -6.41936660e-02 0. -1.59594156e-02 0. 2.11878140e-02
      7.08059454e-03 3.49007212e-02 5.96099496e-02 -4.52244990e-02
      -5.60508072e-02 0. -4.42199074e-02 0. 9.69017623e-04
      3.23828543e-04 5.96099496e-02 5.57826534e-02 -3.91302295e-02
      -3.46138142e-02 0. -7.87713975e-02 0. 1.29298130e-02
      4.32093116e-03 5.57826534e-02 4.91126813e-02 8.53664614e-03
      2.07822695e-02 0. -2.59085372e-02 0. 8.83372221e-03 2.95211701e-03
      4.91126813e-02 5.44733517e-02 -1.77465547e-02 -2.79232319e-02 0.
      -5.58992885e-02 0. -1.48651982e-03 -4.96768684e-04 5.44733517e-02
      4.59920540e-02 2.35851910e-02 4.66564707e-02 0. -2.77014226e-02 0.
      -1.32948132e-02 -4.44289297e-03 4.59920540e-02 6.07724488e-02
      1.81605958e-03 5.43432171e-03 0. -6.34789234e-03 0.
      -1.16024315e-02 -1.52809769e-02 6.07724488e-02 7.09888898e-03
      3.42139974e-04 4.91964258e-03 0. -2.27023452e-03 0. 2.65509496e-03
      -3.42679694e-02 7.09888898e-03 -1.50214136e-02 -8.16550688e-04
      -2.44342163e-03 0. 0. 0. -1.34738619e-02 -4.50272812e-03
      -1.50214136e-02 -3.85243259e-02 -2.66490225e-03 -7.97437411e-03 0.
      0. 0. -1.50923263e-02 -5.04359044e-03 -3.85243259e-02
      1.64022241e-02 -1.27633363e-02 -1.25773996e-02 0. -1.67173962e-03
      0. -1.23716146e-02 -8.51041917e-03 1.64022241e-02 2.32806858e-02
      -2.87393536e-02 -3.25779058e-02 0. -6.67729694e-03 0.
      2.27170307e-02 7.76858022e-03 2.32806858e-02 -3.80304493e-02
      -5.12731774e-03 -1.53428307e-02 0. 0. 0. -6.19409187e-03
      -2.06995686e-03 -3.80304493e-02 -2.83301193e-02 -6.18779706e-03
      -1.85161773e-02 0. 0. 0. -4.18132637e-03 -1.39732589e-03
      -2.83301193e-02 4.42675017e-02 -6.58053160e-02 -7.08491206e-02 0.
      -1.19831739e-02 0. 2.59943660e-02 8.68685916e-03 4.42675017e-02
      6.96661323e-02 -4.09144051e-02 -5.95101006e-02 0. -4.03352231e-02
      0. -2.46381219e-02 -8.96470528e-03 6.96661323e-02 -1.69001743e-02
      -5.10711502e-03 -1.52823757e-02 0. -8.46035255e-04 0.
      -9.07121226e-04 -3.03143985e-04 -1.69001743e-02 -1.05683338e-02
      -1.13684766e-03 -3.40186851e-03 0. -1.97202731e-02 0.
      -2.01261211e-02 -6.72579696e-03 -1.05683338e-02 6.63106143e-02
      -5.32762557e-02 -4.39816937e-02 0. -2.68062092e-02 0.
      -1.40746050e-02 -5.58819249e-03 6.63106143e-02 3.59828249e-02
      2.27462444e-02 5.64192161e-02 0. -4.85810861e-02 0.
      -5.93904518e-02 -2.06423458e-02 3.59828249e-02 -1.68628749e-02
      -2.60224217e-03 -7.78687093e-03 0. -8.99213646e-03 0.
      -1.34671014e-02 -4.50046919e-03 -1.68628749e-02 -1.70544460e-02
      -5.91856474e-03 -1.77105349e-02 0. -7.68751558e-03 0.
      -4.23862692e-03 -1.41647458e-03 -1.70544460e-02</_>
    <_>
      -1.68453511e-02 -4.56897030e-03 -1.36721004e-02 0. -1.13668758e-03
      0. -9.20889247e-03 -3.07745812e-03 -1.68453511e-02 2.01188959e-02
      4.73887986e-03 1.41805373e-02 0. -2.38667685e-03 0.
      -1.07264491e-02 -3.58459959e-03 2.01188959e-02 -4.10679281e-02
      -2.13623177e-02 1.42650807e-03 0. 1.42650807e-03 0.
      -3.69333774e-02 -1.26550877e-02 -4.10679281e-02 2.22286284e-02
      4.08195071e-02 6.58944389e-03 0. 1.42650807e-03 0. -2.77974550e-02
      -1.65232886e-02 2.22286284e-02 3.94582041e-02 3.23889730e-03
      9.69201606e-03 0. 2.81405635e-03 0. 1.67128723e-02 5.58516197e-03
      3.94582041e-02 -2.74589099e-03 0. 0. 0. 3.90832173e-03 0.
      9.00087599e-03 3.00794258e-03 -2.74589099e-03 4.81740236e-02
      2.29628757e-02 3.16151395e-03 0. 3.06411902e-03 0. 2.35138480e-02
      2.13067289e-02 4.81740236e-02 -6.15749955e-02 -4.10676189e-02
      -4.01560180e-02 0. 3.06411902e-03 0. -2.97804493e-02
      -2.49337684e-02 -6.15749955e-02 -4.66127880e-03 0. 0. 0. 0. 0. 0.
      0. -4.66127880e-03 -9.15658474e-03 -1.20053357e-02 -3.59245427e-02
      0. -4.00573723e-02 0. -5.46644302e-03 -1.82678923e-03
      -9.15658474e-03 -6.88400716e-02 -1.79014523e-02 -5.01249135e-02 0.
      -7.18613043e-02 0. -7.28243738e-02 -5.24599478e-02 -6.88400716e-02
      -1.18708611e-02 -1.74054634e-02 -5.09071611e-02 0. -7.28243738e-02
      0. -7.28243738e-02 -3.03133614e-02 -1.18708611e-02 -2.64068954e-02
      -1.18231885e-02 -3.53794917e-02 0. -2.75494624e-02 0.
      -2.34514121e-02 -7.83706643e-03 -2.64068954e-02 -2.99456231e-02
      -6.14599371e-03 -1.83911584e-02 0. -2.48122141e-02 0.
      -6.14548847e-02 -2.05371957e-02 -2.99456231e-02 -2.34214123e-02
      -1.67791415e-02 -5.02095893e-02 0. -7.60454610e-02 0.
      -7.37794712e-02 -2.95445938e-02 -2.34214123e-02 -2.65467521e-02
      -8.64948425e-03 -2.58825552e-02 0. -7.60454610e-02 0.
      -7.60454610e-02 -5.53778149e-02 -2.65467521e-02 -5.35169663e-03
      7.60488864e-03 1.06847333e-02 0. -2.01465320e-02 0.
      -7.61373574e-03 -2.54438352e-03 -5.35169663e-03 1.18624698e-02
      2.74509992e-02 2.85385605e-02 0. -2.01465320e-02 0. 6.60499837e-03
      2.20727990e-03 1.18624698e-02 -4.56119858e-04 3.36993188e-02
      5.76195531e-02 0. -2.01465320e-02 0. -2.15245318e-02
      -7.19313417e-03 -4.56119858e-04 -7.49946386e-03 1.57571714e-02
      4.69859615e-02 0. -2.01465320e-02 0. -2.34084707e-02
      -7.82271847e-03 -7.49946386e-03 2.93805022e-02 1.22198751e-02
      2.48173028e-02 0. -1.41795287e-02 0. 4.05972451e-02 1.36520220e-02
      2.93805022e-02 1.77322030e-02 -1.52880335e-02 -4.53054495e-02 0.
      -3.78548987e-02 0. -2.86270678e-02 -9.74601693e-03 1.77322030e-02
      3.72443907e-02 -1.48948133e-02 -3.33028734e-02 0. -2.02289652e-02
      0. 3.47468667e-02 1.20821930e-02 3.72443907e-02 5.30166961e-02
      -1.76574960e-02 -4.91668917e-02 0. -6.63234591e-02 0.
      2.44368501e-02 8.17388948e-03 5.30166961e-02 1.97211504e-02
      -4.72921273e-03 -1.41010666e-02 0. -7.36421123e-02 0.
      -5.08371256e-02 -2.10151058e-02 1.97211504e-02 3.43663469e-02
      4.04854352e-03 1.21147875e-02 0. -7.36421123e-02 0.
      -1.80808976e-02 -6.04231749e-03 3.43663469e-02 6.72378168e-02
      8.85757618e-03 2.64900867e-02 0. -7.36421123e-02 0.
      -5.50780585e-03 -6.65037706e-03 6.72378168e-02 5.44795059e-02
      1.04548614e-02 1.82137322e-02 0. -7.36421123e-02 0. 3.17567633e-03
      4.44658194e-03 5.44795059e-02 3.08651030e-02 -1.13614762e-04
      -3.39978840e-04 0. -8.76486003e-02 0. -2.64007207e-02
      -8.82264692e-03 3.08651030e-02 2.03474592e-02 -2.18248460e-03
      -6.53081993e-03 0. -8.76486003e-02 0. -4.93662767e-02
      -1.64973661e-02 2.03474592e-02 6.65953755e-02 -8.90155695e-03
      -2.66368426e-02 0. -8.53415802e-02 0. 5.88943698e-02
      2.39474066e-02 6.65953755e-02 7.23221973e-02 -1.26343109e-02
      -3.78066413e-02 0. -1.51592027e-02 0. 5.98955601e-02
      3.81935947e-02 7.23221973e-02 3.05583365e-02 1.70789976e-02
      5.09667844e-02 0. -3.49656725e-03 0. -7.41219474e-03
      -5.41929202e-03 3.05583365e-02 2.21426208e-02 1.27418595e-03
      3.81283835e-03 0. -2.95300223e-02 0. -2.93540955e-02
      -1.62862558e-02 2.21426208e-02 4.42814864e-02 4.94570937e-04
      1.47994456e-03 0. -2.48585474e-02 0. -8.50883685e-03
      -2.04786249e-02 4.42814864e-02 7.78830564e-03 -3.01101245e-03
      -9.01007093e-03 0. -2.59674881e-02 0. -1.57824028e-02
      -1.52182449e-02 7.78830564e-03 1.60978995e-02 -1.76195242e-02
      -3.89453359e-02 0. -3.97043154e-02 0. -2.34774151e-03
      -8.02238355e-04 1.60978995e-02 3.75108831e-02 -1.50118219e-02
      -3.01497411e-02 0. -5.52861430e-02 0. 1.43342903e-02
      4.79027629e-03 3.75108831e-02 8.22045561e-03 -1.90453660e-02
      -2.77108736e-02 0. -1.21162757e-02 0. 1.72346774e-02
      5.75952232e-03 8.22045561e-03 2.52304953e-02 -2.54602563e-02
      -7.88507331e-03 0. -3.89146097e-02 0. 1.74634205e-03
      -8.05189274e-03 2.52304953e-02 5.26115336e-02 1.34067447e-03
      4.01181215e-03 0. -5.63893691e-02 0. -2.07820013e-02
      -1.87395178e-02 5.26115336e-02 2.00452656e-02 -1.24611026e-02
      -3.07700168e-02 0. -4.41249609e-02 0. -3.26418467e-02
      -1.93769448e-02 2.00452656e-02 3.84416096e-02 -5.48403617e-03
      -1.64102688e-02 0. -3.48663405e-02 0. -1.90222561e-02
      -3.59370820e-02 3.84416096e-02 1.23486416e-02 -9.01474338e-03
      -2.69755125e-02 0. -8.16899911e-03 0. -5.08653000e-02
      -1.96254905e-02 1.23486416e-02 3.56034860e-02 -2.70530898e-02
      -5.08878790e-02 0. -5.50943129e-02 0. 1.21639827e-02
      4.06499906e-03 3.56034860e-02 5.45785278e-02 -1.05578294e-02
      -1.76913925e-02 0. -8.96135438e-03 0. 5.05631790e-02
      1.68973710e-02 5.45785278e-02 1.02149304e-02 -2.48217955e-02
      -5.17112315e-02 0. -2.37943102e-02 0. -4.04247781e-03
      -1.35092810e-03 1.02149304e-02 4.73012999e-02 -1.89701468e-02
      -8.96135438e-03 0. -2.43585184e-02 0. 1.27628283e-03
      4.26512415e-04 4.73012999e-02 4.96842191e-02 7.71374980e-05
      2.30823935e-04 0. -4.51165847e-02 0. -1.28244534e-02
      -2.99813114e-02 4.96842191e-02 1.21341525e-02 -1.03951562e-02
      -3.11061535e-02 0. -1.88969020e-02 0. 2.44317413e-03
      -3.05772759e-02 1.21341525e-02 -7.85985775e-03 0. 0. 0. 0. 0.
      -8.67981650e-03 -2.90064211e-03 -7.85985775e-03 -4.50721271e-02
      -2.45738518e-03 -7.35340547e-03 0. 0. 0. -2.13002227e-02
      -7.11816037e-03 -4.50721271e-02 1.13212764e-02 -3.71146426e-02
      -3.04022450e-02 0. -1.01283845e-02 0. 1.86576080e-02
      6.23504445e-03 1.13212764e-02 3.11587509e-02 -2.92842165e-02
      -2.71334575e-04 0. -4.57550995e-02 0. 1.12392548e-02
      -5.26039395e-03 3.11587509e-02 -3.42643708e-02 -5.35541493e-03
      -1.60253812e-02 0. 0. 0. -5.63302636e-03 -1.88245857e-03
      -3.42643708e-02 -9.09076910e-03 -2.88626156e-03 -8.63676146e-03 0.
      -6.20590232e-04 0. -5.89769660e-03 -1.97090674e-03 -9.09076910e-03
      4.34155762e-02 -2.24137818e-03 -6.70703314e-03 0. -3.33484262e-02
      0. -1.92157775e-02 -3.93851139e-02 4.34155762e-02 2.90425774e-02
      -1.03869261e-02 -3.02753448e-02 0. -7.63188489e-03 0.
      -5.56479245e-02 -2.58170962e-02 2.90425774e-02 -1.97575837e-02
      -1.77513939e-04 -5.31187397e-04 0. -8.78135557e-04 0.
      -1.79118775e-02 -5.98583464e-03 -1.97575837e-02 -6.36099055e-02
      -3.06428410e-03 -9.16947145e-03 0. -2.02646654e-04 0.
      -1.63418110e-02 -5.46114612e-03 -6.36099055e-02 1.73286255e-02
      -4.76080738e-02 -4.99276556e-02 0. -1.93469580e-02 0.
      -5.21487044e-03 -1.74271816e-03 1.73286255e-02 5.24635985e-02
      -2.67249551e-02 1.64333712e-02 0. -5.57099059e-02 0. 0. 0.
      5.24635985e-02 -5.36723696e-02 -8.69849138e-03 -2.60291025e-02 0.
      0. 0. -2.48800474e-03 -8.31447600e-04 -5.36723696e-02
      -1.08826300e-02 -5.10740792e-03 -1.52832521e-02 0. 0. 0. 0. 0.
      -1.08826300e-02</_>
    <_>
      -1.78831182e-02 -5.35959052e-03 -1.60378385e-02 0. -4.91408668e-02
      0. -4.10245471e-02 -1.37097184e-02 -1.78831182e-02 4.70232964e-02
      9.27724876e-03 2.77610663e-02 0. 3.43515654e-03 0. 1.17702568e-02
      3.93342273e-03 4.70232964e-02 -1.32353734e-02 9.95033234e-03
      3.00493650e-02 0. 3.00493650e-02 0. -5.11753447e-02
      -2.19983719e-02 -1.32353734e-02 2.81076208e-02 5.17546991e-03
      -2.41564270e-02 0. 8.12937468e-02 0. 6.04677610e-02 2.05345806e-02
      2.81076208e-02 4.75793593e-02 2.62604654e-03 7.85813294e-03 0.
      4.54619946e-03 0. 3.16536762e-02 1.05781294e-02 4.75793593e-02
      9.13443044e-04 -3.42893712e-02 -8.96791741e-02 0. 1.17479928e-03
      0. 1.09050889e-02 3.64429876e-03 9.13443044e-04 5.79614155e-02
      8.61336663e-03 -3.03350911e-02 0. 7.97817782e-02 0. 7.97817782e-02
      5.77666424e-02 5.79614155e-02 -4.67612743e-02 -9.70677063e-02
      -7.10689425e-02 0. 7.73672611e-02 0. 5.99803664e-02 2.00444385e-02
      -4.67612743e-02 -2.12731380e-02 -4.06530760e-02 -7.76077136e-02 0.
      -3.29557341e-03 0. -3.05285817e-03 -1.02021417e-03 -2.12731380e-02
      -6.90246671e-02 -2.58749016e-02 -6.32852092e-02 0. -4.45797592e-02
      0. -4.56872098e-02 -1.52679021e-02 -6.90246671e-02 -2.62317825e-02
      -7.06019402e-02 -7.76077136e-02 0. -6.92222593e-03 0.
      -1.03492374e-02 -3.45853460e-03 -2.62317825e-02 -3.55757177e-02
      -2.78107580e-02 -5.85400350e-02 0. -6.88137859e-02 0.
      -4.75212596e-02 -1.58807971e-02 -3.55757177e-02 -5.60904220e-02
      -2.94402032e-03 -8.75342824e-03 0. -1.02835380e-01 0.
      -9.18648914e-02 -3.20809484e-02 -5.60904220e-02 -2.73801247e-03
      -2.41378712e-05 -7.22294426e-05 0. -3.89900170e-02 0.
      -2.20429618e-02 -7.36638857e-03 -2.73801247e-03 -2.03965940e-02
      -2.40521133e-03 -6.84742443e-03 0. -1.02835380e-01 0.
      -7.30922297e-02 -3.08285616e-02 -2.03965940e-02 -7.37469178e-04
      -5.94668018e-05 -1.77946640e-04 0. -6.34990111e-02 0.
      -3.68436649e-02 -1.23125352e-02 -7.37469178e-04 -5.82952052e-03
      2.20992584e-02 5.33107407e-02 0. 6.73657060e-02 0. -1.92654936e-03
      -6.43820560e-04 -5.82952052e-03 -5.48506668e-03 -3.62892146e-03
      -1.62356738e-02 0. 7.70410076e-02 0. 2.99488511e-02 1.00084050e-02
      -5.48506668e-03 -2.81463303e-02 -2.11268272e-02 -1.62356738e-02 0.
      3.55694033e-02 0. 1.18315220e-03 3.95388692e-04 -2.81463303e-02
      -5.32461405e-02 -6.45461082e-02 -1.68636460e-02 0. 6.41515255e-02
      0. 3.35787460e-02 1.12214554e-02 -5.32461405e-02 1.07927909e-02
      -2.12875009e-02 -1.63212568e-02 0. 6.48907050e-02 0.
      5.81658334e-02 2.12162547e-02 1.07927909e-02 5.86489774e-03
      -6.90250918e-02 -4.96363044e-02 0. 3.84576917e-02 0.
      2.71554589e-02 9.07490682e-03 5.86489774e-03 4.27010842e-02
      -3.40063982e-02 -4.23979759e-02 0. 3.36738713e-02 0.
      5.15951850e-02 1.95066538e-02 4.27010842e-02 2.22930089e-02
      -5.05337305e-02 -4.59857620e-02 0. -3.32102589e-02 0.
      7.85246864e-03 7.75651028e-03 2.22930089e-02 1.12013258e-02
      -4.17214744e-02 -6.30249083e-02 0. -2.10553240e-02 0.
      -6.74180500e-03 -2.25297688e-03 1.12013258e-02 2.21311375e-02
      -8.51941854e-03 -2.54932269e-02 0. -7.60110989e-02 0.
      -2.59374939e-02 -8.66784621e-03 2.21311375e-02 3.33869942e-02
      -2.38257218e-02 -2.88271829e-02 0. -5.15324548e-02 0.
      3.10179554e-02 1.62567105e-02 3.33869942e-02 5.01039550e-02
      1.69308099e-03 1.21607399e-03 0. -7.60110989e-02 0. 6.88737631e-03
      6.35381183e-03 5.01039550e-02 3.40659544e-02 8.19249195e-04
      2.45151878e-03 0. -9.26985592e-02 0. -2.14742124e-02
      -7.17631029e-03 3.40659544e-02 2.38801725e-02 -4.13574344e-05
      -1.23756734e-04 0. -6.01407625e-02 0. -1.07556228e-02
      -3.59434937e-03 2.38801725e-02 5.08820824e-02 4.00510523e-03
      1.19848065e-02 0. -8.95490721e-02 0. -2.69043781e-02
      -8.93034134e-03 5.08820824e-02 2.84472816e-02 1.00492453e-03
      3.00710625e-03 0. 1.72363706e-02 0. 7.82705378e-03 1.58111472e-02
      2.84472816e-02 1.47259831e-02 -2.38356534e-02 -1.28742205e-02 0.
      -5.03215939e-03 0. 2.78316736e-02 9.30085871e-03 1.47259831e-02
      4.14745286e-02 -2.62142997e-02 -4.71932814e-02 0. 5.38759446e-03
      0. 2.93005817e-02 9.79174674e-03 4.14745286e-02 1.40222218e-02
      -5.26077254e-03 -1.57422796e-02 0. -1.30594363e-02 0.
      -7.04804529e-03 -9.71796457e-03 1.40222218e-02 -5.18507091e-03
      3.66976182e-03 1.09812589e-02 0. -2.25947369e-02 0. 3.16843134e-03
      3.46136675e-03 -5.18507091e-03 6.26192540e-02 -1.00954603e-02
      -3.02094352e-02 0. -1.71218459e-02 0. 5.91515424e-03
      1.97673752e-03 6.26192540e-02 5.81860729e-03 -1.97465885e-02
      -4.52388339e-02 0. -3.95781174e-02 0. -3.30418423e-02
      -1.57488342e-02 5.81860729e-03 -4.09973739e-03 2.20867875e-03
      6.60918327e-03 0. -2.18260175e-04 0. 1.61075834e-02 5.38286939e-03
      -4.09973739e-03 -4.09973739e-03 9.13298514e-04 2.73291161e-03 0.
      -6.55984390e-04 0. -2.43944954e-03 -8.15229432e-04 -4.09973739e-03
      1.11566884e-02 -2.09122915e-02 -2.77010445e-02 0. -3.21760960e-02
      0. -4.12045140e-03 -1.37698941e-03 1.11566884e-02 2.33519524e-02
      -1.27194636e-02 -3.65285724e-02 0. -6.20705299e-02 0.
      -9.97610390e-03 -3.74325109e-03 2.33519524e-02 1.03899539e-02
      -9.01086663e-04 -2.69641262e-03 0. -7.26960646e-03 0.
      -1.23069137e-02 -4.11275821e-03 1.03899539e-02 2.43595503e-02
      -4.55548614e-03 -1.36317173e-02 0. -3.89059968e-02 0.
      -3.80491018e-02 -1.27153434e-02 2.43595503e-02 2.83838362e-02
      -3.06038512e-03 -9.15786065e-03 0. -5.62323704e-02 0.
      -4.26107086e-02 -1.46050006e-02 2.83838362e-02 4.37309500e-03
      1.39088323e-02 4.16203700e-02 0. 1.39808143e-02 0. -9.73756891e-03
      -1.35866860e-02 4.37309500e-03 2.22654715e-02 -6.56681368e-03
      -1.96503401e-02 0. -5.64948097e-02 0. -3.98163050e-02
      -1.41061442e-02 2.22654715e-02 8.67069606e-03 -3.64635256e-03
      2.68517714e-03 0. 5.46560623e-03 0. -1.70239490e-02
      -5.68911945e-03 8.67069606e-03 6.18838379e-03 4.99514304e-03
      1.49473138e-02 0. -5.02391644e-02 0. -1.24417730e-02
      -8.18623789e-03 6.18838379e-03 4.31588944e-03 8.73994827e-03
      2.62874048e-02 0. -1.06620863e-02 0. 4.01951885e-03 8.10696930e-03
      4.31588944e-03 -1.16226664e-02 -4.01028141e-04 -1.20002450e-03 0.
      -1.35119422e-04 0. -3.39135597e-03 -1.13333168e-03 -1.16226664e-02
      -2.54565310e-02 -4.77860129e-04 -1.42993405e-03 0. 0. 0.
      -1.32307620e-03 -4.42148827e-04 -2.54565310e-02 -2.06201963e-04
      2.75703729e-03 8.25007539e-03 0. 0. 0. 2.39722803e-02
      8.01111571e-03 -2.06201963e-04 -2.06201963e-04 3.49910883e-03
      1.05215590e-02 0. -5.16351731e-03 0. 8.05923901e-03 2.23999680e-03
      -2.06201963e-04 -2.20860932e-02 -2.75659404e-04 -8.24874791e-04 0.
      0. 0. -1.01749401e-03 -3.40028637e-04 -2.20860932e-02
      -2.42114011e-02 -5.39906847e-04 -1.61560101e-03 0. -5.21763135e-03
      0. -5.58539759e-03 -1.86654192e-03 -2.42114011e-02 4.23315912e-02
      2.49565206e-03 7.46791251e-03 0. -2.40555350e-02 0.
      -7.26997200e-03 -6.32723933e-03 4.23315912e-02 5.43038808e-02
      -8.05472396e-03 -2.19628848e-02 0. -7.45509490e-02 0.
      -5.94709888e-02 -3.28921564e-02 5.43038808e-02 -1.37282452e-02
      -6.03076187e-04 -1.80462690e-03 0. -1.96143501e-02 0.
      -2.59483755e-02 -9.14139673e-03 -1.37282452e-02 -3.29275578e-02
      -1.12739857e-02 -2.61327215e-02 0. -7.45509490e-02 0.
      -6.74437508e-02 -2.56341398e-02 -3.29275578e-02 5.42873591e-02
      -1.70940645e-02 -2.19769049e-02 0. -6.50016889e-02 0.
      -3.45564075e-02 -1.63884815e-02 5.42873591e-02 4.28283140e-02
      3.42887617e-03 3.43060605e-02 0. -4.37658466e-02 0.
      -1.54168727e-02 -5.15205879e-03 4.28283140e-02 -4.53239009e-02
      -1.78020950e-02 -3.97435613e-02 0. -6.59399480e-02 0.
      -4.48818728e-02 -1.67265404e-02 -4.53239009e-02 -3.56745310e-02
      -1.28882537e-02 -3.85664180e-02 0. -4.35676649e-02 0.
      -2.13553291e-02 -7.13658379e-03 -3.56745310e-02</_>
    <_>
      -1.05688935e-02 8.75116501e-04 2.61868234e-03 0. 1.45533285e-03 0.
      -6.89574808e-04 -2.30444391e-04 -1.05688935e-02 3.56450886e-03
      9.73921502e-04 2.91434396e-03 0. 2.86658667e-03 0. 4.34861239e-03
      1.45323342e-03 3.56450886e-03 -5.09560853e-02 2.23282562e-03
      5.29256091e-03 0. 2.21624933e-02 0. -9.74863302e-03
      -4.30061482e-03 -5.09560853e-02 -1.34735403e-03 2.31501367e-02
      -1.34735403e-03 0. 4.37645130e-02 0. 1.67193320e-02 5.36812982e-03
      -1.34735403e-03 4.72920568e-04 -1.42848154e-03 -4.27456200e-03 0.
      4.96925274e-03 0. 1.41247241e-02 4.72024642e-03 4.72920568e-04
      -2.97449213e-02 -5.13679523e-04 -1.53712498e-03 0. 2.27568811e-03
      0. -4.67628660e-03 -1.56273670e-03 -2.97449213e-02 1.25492387e-03
      2.04469636e-02 1.32016176e-02 0. 4.53789197e-02 0. 3.66039462e-02
      1.86682455e-02 1.25492387e-03 -4.09325138e-02 3.10374238e-03
      9.28751752e-03 0. 9.62149352e-03 0. -1.79401673e-02
      -1.50611317e-02 -4.09325138e-02 -1.77494679e-02 -6.95945937e-06
      -2.08253587e-05 0. -2.07832130e-03 0. -1.57552939e-02
      -5.26515627e-03 -1.77494679e-02 -9.75631364e-03 -6.16891310e-03
      -1.84597410e-02 0. -8.14403780e-03 0. -2.88870535e-03
      -9.65356594e-04 -9.75631364e-03 -3.69871669e-02 -5.73059544e-03
      -1.64306816e-02 0. -6.14704527e-02 0. -5.42278215e-02
      -3.23351510e-02 -3.69871669e-02 -2.35470738e-02 -2.91175153e-02
      -4.66193557e-02 0. -6.14704527e-02 0. -4.96353246e-02
      -1.88414510e-02 -2.35470738e-02 -2.13466231e-02 -6.10225229e-03
      -1.82602648e-02 0. -6.75907079e-03 0. -9.53954086e-03
      -3.18795443e-03 -2.13466231e-02 -2.14366857e-02 -2.80493475e-03
      -8.39343388e-03 0. -6.04349514e-03 0. -2.67427973e-02
      -8.93699564e-03 -2.14366857e-02 -3.65215465e-02 -2.04985738e-02
      -5.06387502e-02 0. -5.74743748e-02 0. -5.29013574e-02
      -2.14450005e-02 -3.65215465e-02 -3.86499017e-02 -7.29759643e-03
      -2.18371935e-02 0. -5.74743748e-02 0. -5.74743748e-02
      -4.12021503e-02 -3.86499017e-02 -2.49156747e-02 1.16804140e-02
      2.50668544e-02 0. 1.34137757e-02 0. -8.85958970e-03
      -2.96072289e-03 -2.49156747e-02 -3.20896320e-02 1.90118961e-02
      1.37749827e-02 0. 2.90368386e-02 0. 1.16471825e-02 3.89229739e-03
      -3.20896320e-02 -1.78680997e-02 1.92759745e-02 2.43133940e-02 0.
      1.85472702e-04 0. -8.46027769e-03 -2.82727787e-03 -1.78680997e-02
      -2.29797512e-02 7.54756911e-04 1.24138938e-02 0. 1.85472702e-04 0.
      3.37483897e-03 -3.06231232e-06 -2.29797512e-02 -1.57593284e-02
      1.06760021e-02 2.04317886e-02 0. 2.17755325e-02 0. 1.85981896e-02
      6.63322769e-03 -1.57593284e-02 1.05339848e-02 1.58920640e-03
      4.75550024e-03 0. -2.99048983e-02 0. -1.67723149e-02
      -5.60502009e-03 1.05339848e-02 2.04225928e-02 -5.02995402e-03
      -1.50514804e-02 0. -1.64577086e-02 0. 9.21837240e-03
      3.93607002e-03 2.04225928e-02 3.96152027e-02 3.35555477e-03
      1.00411046e-02 0. -5.24309389e-02 0. -1.69802152e-04
      5.03949006e-04 3.96152027e-02 2.35249102e-02 -1.23018585e-03
      -3.68113699e-03 0. -6.90292940e-02 0. -1.39861703e-02
      -4.67394292e-03 2.35249102e-02 2.44019441e-02 -2.04250636e-03
      -6.11194922e-03 0. -6.93363398e-02 0. -1.71832033e-02
      -7.12401513e-03 2.44019441e-02 5.54119051e-02 1.16602508e-02
      3.21423262e-02 0. -6.93363398e-02 0. 8.55149142e-03 5.89616876e-03
      5.54119051e-02 5.38578928e-02 9.08802636e-03 1.67561285e-02 0.
      -6.93363398e-02 0. 2.58076545e-02 1.30027961e-02 5.38578928e-02
      1.94449499e-02 -1.73368945e-03 -5.18785929e-03 0. -7.45402500e-02
      0. -1.65873114e-02 -5.54318400e-03 1.94449499e-02 1.18750883e-02
      -1.49104709e-03 -4.46177693e-03 0. -7.45402500e-02 0.
      -3.33256274e-02 -1.11368652e-02 1.18750883e-02 5.77448979e-02
      -3.14596895e-04 -9.41384991e-04 0. -7.26715922e-02 0.
      4.67909016e-02 1.84745323e-02 5.77448979e-02 5.82048595e-02
      -6.95604552e-03 -2.08150856e-02 0. -1.63353905e-02 0.
      5.13797365e-02 3.14033069e-02 5.82048595e-02 1.58373900e-02
      5.79433609e-03 1.69312675e-02 0. -1.51194287e-02 0. 2.07801927e-02
      7.13970512e-03 1.58373900e-02 3.58826108e-02 -3.19494470e-03
      -9.56041459e-03 0. -4.03457657e-02 0. -3.79490922e-03
      -1.43009447e-03 3.58826108e-02 3.47099267e-02 -5.04661072e-03
      -1.51013434e-02 0. -2.91794986e-02 0. 7.26247253e-03
      4.17105248e-03 3.47099267e-02 4.28753644e-02 -6.74191397e-03
      -2.01743022e-02 0. -5.96532263e-02 0. -7.27550499e-03
      -1.26542442e-03 4.28753644e-02 4.57934439e-02 -1.64819369e-03
      -4.93200496e-03 0. -5.88756613e-02 0. -1.19968113e-02
      -4.16941009e-03 4.57934439e-02 4.75697406e-02 6.20693946e-03
      1.85734723e-02 0. -6.06125295e-02 0. -1.97431669e-02
      -9.20354389e-03 4.75697406e-02 5.05601428e-02 2.63982429e-03
      7.89932907e-03 0. -6.07425608e-02 0. -2.06277277e-02
      -1.18816141e-02 5.05601428e-02 4.12860811e-02 1.06375581e-02
      3.18315066e-02 0. -5.64236715e-02 0. -2.30305623e-02
      -2.67657824e-02 4.12860811e-02 4.00832370e-02 3.24846897e-03
      9.72064491e-03 0. -4.59132530e-02 0. -1.86653715e-02
      -1.32701257e-02 4.00832370e-02 2.70536691e-02 -1.94123331e-02
      -3.11154239e-02 0. -4.36346866e-02 0. -1.04285888e-02
      -3.49522359e-03 2.70536691e-02 2.06171479e-02 3.14058474e-04
      9.39753139e-04 0. -2.67785322e-02 0. -2.17946600e-02
      -2.09872872e-02 2.06171479e-02 9.34092049e-03 -2.45424230e-02
      -4.68464904e-02 0. -7.32594589e-03 0. -1.93728618e-02
      -6.47408748e-03 9.34092049e-03 4.03713249e-02 -2.17171852e-02
      -4.47466038e-02 0. -5.58651015e-02 0. 1.38741052e-02
      4.63649491e-03 4.03713249e-02 4.44588736e-02 -3.35479761e-03
      -7.46250199e-03 0. -1.04730632e-02 0. 3.99416387e-02
      1.33478297e-02 4.44588736e-02 2.89888382e-02 -3.16607244e-02
      -4.54501472e-02 0. -2.89059971e-02 0. -5.28579461e-04
      -1.76642512e-04 2.89888382e-02 4.44127209e-02 -1.26744565e-02
      -1.04730632e-02 0. -2.14827396e-02 0. 1.01410842e-03
      3.38898099e-04 4.44127209e-02 2.07204651e-02 -1.74326878e-02
      -3.50078605e-02 0. -5.22299334e-02 0. 5.29168756e-04
      -6.76313182e-03 2.07204651e-02 3.91408019e-02 -1.54198864e-02
      -2.14925855e-02 0. -5.44283949e-02 0. 1.17553473e-02
      5.05187362e-03 3.91408019e-02 -2.50108857e-02 -6.44448353e-03
      -1.92842782e-02 0. -7.44864112e-03 0. -1.48767531e-02
      -4.97154985e-03 -2.50108857e-02 -1.30797764e-02 -4.05183760e-03
      -1.21245962e-02 0. -4.13616374e-03 0. -5.21745859e-03
      -1.74358313e-03 -1.30797764e-02 5.97873032e-02 -1.40290605e-04
      -4.19800082e-04 0. -5.63138090e-02 0. -1.01347584e-02
      -1.33681102e-02 5.97873032e-02 2.61541083e-02 1.54923322e-02
      4.63587902e-02 0. -3.68941315e-02 0. -1.08603071e-02
      -4.51309122e-02 2.61541083e-02 -4.21678508e-03 -1.49501674e-03
      -4.47364291e-03 0. -1.65152003e-03 0. -1.19582620e-02
      -3.99624137e-03 -4.21678508e-03 -3.10151428e-02 0. 0. 0.
      -1.00555154e-03 0. -4.81797569e-02 -1.94925051e-02 -3.10151428e-02
      3.08121350e-02 1.64607912e-03 4.92567243e-03 0. -8.57146922e-03 0.
      -1.66212991e-02 -1.91484671e-02 3.08121350e-02 3.08121350e-02
      -2.05611717e-02 -4.68523242e-02 0. 0. 0. -1.04762586e-02
      -3.50098265e-03 3.08121350e-02 -4.12785001e-02 -1.89022545e-03
      -5.65625308e-03 0. -1.75671536e-04 0. -3.44771147e-02
      -1.15216458e-02 -4.12785001e-02 -5.04374281e-02 -1.12249479e-02
      -2.89814360e-02 0. 0. 0. -8.36415123e-03 -2.79515260e-03
      -5.04374281e-02 1.82947218e-02 -5.36492094e-02 -4.11545672e-02 0.
      -1.38596548e-02 0. 1.03288759e-04 3.45172884e-05 1.82947218e-02
      6.40126243e-02 -2.11775284e-02 1.27533786e-02 0. -3.19589935e-02
      0. 0. 0. 6.40126243e-02 -4.18444648e-02 -1.95344780e-02
      -4.93671484e-02 0. -1.66708705e-04 0. 0. 0. -4.18444648e-02
      -3.99550982e-03 -6.15340285e-03 -1.84132587e-02 0. -3.66759137e-04
      0. 0. 0. -3.99550982e-03</_>
    <_>
      1.75348837e-02 5.73570235e-03 1.71633940e-02 0. 3.32961902e-02 0.
      1.63206514e-02 5.45408763e-03 1.75348837e-02 1.84002127e-02
      7.37496419e-03 2.20686719e-02 0. 2.01263186e-02 0. 9.32392851e-03
      3.11590335e-03 1.84002127e-02 -9.54779703e-03 -1.30686108e-02
      -3.01821099e-04 0. -3.01821099e-04 0. -9.30996891e-03
      2.10261717e-03 -9.54779703e-03 -3.17325629e-02 -4.34793392e-03
      -2.50071455e-02 0. -2.27723289e-02 0. -4.52242307e-02
      -2.85422076e-02 -3.17325629e-02 3.67393717e-02 8.21539480e-03
      2.45835148e-02 0. 4.85757887e-02 0. 5.02312705e-02 2.15507187e-02
      3.67393717e-02 -4.14431607e-03 4.07908112e-03 1.22061623e-02 0.
      7.83802476e-03 0. 2.86844280e-03 9.58585646e-04 -4.14431607e-03
      2.37836447e-02 2.69522183e-02 -7.75524369e-03 0. -1.40904095e-02
      0. 2.18002172e-03 1.53029542e-02 2.37836447e-02 -1.18311122e-01
      -3.11038904e-02 -1.61066521e-02 0. -5.15602455e-02 0.
      -1.01851039e-01 -3.86557765e-02 -1.18311122e-01 1.72414677e-03
      8.62657558e-03 2.58140042e-02 0. 1.46655319e-03 0. 0. 0.
      1.72414677e-03 5.25238663e-02 3.02779693e-02 8.05711970e-02 0.
      -5.83585836e-02 0. -1.31540066e-02 -4.39583836e-03 5.25238663e-02
      -9.79504734e-02 3.28204557e-02 1.65596884e-02 0. -6.73124269e-02
      0. -1.22921512e-01 -6.61721528e-02 -9.79504734e-02 6.66382313e-02
      1.04044415e-01 5.08710630e-02 0. -5.22832610e-02 0.
      -1.22921512e-01 -5.54547496e-02 6.66382313e-02 4.96584214e-02
      1.12219909e-02 2.35572886e-02 0. -3.46529633e-02 0.
      -1.28089199e-02 -4.28051967e-03 4.96584214e-02 2.57417876e-02
      -1.99733232e-03 -5.97678171e-03 0. -1.24480901e-02 0.
      -3.03827878e-02 -1.01534184e-02 2.57417876e-02 5.63401766e-02
      2.78391391e-02 1.55366734e-02 0. -6.61629736e-02 0.
      -9.09980834e-02 -3.50376293e-02 5.63401766e-02 2.76361350e-02
      -4.80611995e-03 -1.17445299e-02 0. -4.71147448e-02 0.
      -3.95099111e-02 -4.83156219e-02 2.76361350e-02 1.10021501e-03
      1.19167585e-02 9.25737433e-03 0. -9.18024778e-03 0.
      -9.72045411e-04 -3.24841385e-04 1.10021501e-03 -4.56273975e-03
      3.63061763e-03 7.68203568e-03 0. -3.44575308e-02 0.
      -1.55060478e-02 -5.18186297e-03 -4.56273975e-03 1.35277333e-02
      8.80475808e-03 2.52862498e-02 0. -1.24614891e-02 0. 2.41687186e-02
      1.21267019e-02 1.35277333e-02 1.11983120e-02 2.20782012e-02
      2.11883578e-02 0. -3.85022722e-02 0. -3.62273790e-02
      -9.75917839e-03 1.11983120e-02 -5.70004573e-04 6.59400178e-03
      1.93708129e-02 0. -4.27242927e-02 0. 7.18748197e-03 2.40193633e-03
      -5.70004573e-04 -4.20258604e-02 1.43774776e-02 -1.39505928e-02 0.
      -8.31489787e-02 0. -4.36180420e-02 -1.45764221e-02 -4.20258604e-02
      1.96265839e-02 1.96398161e-02 2.83574872e-03 0. -4.15206216e-02 0.
      1.09131751e-03 1.38854524e-02 1.96265839e-02 2.58380380e-02
      8.54645297e-02 1.77378841e-02 0. -5.44903092e-02 0.
      -1.13262003e-02 -3.78502673e-03 2.58380380e-02 -3.54697630e-02
      5.95695600e-02 5.70028275e-02 0. -7.03157037e-02 0.
      -9.29341018e-02 -3.15016732e-02 -3.54697630e-02 2.30229571e-02
      7.12403432e-02 1.14695176e-01 0. -6.50997609e-02 0.
      -4.38052975e-02 -1.46389874e-02 2.30229571e-02 3.69204301e-03
      9.93787423e-02 9.68547836e-02 0. -6.26939088e-02 0.
      -1.19321980e-01 -5.03680073e-02 3.69204301e-03 8.35134275e-03
      6.91352934e-02 6.26701564e-02 0. -1.53514156e-02 0.
      -8.06062445e-02 -2.88286619e-02 8.35134275e-03 2.22465936e-02
      2.39959452e-02 5.32882251e-02 0. -6.94525912e-02 0.
      -3.82819287e-02 -1.27931498e-02 2.22465936e-02 1.16527416e-02
      1.13565782e-02 2.59968489e-02 0. -4.86642728e-03 0.
      -4.26530950e-02 -1.42539488e-02 1.16527416e-02 1.26363039e-02
      1.53490948e-02 3.33946152e-03 0. -2.42678216e-03 0. 3.48210074e-02
      1.16365645e-02 1.26363039e-02 3.90585838e-03 1.18897203e-03
      -1.26429675e-02 0. -2.42678216e-03 0. 3.23725305e-02
      1.27366511e-02 3.90585838e-03 2.35521961e-02 2.40688631e-03
      7.20231701e-03 0. -1.30768036e-02 0. -1.51137961e-02
      4.35790699e-03 2.35521961e-02 1.48403272e-02 1.47156864e-02
      1.39966290e-02 0. -3.30754593e-02 0. -1.84096564e-02
      -1.76006481e-02 1.48403272e-02 2.33513825e-02 1.90775120e-03
      5.70871029e-03 0. -3.95859629e-02 0. -2.90708593e-03
      -7.71935610e-03 2.33513825e-02 2.42495537e-03 7.57453125e-03
      1.17766727e-02 0. -3.10361143e-02 0. -1.96370799e-02
      -6.92451606e-03 2.42495537e-03 4.02026204e-03 6.13112841e-03
      -1.21982256e-03 0. -6.04665279e-02 0. -1.76512133e-02
      1.07006184e-04 4.02026204e-03 8.44864454e-03 4.49035987e-02
      1.93634145e-02 0. -6.00799024e-02 0. -1.66598540e-02
      -5.56742959e-03 8.44864454e-03 -6.65061502e-03 -1.24976048e-02
      -1.61345713e-02 0. -6.68373937e-03 0. 1.25291497e-02
      7.49198906e-03 -6.65061502e-03 -9.83885396e-03 8.78650416e-03
      1.33209964e-02 0. -2.57749129e-02 0. -8.69723856e-02
      -3.41531299e-02 -9.83885396e-03 -1.33753521e-02 7.41880313e-02
      1.07237794e-01 0. -3.55561860e-02 0. -1.00268215e-01
      -5.63344061e-02 -1.33753521e-02 -4.90007214e-02 3.99295986e-02
      3.79685313e-02 0. 4.16097492e-02 0. -8.74633119e-02
      -5.65947033e-02 -4.90007214e-02 -1.70548223e-02 6.19906709e-02
      6.10081628e-02 0. -1.55624822e-02 0. -1.00920856e-01
      -8.12868401e-02 -1.70548223e-02 -8.16199183e-02 3.04916818e-02
      2.03542504e-02 0. 8.44337642e-02 0. -8.59059989e-02
      -4.68675978e-02 -8.16199183e-02 -2.53619347e-02 -1.11144986e-02
      -5.41737899e-02 0. 4.63825613e-02 0. -1.01680476e-02
      -3.39800352e-03 -2.53619347e-02 3.27245070e-04 -3.60203236e-02
      -9.42855328e-02 0. 4.03124206e-02 0. 4.12851982e-02 1.37967914e-02
      3.27245070e-04 -5.52003682e-02 -3.33204381e-02 -6.32742494e-02 0.
      1.02674499e-01 0. 4.80765151e-03 1.60662259e-03 -5.52003682e-02
      -5.56419231e-03 -7.18539059e-02 -8.49210247e-02 0. 3.14620994e-02
      0. 2.98040826e-02 9.96000879e-03 -5.56419231e-03 1.71661917e-02
      3.79693694e-03 1.13618392e-02 0. -4.21302579e-02 0.
      -7.38151884e-03 -1.68458689e-02 1.71661917e-02 -7.18960306e-03
      -3.29437596e-03 -2.50613242e-02 0. -2.77293976e-02 0.
      -2.16978341e-02 -2.86944173e-02 -7.18960306e-03 2.50310209e-02
      2.95317313e-03 8.83698557e-03 0. 3.86887150e-05 0. 2.28572451e-02
      7.76551943e-03 2.50310209e-02 -3.01410677e-03 4.69871657e-03
      1.37175070e-02 0. 1.75857749e-05 0. 2.70697940e-03 9.04624350e-04
      -3.01410677e-03 5.65244583e-03 -2.94344332e-02 -4.21499982e-02 0.
      -6.05783518e-03 0. 1.54903007e-03 4.40950040e-03 5.65244583e-03
      3.99626093e-03 -6.92365458e-03 5.65244583e-03 0. -5.60414568e-02
      0. -1.03473984e-01 -3.84272411e-02 3.99626093e-03 1.39752002e-02
      4.59427387e-03 1.37477703e-02 0. 0. 0. 2.09787954e-03
      7.01074488e-04 1.39752002e-02 2.60552578e-02 8.37999582e-03
      2.50760484e-02 0. -1.91500923e-03 0. -5.25027281e-03
      -1.75454933e-03 2.60552578e-02 -1.26856081e-02 1.10713176e-01
      9.35407504e-02 0. -4.22831997e-02 0. -1.10986844e-01
      -9.66623873e-02 -1.26856081e-02 -7.64799491e-02 2.15816498e-02
      1.71789434e-02 0. 9.64136496e-02 0. -2.13814564e-02
      -3.01629007e-02 -7.64799491e-02 -1.03483452e-02 9.99607891e-03
      2.99119633e-02 0. -1.27833313e-03 0. -4.82605807e-02
      -1.61278397e-02 -1.03483452e-02 -7.93161094e-02 -1.06273424e-02
      -3.18009295e-02 0. 5.21340817e-02 0. -1.98352011e-03
      1.16917312e-04 -7.93161094e-02 -8.10510218e-02 -3.77966762e-02
      -8.91859457e-03 0. 6.56421408e-02 0. 4.48175706e-02 2.02718507e-02
      -8.10510218e-02 1.47624770e-02 -6.50662929e-02 -3.38643454e-02 0.
      2.07133088e-02 0. 9.40343887e-02 3.22104692e-02 1.47624770e-02
      -5.26939966e-02 -1.62029918e-02 -4.84853461e-02 0. 2.86193434e-02
      0. 3.53946798e-02 1.18282810e-02 -5.26939966e-02 1.97823867e-02
      1.05259232e-02 3.14974524e-02 0. 2.29974706e-02 0. 2.04390381e-02
      6.83036819e-03 1.97823867e-02</_>
    <_>
      7.64588825e-03 -7.73783075e-03 -1.93916019e-02 0. -1.59870647e-02
      0. 2.36464329e-02 7.90224224e-03 7.64588825e-03 3.26398388e-02
      1.01047885e-02 3.02373525e-02 0. 1.91241726e-02 0. 2.51235142e-02
      8.39585997e-03 3.26398388e-02 -1.65546872e-02 4.53706048e-02
      1.68309640e-02 0. 1.68309640e-02 0. -2.40085050e-02
      -2.87918001e-02 -1.65546872e-02 -9.85540799e-04 -2.30594501e-02
      -7.37040490e-02 0. 5.03649116e-02 0. 2.84853224e-02 9.51931905e-03
      -9.85540799e-04 3.00804097e-02 6.93569798e-03 2.07541827e-02 0.
      3.72860320e-02 0. 4.31491435e-02 1.87626146e-02 3.00804097e-02
      8.69566458e-04 -3.18230391e-02 -9.52266827e-02 0. 6.90165395e-03
      0. 2.59399507e-03 8.66869756e-04 8.69566458e-04 2.13517342e-03
      -5.07771643e-03 -7.42234290e-02 0. 5.10482974e-02 0.
      4.80057597e-02 2.14318912e-02 2.13517342e-03 -5.59114888e-02
      -2.53129080e-02 -1.87306479e-02 0. 2.36578528e-02 0.
      2.74657318e-03 9.17859026e-04 -5.59114888e-02 -1.49309533e-02
      -3.82104442e-02 -7.30046332e-02 0. 1.58170133e-03 0. 0. 0.
      -1.49309533e-02 -1.78542417e-02 2.87492032e-04 1.78871788e-02 0.
      -3.45731825e-02 0. -4.56895195e-02 -1.52686751e-02 -1.78542417e-02
      -6.18841592e-03 -1.63192172e-02 1.35289207e-02 0. 2.42075343e-02
      0. -5.74392639e-03 -1.91951927e-03 -6.18841592e-03 2.61557847e-02
      5.27173206e-02 1.63893029e-02 0. -5.35907000e-02 0.
      -5.06251417e-02 -1.69180669e-02 2.61557847e-02 2.87813507e-03
      1.46754822e-02 3.47779840e-02 0. -1.18061103e-01 0.
      -8.91410559e-02 -3.14328149e-02 2.87813507e-03 7.11300001e-02
      7.46062864e-03 2.23250445e-02 0. -3.40570956e-02 0. 2.83930413e-02
      9.48848017e-03 7.11300001e-02 5.46309128e-02 1.75004005e-02
      5.87960333e-03 0. -5.07710390e-02 0. -5.53195514e-02
      -2.43750066e-02 5.46309128e-02 7.11393729e-02 9.64196119e-03
      2.84978710e-02 0. -5.15224822e-02 0. 5.06380685e-02 2.19180007e-02
      7.11393729e-02 2.54018162e-03 4.13408428e-02 8.31943452e-02 0.
      9.43562463e-02 0. 9.81304422e-03 3.27935512e-03 2.54018162e-03
      -3.01593523e-02 -4.02582884e-02 -9.16787684e-02 0. 5.36105782e-02
      0. 1.17795542e-02 3.93652963e-03 -3.01593523e-02 2.78276252e-03
      -7.42607340e-02 -9.99402478e-02 0. 7.78955370e-02 0.
      9.89411324e-02 4.30107713e-02 2.78276252e-03 -6.00297190e-02
      -5.97941875e-02 -5.57467900e-02 0. 4.36880440e-02 0.
      4.35712300e-02 1.76046081e-02 -6.00297190e-02 -2.57148221e-02
      -3.96681093e-02 -4.29364815e-02 0. 5.70324585e-02 0.
      1.27873691e-02 4.27332520e-03 -2.57148221e-02 -3.98270898e-02
      -2.97885258e-02 -9.15251393e-03 0. 3.50371525e-02 0.
      -4.59706353e-04 -1.53625297e-04 -3.98270898e-02 -5.61023271e-03
      -2.53110006e-03 -1.99720357e-02 0. 3.66159342e-02 0.
      2.18552183e-02 1.96285527e-02 -5.61023271e-03 -3.28291506e-02
      1.39270658e-02 3.16211185e-03 0. 1.42353596e-02 0. -2.67252624e-02
      -8.93113669e-03 -3.28291506e-02 -3.09784617e-02 1.91764701e-02
      3.29028675e-03 0. -5.01467474e-03 0. -2.49847937e-02
      -8.34947918e-03 -3.09784617e-02 1.04961693e-02 3.65492627e-02
      5.05621731e-02 0. -7.59950206e-02 0. -2.72577349e-02
      -9.10906121e-03 1.04961693e-02 -5.83267137e-02 3.02670449e-02
      3.29028675e-03 0. -5.19383810e-02 0. -3.49081643e-02
      -1.16657093e-02 -5.83267137e-02 -8.65140092e-03 4.86537106e-02
      2.55217794e-02 0. -4.62775957e-03 0. 2.40710494e-03 2.39386898e-03
      -8.65140092e-03 1.87718719e-02 4.43050545e-03 -3.62108997e-03 0.
      -3.76968980e-02 0. -6.16460154e-03 -2.06010696e-03 1.87718719e-02
      1.19175613e-02 1.53439250e-02 3.86348441e-02 0. 3.10104731e-02 0.
      5.01084216e-02 1.67453792e-02 1.19175613e-02 -3.17181833e-02
      2.20692251e-02 2.75049098e-02 0. -5.70106274e-03 0.
      -6.44461140e-02 -2.15368401e-02 -3.17181833e-02 -7.46612176e-02
      2.47741900e-02 5.93657382e-02 0. 4.68141399e-02 0. -3.57351117e-02
      -1.29409619e-02 -7.46612176e-02 3.38468961e-02 -7.20860511e-02
      -1.00437574e-01 0. -5.45795970e-02 0. 9.20109302e-02
      3.85070592e-02 3.38468961e-02 3.46177481e-02 -2.61654891e-02
      -5.22590652e-02 0. 7.90112559e-03 0. 4.22849283e-02 2.10617855e-02
      3.46177481e-02 1.83777697e-03 -1.83471199e-02 -5.49016036e-02 0.
      -8.17998499e-02 0. 1.08641200e-02 1.17241237e-02 1.83777697e-03
      -2.35436969e-02 2.20301412e-02 3.60575020e-02 0. -3.18111107e-02
      0. 1.45274717e-02 2.60285772e-02 -2.35436969e-02 1.82691421e-02
      3.09635885e-02 1.66334361e-02 0. -3.10306400e-02 0.
      -7.80030023e-05 4.98806126e-03 1.82691421e-02 -7.40809366e-02
      3.02633122e-02 2.74166781e-02 0. -2.93314867e-02 0.
      -7.49029741e-02 -3.24214287e-02 -7.40809366e-02 -4.13880311e-02
      4.79623266e-02 7.57517591e-02 0. 3.79150821e-04 0. 1.67122111e-02
      8.59758165e-03 -4.13880311e-02 -7.12162182e-02 8.14703256e-02
      6.00030385e-02 0. 2.43224166e-02 0. -5.53943999e-02
      -1.85118597e-02 -7.12162182e-02 -9.39730555e-02 1.52684152e-02
      4.62521091e-02 0. -7.19620939e-03 0. -4.58104014e-02
      -1.53090674e-02 -9.39730555e-02 -4.66911085e-02 1.96612645e-02
      3.82514037e-02 0. 2.83817798e-02 0. -3.65790352e-02
      -1.22241154e-02 -4.66911085e-02 -7.77278394e-02 4.85350974e-02
      7.44786486e-02 0. 2.81356573e-02 0. -6.37553334e-02
      -2.17279829e-02 -7.77278394e-02 -4.95713875e-02 3.03461943e-02
      2.65372675e-02 0. 6.70090616e-02 0. -3.57781313e-02
      -1.19564310e-02 -4.95713875e-02 -6.32310435e-02 3.01110372e-02
      2.32387688e-02 0. 6.42793402e-02 0. -7.38443807e-02
      -2.78445818e-02 -6.32310435e-02 -9.14316773e-02 2.62682815e-03
      7.86042307e-03 0. 7.15990067e-02 0. -4.42893654e-02
      -2.94345859e-02 -9.14316773e-02 -7.16891885e-02 7.20953662e-03
      1.15956960e-03 0. 8.45380872e-02 0. -1.54753793e-02
      -5.69103193e-03 -7.16891885e-02 -8.32380131e-02 -3.74014340e-02
      -4.52638231e-02 0. 5.80832735e-02 0. -6.56730868e-03
      -2.19469611e-03 -8.32380131e-02 -5.39150536e-02 8.19828827e-03
      2.45323014e-02 0. -9.23095047e-02 0. -9.90517996e-03
      -3.17703962e-04 -5.39150536e-02 -1.12280566e-02 3.29020955e-02
      6.06675781e-02 0. -1.36439241e-02 0. 1.61417145e-02 3.79743688e-02
      -1.12280566e-02 2.42349431e-02 7.10203219e-03 2.12519038e-02 0.
      -1.48128718e-03 0. 2.98590995e-02 9.97838657e-03 2.42349431e-02
      -6.97164983e-03 1.85802653e-02 5.55990227e-02 0. 4.31005428e-05 0.
      1.89949777e-02 6.34778803e-03 -6.97164983e-03 -1.12981396e-02
      7.38722235e-02 6.34553209e-02 0. 3.64183984e-03 0. 2.92283390e-02
      1.33152222e-02 -1.12981396e-02 -7.15280697e-02 7.14650750e-02
      5.28380312e-02 0. -1.19628001e-03 0. -5.19390889e-02
      -1.75281893e-02 -7.15280697e-02 -3.84126138e-03 2.00751293e-02
      6.00722134e-02 0. 0. 0. 3.62882623e-03 1.21269003e-03
      -3.84126138e-03 -3.61408740e-02 4.17615846e-03 1.24966120e-02 0.
      -1.78201851e-02 0. -1.54393753e-02 -5.15956758e-03 -3.61408740e-02
      -4.97367270e-02 6.62132204e-02 9.27309468e-02 0. -3.15262750e-02
      0. -6.38076514e-02 -2.86661070e-02 -4.97367270e-02 -3.95086303e-04
      2.49409657e-02 2.36232113e-02 0. 1.41915306e-02 0. 5.36645763e-03
      2.27712486e-02 -3.95086303e-04 -1.80204697e-02 1.25068822e-03
      3.74252070e-03 0. -6.53148368e-02 0. -6.82391524e-02
      -2.49581859e-02 -1.80204697e-02 -2.31089797e-02 -2.93024927e-02
      -6.43622875e-02 0. -3.14068608e-02 0. -1.32531975e-03
      -5.17003983e-03 -2.31089797e-02 -3.20799574e-02 1.83942299e-02
      3.27043422e-02 0. -1.92701835e-02 0. 4.14872766e-02 1.82615407e-02
      -3.20799574e-02 -3.50087918e-02 -1.44845620e-02 -1.92701835e-02 0.
      6.76629227e-03 0. 7.14829043e-02 2.45329235e-02 -3.50087918e-02
      -4.07469692e-03 -3.19032185e-02 -4.39429022e-02 0. -7.18241110e-02
      0. 1.21007692e-02 2.92236032e-03 -4.07469692e-03 2.23139953e-03
      9.74785909e-03 2.91692000e-02 0. -2.45305635e-02 0.
      -2.75447476e-03 -9.20500839e-04 2.23139953e-03</_>
    <_>
      1.14412075e-02 9.11193341e-03 2.72663739e-02 0. 2.68879514e-02 0.
      1.54104056e-02 5.14990045e-03 1.14412075e-02 7.27770990e-03
      2.46584509e-03 7.37871928e-03 0. 1.84048023e-02 0. 2.27627382e-02
      7.60692777e-03 7.27770990e-03 -3.75466943e-02 1.76722035e-02
      2.49271654e-03 0. 4.88281026e-02 0. -1.77551303e-02
      -7.15340720e-03 -3.75466943e-02 -3.75200473e-02 -2.10552923e-02
      -2.09631342e-02 0. 4.60728966e-02 0. -1.82874256e-03
      -8.31763085e-04 -3.75200473e-02 -8.55980814e-03 3.19428364e-04
      9.55783762e-04 0. 3.88453938e-02 0. 3.65885496e-02 1.66452136e-02
      -8.55980814e-03 -3.60635221e-02 1.48640841e-03 4.44789650e-03 0.
      4.64258483e-03 0. -1.61390696e-02 -5.39340777e-03 -3.60635221e-02
      -3.43040600e-02 1.11509319e-02 1.05314935e-02 0. 3.83777134e-02 0.
      2.33908519e-02 1.16051706e-02 -3.43040600e-02 -6.21000640e-02
      2.95859966e-02 1.07511748e-02 0. -3.53599414e-02 0.
      -6.94279298e-02 -3.56359072e-02 -6.21000640e-02 -1.23400269e-02
      5.24902903e-03 1.57070979e-02 0. -1.79034262e-03 0.
      -1.78779513e-02 -5.97451301e-03 -1.23400269e-02 2.82307696e-02
      2.18939502e-02 5.96599467e-02 0. -1.88327790e-03 0.
      -2.53870385e-03 -8.48392025e-04 2.82307696e-02 -2.36525387e-02
      3.66586260e-02 4.80164066e-02 0. -5.16427793e-02 0.
      -6.65969104e-02 -3.54930721e-02 -2.36525387e-02 8.51192418e-03
      3.06908488e-02 6.65607024e-03 0. -2.95215528e-02 0.
      -7.16304705e-02 -2.39376575e-02 8.51192418e-03 3.08816526e-02
      1.32755963e-02 3.04310936e-02 0. -1.15662278e-03 0. 6.39888865e-04
      2.13841093e-04 3.08816526e-02 2.57400796e-02 4.48093424e-03
      1.34086609e-02 0. 9.68455989e-03 0. 4.99963248e-03 1.67079456e-03
      2.57400796e-02 6.65324833e-03 7.67328264e-03 -9.07091517e-03 0.
      -3.65046337e-02 0. -5.45569472e-02 -1.93348471e-02 6.65324833e-03
      -5.65462606e-03 3.77086760e-03 1.10474676e-02 0. -3.27545181e-02
      0. -2.57025156e-02 -2.47740634e-02 -5.65462606e-03 -3.76728699e-02
      1.07730795e-02 2.26999689e-02 0. 5.14694825e-02 0. -2.45831758e-02
      -8.21527746e-03 -3.76728699e-02 -5.72446883e-02 -3.14685120e-03
      -8.18721019e-03 0. 4.95059453e-02 0. -8.87365919e-03
      -2.96542048e-03 -5.72446883e-02 -2.61977203e-02 -1.16021959e-02
      -2.34521832e-02 0. 2.11891793e-02 0. 2.28253510e-02 9.92036983e-03
      -2.61977203e-02 -3.19449194e-02 7.40248524e-03 -8.84049106e-03 0.
      1.64984271e-03 0. 1.03728417e-02 1.90136000e-03 -3.19449194e-02
      -4.67684343e-02 1.32013811e-03 3.79813439e-03 0. 1.45684890e-02 0.
      -1.89045127e-02 -6.31756196e-03 -4.67684343e-02 -2.35301983e-02
      2.19657868e-02 2.88099460e-02 0. -5.32337204e-02 0.
      -5.54104596e-02 -1.85172446e-02 -2.35301983e-02 3.92930396e-03
      2.01652721e-02 2.54209153e-02 0. -1.54341804e-02 0.
      -2.51657125e-02 4.12794948e-03 3.92930396e-03 2.33041756e-02
      7.58978799e-02 7.05684125e-02 0. -3.71140726e-02 0.
      -5.18380031e-02 -1.89269967e-02 2.33041756e-02 -3.07962345e-03
      4.26380560e-02 5.04019707e-02 0. -5.77156544e-02 0.
      -3.77221853e-02 -1.26061235e-02 -3.07962345e-03 7.68033369e-03
      3.70132029e-02 4.00641076e-02 0. -4.62529473e-02 0.
      -5.01431860e-02 -1.67569742e-02 7.68033369e-03 7.25454232e-03
      6.94659203e-02 7.33779892e-02 0. -5.67309372e-02 0.
      -5.52647412e-02 -2.05916315e-02 7.25454232e-03 1.02964351e-02
      3.81984264e-02 3.02349664e-02 0. -2.20002122e-02 0.
      -2.01947205e-02 -5.68914274e-03 1.02964351e-02 8.11009028e-04
      1.41067868e-02 2.50421856e-02 0. -5.02845123e-02 0.
      -2.89598219e-02 -9.67786741e-03 8.11009028e-04 4.55482106e-04
      1.37275364e-02 3.36722024e-02 0. -1.17092393e-02 0.
      -5.75351855e-03 -1.92274491e-03 4.55482106e-04 9.08267032e-03
      1.91533528e-02 1.81136150e-02 0. -9.44694411e-03 0. 9.00800247e-03
      3.01031722e-03 9.08267032e-03 3.42319394e-03 8.79269745e-03
      1.12880059e-02 0. -9.44694411e-03 0. 2.67061405e-02 1.07035898e-02
      3.42319394e-03 -3.50365706e-04 -1.02706878e-02 -3.07337288e-02 0.
      -2.21832246e-02 0. 3.01080085e-02 1.55768227e-02 -3.50365706e-04
      1.43813267e-02 6.19960204e-03 -3.25279986e-03 0. -3.47459279e-02
      0. -1.78493280e-03 7.49921426e-03 1.43813267e-02 8.80923588e-03
      -6.10968703e-03 -1.82824600e-02 0. -4.05040979e-02 0.
      1.70574617e-02 2.03652997e-02 8.80923588e-03 4.90279980e-02
      4.56383481e-04 -5.84478863e-03 0. -6.67760372e-02 0.
      -1.36561831e-02 2.00101621e-02 4.90279980e-02 3.64615023e-02
      2.37016175e-02 4.30099778e-02 0. -6.53333291e-02 0.
      -1.33308768e-02 -1.34205038e-04 3.64615023e-02 2.65603010e-02
      5.62034026e-02 7.30119720e-02 0. -6.15775064e-02 0.
      -5.88841252e-02 -2.69384570e-02 2.65603010e-02 5.88110462e-02
      1.60027519e-02 3.30372229e-02 0. -7.81648308e-02 0.
      -2.76402440e-02 -2.09011137e-02 5.88110462e-02 2.53243167e-02
      5.13683446e-02 6.75222203e-02 0. -4.93593216e-02 0.
      -7.26312846e-02 -5.58094978e-02 2.53243167e-02 -1.77069269e-02
      4.60059680e-02 7.48283640e-02 0. -2.62433216e-02 0.
      -6.52258769e-02 -3.08461729e-02 -1.77069269e-02 -2.84037367e-02
      1.13071492e-02 1.57366395e-02 0. 1.67470817e-02 0. -2.38027703e-02
      -7.95449410e-03 -2.84037367e-02 -2.68615540e-02 4.74030524e-02
      6.80831894e-02 0. 5.00910170e-03 0. -6.62051514e-02
      -4.20425013e-02 -2.68615540e-02 -6.06510490e-02 -8.86837952e-04
      -4.12480999e-03 0. 5.27545251e-02 0. -2.35121660e-02
      -7.85737485e-03 -6.06510490e-02 -5.00856573e-03 2.99336365e-03
      -3.60348932e-02 0. 1.97475627e-02 0. 2.33664294e-03 7.80864735e-04
      -5.00856573e-03 1.10894861e-03 -1.38437208e-02 -3.72532010e-02 0.
      1.97475627e-02 0. 3.40778232e-02 1.13882124e-02 1.10894861e-03
      -1.56821012e-02 -3.37079018e-02 -4.01622355e-02 0. 3.92162092e-02
      0. 7.63942394e-03 2.55296146e-03 -1.56821012e-02 3.13685415e-03
      -4.28292304e-02 -6.41899034e-02 0. 1.15406103e-02 0.
      1.96364969e-02 6.56217569e-03 3.13685415e-03 -3.64935473e-02
      -2.60355342e-02 -5.86707965e-02 0. -5.39490990e-02 0.
      6.70894096e-03 6.98547345e-03 -3.64935473e-02 5.69500551e-02
      -1.35636609e-02 -2.27578636e-02 0. -6.96052983e-02 0.
      -5.36048878e-03 3.34685966e-02 5.69500551e-02 -1.60426535e-02
      -9.10816528e-03 -2.72549968e-02 0. -1.74646694e-02 0.
      -8.32520658e-04 -2.78215477e-04 -1.60426535e-02 4.20387238e-02
      6.38193451e-05 1.90973107e-04 0. -6.50978275e-03 0. 1.75844971e-02
      5.87642938e-03 4.20387238e-02 7.36707672e-02 1.66554376e-02
      1.16799287e-02 0. -6.56364113e-02 0. -2.68718842e-02
      -2.83738840e-02 7.36707672e-02 1.49076181e-02 5.70868328e-02
      8.23637769e-02 0. -1.99918412e-02 0. -7.26110861e-02
      -8.29944983e-02 1.49076181e-02 4.64824773e-02 6.22190349e-03
      1.86182354e-02 0. -1.18537259e-03 0. -1.96647365e-02
      -6.57160906e-03 4.64824773e-02 -1.97727997e-02 8.92461464e-03
      2.67057493e-02 0. -4.37111121e-05 0. -6.72027245e-02
      -2.91166659e-02 -1.97727997e-02 -1.96687803e-02 7.69014135e-02
      7.98372254e-02 0. 1.53993461e-02 0. -6.52015209e-02
      -3.80167738e-02 -1.96687803e-02 -4.17395234e-02 5.70872938e-03
      5.98616200e-04 0. 6.68274239e-02 0. 2.51692422e-02 1.16837239e-02
      -4.17395234e-02 -4.20708880e-02 1.75106677e-03 5.23983873e-03 0.
      1.19001151e-03 0. -5.04164919e-02 -1.68483071e-02 -4.20708880e-02
      -5.41118272e-02 -1.81473587e-02 -4.51310501e-02 0. 3.51291113e-02
      0. 2.22567096e-02 7.77692720e-03 -5.41118272e-02 -4.49852794e-02
      -2.92864479e-02 -5.87215228e-03 0. 3.54892835e-02 0.
      4.06707972e-02 1.48371421e-02 -4.49852794e-02 3.39749977e-02
      -4.63597700e-02 -3.93213518e-02 0. 3.06457262e-02 0.
      6.82236552e-02 2.34548692e-02 3.39749977e-02 -3.44947428e-02
      -2.48809680e-02 -5.72331995e-02 0. 1.89776327e-02 0.
      2.79970504e-02 9.35612340e-03 -3.44947428e-02 1.44026987e-02
      3.90024087e-03 1.16709620e-02 0. 1.31315561e-02 0. 1.09749828e-02
      3.66764702e-03 1.44026987e-02</_>
    <_>
      6.40702317e-04 -1.00384129e-03 -3.00375791e-03 0. -4.33072932e-02
      0. -1.60715508e-03 -5.37084474e-04 6.40702317e-04 2.17624214e-02
      3.84515151e-03 1.15061589e-02 0. 6.70508621e-03 0. 2.47408114e-02
      8.26796610e-03 2.17624214e-02 -9.29747801e-03 5.34805879e-02
      4.61479090e-02 0. 1.12237455e-02 0. -1.82045512e-02
      -2.38909945e-02 -9.29747801e-03 2.23357175e-02 -3.51818949e-02
      -2.35572606e-02 0. 8.71202201e-02 0. 8.31166729e-02 4.09694836e-02
      2.23357175e-02 5.14832139e-03 -3.77192337e-04 -1.12870336e-03 0.
      4.29543713e-03 0. 1.23291928e-02 4.12021065e-03 5.14832139e-03
      -1.73061737e-03 -3.04408371e-02 -9.10905972e-02 0. -2.13761162e-03
      0. 0. 0. -1.73061737e-03 1.46015529e-02 -1.34136695e-02
      -3.56679708e-02 0. 8.60200822e-02 0. 5.64755760e-02 2.36078873e-02
      1.46015529e-02 2.48059221e-02 -4.85855006e-02 -3.73606198e-02 0.
      8.40271190e-02 0. 7.02768862e-02 4.31229807e-02 2.48059221e-02
      -1.94725320e-02 -3.79592627e-02 -7.92696327e-02 0. -3.37591139e-03
      0. -8.92053184e-04 -2.98109284e-04 -1.94725320e-02 -5.59203699e-02
      -1.64249185e-02 -3.69145498e-02 0. 6.14854414e-03 0.
      -4.33845520e-02 -1.46371331e-02 -5.59203699e-02 4.14501801e-02
      -4.14183550e-02 -1.06566120e-02 0. 7.77536184e-02 0.
      8.41237903e-02 5.79489693e-02 4.14501801e-02 -2.06128433e-02
      -1.57155804e-02 -1.88632309e-02 0. 1.47324037e-02 0.
      3.61577198e-02 1.73305739e-02 -2.06128433e-02 -3.17256339e-02
      5.89132728e-03 1.76291429e-02 0. -7.18837231e-02 0.
      -6.63111657e-02 -2.78789122e-02 -3.17256339e-02 2.90078726e-02
      8.76720063e-03 2.62348149e-02 0. -9.71539598e-03 0. 5.39384037e-02
      1.80253126e-02 2.90078726e-02 -1.44898018e-03 4.38533258e-03
      1.32900709e-02 0. -8.99186451e-03 0. -9.69272666e-03
      -6.15317840e-03 -1.44898018e-03 2.78570987e-02 1.39920032e-02
      3.77107970e-02 0. 1.36977490e-02 0. 6.74081892e-02 5.51306792e-02
      2.78570987e-02 -1.01007125e-03 2.08558682e-02 6.09881356e-02 0.
      7.91352093e-02 0. 6.95769209e-03 2.32514320e-03 -1.01007125e-03
      -1.48493713e-02 -2.44670827e-02 -4.75765951e-02 0. 1.03076719e-01
      0. 2.65963301e-02 8.88804905e-03 -1.48493713e-02 -2.98104882e-02
      -5.85342087e-02 -8.38779360e-02 0. 6.87848628e-02 0.
      3.39814574e-02 1.13560287e-02 -2.98104882e-02 -6.16098605e-02
      -9.05322731e-02 -6.76566288e-02 0. 9.65992957e-02 0.
      7.26044476e-02 2.50564031e-02 -6.16098605e-02 -1.14935627e-02
      -3.76776978e-02 -4.64229099e-02 0. 8.64879787e-02 0.
      8.81029014e-03 2.94425199e-03 -1.14935627e-02 3.98173835e-03
      -5.43278940e-02 -1.00119859e-02 0. 8.49634409e-02 0.
      4.65394706e-02 1.60195846e-02 3.98173835e-03 -9.26829968e-03
      -2.47833002e-02 -9.00993962e-03 0. 6.56533167e-02 0.
      2.04882268e-02 6.84682326e-03 -9.26829968e-03 -3.56325582e-02
      -4.47212644e-02 -1.03195673e-02 0. 4.65214439e-02 0.
      -7.29596987e-03 -2.43818946e-03 -3.56325582e-02 -1.24938248e-04
      -3.52545902e-02 -4.56319973e-02 0. 6.16432093e-02 0.
      4.43877131e-02 1.91545989e-02 -1.24938248e-04 -1.05448030e-02
      -1.19320592e-02 -3.57051417e-02 0. 2.92545441e-03 0.
      -3.20240506e-03 -1.07018033e-03 -1.05448030e-02 -3.89291495e-02
